<?xml version="1.0"?>
<opencv_storage>
<my_svm type_id="opencv-ml-svm">
  <svm_type>C_SVC</svm_type>
  <kernel><type>LINEAR</type></kernel>
  <C>1.0000000000000000e-02</C>
  <term_criteria><epsilon>2.2204460492503131e-16</epsilon>
    <iterations>1000</iterations></term_criteria>
  <var_all>15867</var_all>
  <var_count>15867</var_count>
  <class_count>2</class_count>
  <class_labels type_id="opencv-matrix">
    <rows>1</rows>
    <cols>2</cols>
    <dt>i</dt>
    <data>
      -1 1</data></class_labels>
  <sv_total>1</sv_total>
  <support_vectors>
    <_>
      -3.43226222e-03 -4.41648206e-03 -4.41648206e-03 -1.68478268e-03
      -3.09203658e-03 -1.46866764e-03 -1.06830965e-03 -2.41663912e-03
      -4.41648206e-03 -4.41648206e-03 -3.34762549e-03 -3.32805910e-03
      -3.32189701e-03 -3.46675725e-03 -3.50984326e-03 -3.50984326e-03
      -2.64117238e-03 -3.22188903e-03 -3.50984326e-03 -5.84422285e-03
      -2.25934107e-03 -1.77067821e-03 -9.36556084e-04 -3.53227922e-04
      -1.88783015e-04 -4.89115599e-04 -4.64648707e-03 -5.84422285e-03
      -6.97825663e-03 -6.46542059e-04 -1.51130516e-04 -5.15386055e-05
      -2.29176549e-05 -2.25814074e-04 -1.28884712e-04 -1.18304929e-03
      -6.97825663e-03 -5.22339297e-03 -3.42716253e-03 -1.31693366e-03
      -7.71437539e-04 -1.76959473e-03 -3.09951894e-04 -6.54093223e-04
      -5.21348696e-03 -5.22339297e-03 -6.96851546e-03 -8.44959752e-04
      -3.01799359e-04 -2.74775695e-04 -9.85433780e-06 -2.11259568e-04
      -6.11582829e-04 -9.40553844e-04 -6.96851546e-03 -4.84353211e-03
      -4.19882312e-03 -1.27364800e-03 -1.57300278e-03 -1.31176342e-03
      -3.94149465e-05 -2.38493318e-03 -4.84353211e-03 -4.84353211e-03
      -2.31314800e-03 -4.18208586e-03 -3.36480048e-03 -4.24313033e-03
      -4.24313033e-03 -4.24313033e-03 -2.12217192e-03 -2.01985892e-03
      -1.67864794e-03 -3.79022933e-03 -4.75767767e-03 -4.75767767e-03
      -4.75767767e-03 -2.84278952e-03 -1.78529113e-03 -6.53757248e-04
      -1.04405230e-03 -2.11336440e-03 -1.01925072e-03 -5.68234362e-03
      -5.68234362e-03 -5.68234362e-03 -1.12115673e-03 -3.48136324e-04
      -2.23574883e-04 -1.46854742e-04 -2.77230283e-04 -1.79403124e-03
      -5.04846498e-03 -5.04846498e-03 -5.04846498e-03 -4.21477901e-03
      -9.26735229e-04 -6.01647364e-04 -7.93524028e-04 -4.48754610e-04
      -2.06441246e-03 -1.61301892e-03 -3.37764854e-03 -3.86680686e-03
      -2.56526330e-03 -3.86680686e-03 -3.86680686e-03 -3.86680686e-03
      -3.86680686e-03 -1.03637365e-04 -3.26283538e-04 -6.85364008e-03
      -6.85364008e-03 -2.28279061e-03 -1.59580595e-04 -1.00593905e-04
      -6.17856058e-05 -5.74075093e-05 -1.11889862e-03 -3.53396824e-03
      -4.08598408e-03 -4.08598408e-03 -4.08598408e-03 -4.08598408e-03
      -4.08598408e-03 -1.49762165e-03 -3.62944527e-04 -1.47159502e-03
      -3.92226921e-03 -3.75720090e-03 -3.59265227e-03 -3.92226921e-03
      -3.92226921e-03 -3.92226921e-03 -1.78624829e-03 -2.38566357e-03
      -1.74716522e-03 -2.92084366e-03 -2.77720508e-03 -2.72828969e-03
      -5.57429437e-03 -5.57429437e-03 -2.95542576e-03 -1.31792540e-03
      -2.93335965e-04 -4.69798129e-03 -1.13122212e-03 -1.36285741e-03
      -1.92871841e-03 -1.58289389e-03 -2.24270462e-03 -4.98491619e-03
      -4.98491619e-03 -3.65240406e-03 -3.26363894e-04 -3.79539742e-05
      -9.37020832e-06 -2.55417486e-04 -1.16287312e-03 -1.50776049e-03
      -7.28487270e-03 -6.43456122e-03 -1.00050448e-03 -3.07942857e-03
      -3.41296848e-03 -3.32037173e-03 -1.82315183e-03 -3.72031447e-03
      -3.08903819e-03 -4.12346842e-03 -4.12346842e-03 -2.59214314e-03
      -5.76409184e-05 -1.28361164e-04 -4.65291441e-06 -2.80950015e-04
      -1.06271310e-03 -5.69911720e-03 -5.69911720e-03 -5.69911720e-03
      -8.73481040e-04 -2.66332785e-03 -3.73522460e-04 -1.34779722e-03
      -2.63243774e-03 -4.08931216e-03 -4.08931216e-03 -4.08931216e-03
      -4.08931216e-03 -4.08931216e-03 -9.49169858e-04 -2.60291912e-04
      -1.04249967e-03 -1.44592160e-03 -2.76559568e-03 -4.98768315e-03
      -4.98768315e-03 -4.98768315e-03 -3.61610530e-03 -2.74644583e-03
      -1.68304879e-03 -2.07805727e-03 -2.32118135e-03 -4.46596695e-03
      -4.46596695e-03 -4.46596695e-03 -3.68070067e-03 -2.46778224e-03
      -5.28180553e-03 -5.28180553e-03 -2.77888705e-03 -2.59976811e-03
      -7.89065380e-04 -2.08978832e-04 -5.92364289e-04 -2.20696768e-03
      -4.82790545e-03 -5.45186829e-03 -2.63314159e-03 -2.41668429e-03
      -3.58246252e-05 -1.03895407e-04 -6.28899958e-04 -1.56185916e-03
      -4.93852468e-03 -5.45186829e-03 -5.84644033e-03 -7.30406726e-04
      -1.19682867e-04 -3.06274633e-05 -1.70121366e-05 -4.69795719e-04
      -6.17383339e-04 -5.46841603e-03 -5.84644033e-03 -5.33334725e-03
      -2.11081957e-03 -4.85547469e-04 -1.56915958e-05 0. -3.12270131e-04
      -3.05688079e-03 -5.33334725e-03 -5.33334725e-03 -3.79346102e-03
      -3.79346102e-03 -3.79346102e-03 -6.64094114e-04 -9.40613158e-04
      -3.45733366e-03 -3.79346102e-03 -3.79346102e-03 -3.79346102e-03
      -3.47277801e-03 -1.47162203e-03 -1.28941645e-03 -4.18137788e-04
      -1.64105045e-03 -4.94002085e-03 -4.94002085e-03 -4.94002085e-03
      -2.74569890e-03 -3.69608495e-03 -3.69608495e-03 -3.69608495e-03
      -3.69608495e-03 -1.22062978e-03 -3.69608495e-03 -3.69608495e-03
      -1.58540253e-03 -3.69608495e-03 -4.89897467e-03 -4.89897467e-03
      -3.10864160e-03 -1.83109497e-03 -3.23457381e-04 -2.39830744e-03
      -2.11947225e-03 -2.03608070e-03 -4.89897467e-03 1.90262252e-37
      -1.13144772e-04 -1.23207096e-03 -4.49024513e-03 -4.98708896e-03
      -4.98708896e-03 -4.98708896e-03 -1.71322969e-03 -5.10380953e-04
      -4.00045101e-04 1.94817301e-37 -8.32711114e-04 -4.85481368e-03
      -4.95052245e-03 -4.95052245e-03 -4.95052245e-03 -9.68658424e-04
      -7.88400008e-04 -9.53193230e-04 -7.64152719e-05 -1.45668149e-04
      -4.27929830e-04 -3.71697615e-03 -5.69819612e-03 -5.69819612e-03
      -4.40082187e-03 -4.36142640e-04 -3.91933648e-03 -3.91933648e-03
      -3.52031644e-03 -3.35074239e-03 -1.38090330e-03 -1.56180945e-03
      -3.91933648e-03 -3.91933648e-03 -3.19333887e-03 -5.13262674e-03
      -3.54783889e-03 -1.55979488e-03 -2.50024348e-03 -1.94572116e-04
      -1.02195796e-03 -2.93627963e-04 -4.93557379e-03 -5.13262674e-03
      -4.84632980e-03 -3.43815144e-03 -1.74301292e-03 -2.04687729e-03
      -1.01781019e-03 -1.79757911e-03 -2.39568157e-03 -4.84632980e-03
      -4.84632980e-03 -5.03581762e-03 -5.03581762e-03 -3.77103686e-03
      -6.61609345e-04 -7.62635900e-04 -9.97465570e-04 -8.93018907e-04
      -2.52709351e-03 -5.03581762e-03 -3.25950305e-03 -4.23871679e-03
      -3.30059114e-03 -1.22764474e-03 -4.23871679e-03 -2.94183125e-03
      -3.01002571e-03 -4.23871679e-03 -2.22180435e-03 -3.67888948e-03
      -4.89172526e-03 -4.89172526e-03 -2.18621036e-03 -1.84598018e-03
      -1.52626203e-03 -4.83479910e-03 -1.53891486e-03 -1.36347685e-03
      -3.97848617e-03 -3.36284051e-03 -1.90474570e-03 -3.97848617e-03
      -3.24801868e-03 -3.89546389e-03 -2.56551709e-03 -2.20785011e-03
      -3.97848617e-03 -4.05307999e-03 -4.05307999e-03 -1.39931752e-03
      -8.41944071e-04 -1.33478059e-03 -3.60682956e-03 -4.05307999e-03
      -4.05307999e-03 -4.05307999e-03 -3.69989779e-03 -1.92708243e-03
      -9.41454084e-04 -1.65547023e-03 -4.40609787e-04 -4.42532497e-03
      -4.42532497e-03 -4.42532497e-03 -4.42532497e-03 -4.42406721e-03
      -4.42406721e-03 -4.42406721e-03 -4.42406721e-03 -2.38354434e-03
      -2.43041827e-03 -2.54782476e-03 -1.29825447e-03 -1.22617546e-03
      -3.56127461e-03 -1.58861396e-03 -3.42123024e-03 -3.56127461e-03
      -3.56127461e-03 -3.05280602e-03 -3.56127461e-03 -3.56127461e-03
      -3.56127461e-03 -3.68294981e-03 -3.23109981e-03 -2.21522921e-03
      -3.08348052e-03 -3.41096520e-03 -2.98090372e-03 -3.68294981e-03
      -3.68294981e-03 -3.68294981e-03 -3.33232014e-03 -4.51375311e-03
      -4.51375311e-03 -4.51375311e-03 -4.51375311e-03 -1.95120857e-03
      -7.35293026e-04 -1.07729319e-03 -1.20019843e-03 -8.92319775e-04
      -1.68424216e-03 -2.68757436e-03 -6.53193425e-03 -6.53193425e-03
      -9.44204454e-04 -9.12989140e-04 -3.91518726e-04 -1.13191805e-03
      -2.09535379e-03 -3.10949329e-03 -3.65204667e-03 -3.65204667e-03
      -3.65204667e-03 -3.65204667e-03 -3.65204667e-03 -2.54111271e-03
      -3.52579262e-03 -3.59265739e-03 -3.59265739e-03 -3.45444353e-03
      -3.59265739e-03 -3.59265739e-03 -3.59265739e-03 -1.50643359e-03
      -2.82761641e-03 -3.59265739e-03 -1.42199220e-03 -4.96943761e-03
      -4.96943761e-03 -4.96943761e-03 -3.40615353e-03 -2.46141944e-03
      -2.27976451e-03 -6.41363265e-04 -3.55757918e-04 -1.33567478e-03
      -6.83291955e-03 -6.83291955e-03 -1.94437488e-03 -4.03339014e-04
      -4.09689710e-06 -9.09309092e-05 -3.88144399e-04 -2.32466031e-04
      -3.98589624e-03 -4.36416222e-03 -4.36416222e-03 -4.36416222e-03
      -6.03707973e-04 -2.04815506e-03 -1.71230640e-03 -2.64065806e-03
      -3.47483810e-03 -3.93033959e-03 -3.93033959e-03 -3.93033959e-03
      -3.93033959e-03 -2.37236684e-03 -2.10323650e-03 -2.76972796e-03
      -2.76197400e-03 -3.53064458e-03 -3.98138398e-03 -3.98138398e-03
      -3.98138398e-03 -3.98138398e-03 -3.98138398e-03 -3.56768398e-03
      -1.83992530e-03 -9.66983731e-04 -1.81560661e-03 -2.83635803e-03
      -4.51309001e-03 -4.74651158e-03 -4.74651158e-03 -4.74651158e-03
      -3.92764778e-04 -7.94334046e-04 -8.01044924e-04 -1.44844293e-03
      -2.55937781e-03 -4.33456199e-03 -4.33456199e-03 -4.33456199e-03
      -4.33456199e-03 -2.87249568e-03 -1.65820634e-03 -1.88770203e-03
      -1.81620405e-03 -3.83841852e-03 -3.83841852e-03 -3.83841852e-03
      -3.00160283e-03 -2.29249313e-03 -3.23060248e-03 -2.75278650e-03
      -2.89878109e-03 -3.83841852e-03 -2.43248229e-04 -7.56750756e-04
      -9.18865146e-04 -6.26883470e-03 -6.26883470e-03 -4.17582737e-03
      -9.40216007e-04 -9.44838976e-04 -2.95139151e-04 -1.72438135e-03
      -2.40969472e-03 -3.90893081e-03 -5.62093221e-03 -5.62093221e-03
      -2.08394881e-03 -1.06569147e-03 -1.35659485e-03 -2.20685150e-03
      -7.30814121e-04 -3.74904048e-04 -7.47351674e-04 -2.06353539e-03
      -3.66729405e-03 -3.82387242e-03 -5.61374007e-03 -5.61374007e-03
      -1.68785686e-03 -2.47935212e-04 -8.30814461e-05 -2.25140131e-04
      -6.13178767e-04 -1.15893106e-03 -1.33730145e-03 -6.82710111e-03
      -6.82710111e-03 -1.57267402e-03 -3.50210047e-03 -1.76164566e-03
      -1.25972275e-03 -7.21702119e-04 -1.93855958e-03 -4.86504519e-03
      -4.86504519e-03 -4.86504519e-03 -2.69707758e-03 -3.75403062e-04
      -8.40549619e-05 -5.54851838e-04 -5.32924489e-04 -4.21607605e-04
      -5.11296280e-03 -5.87714976e-03 -5.87714976e-03 -1.80869387e-03
      -2.86550872e-04 -6.89456501e-05 0. -6.07003283e-04 -9.14842065e-04
      -5.69181331e-03 -5.69181331e-03 -5.69181331e-03 -9.74256021e-04
      -1.42484566e-03 -3.10867181e-04 -1.15853408e-03 -7.05573184e-04
      -4.37255902e-03 -4.37255902e-03 -4.37255902e-03 -4.37255902e-03
      -4.37255902e-03 -4.54789726e-04 -1.76927948e-04 -4.48308099e-04
      -1.77788571e-03 -5.51239029e-03 -5.51239029e-03 -5.51239029e-03
      -1.81594759e-03 -1.18005124e-03 -3.86381126e-03 -3.86381126e-03
      -1.52313756e-03 -2.65831104e-03 -3.86381126e-03 -8.08211218e-04
      -3.86381126e-03 -3.86381126e-03 -3.86381126e-03 -2.60760426e-03
      -1.74613891e-03 -3.74760875e-03 -1.85238372e-03 -2.00902089e-03
      -1.74721552e-03 -5.36970096e-03 -5.36970096e-03 -2.71716155e-03
      -3.66873480e-03 -2.43922416e-03 -2.95110489e-03 -3.20368074e-03
      -3.36514506e-03 -3.66873480e-03 -3.66873480e-03 -3.60297412e-03
      -3.16648162e-03 -3.85650899e-03 -2.72738002e-03 -1.57417939e-03
      -3.32243601e-03 -3.85650899e-03 -3.85650899e-03 -3.57580045e-03
      -2.52636126e-03 -3.85650899e-03 -5.11273462e-03 -5.11273462e-03
      -2.11757747e-03 -9.94144473e-04 -3.26599780e-04 -1.45051512e-03
      -3.15062678e-03 -1.86001172e-03 -5.11273462e-03 -1.29278807e-04
      -4.49971194e-05 -1.63544843e-04 -7.45990081e-04 -8.33527010e-04
      -6.92499522e-03 -6.92499522e-03 -1.43097085e-03 -2.30553094e-04
      -3.70943965e-03 -3.70943965e-03 -3.70943965e-03 -3.70943965e-03
      -1.20207143e-03 -1.36559154e-03 -3.70943965e-03 -3.70943965e-03
      -3.70943965e-03 -3.14298505e-03 -3.84901650e-03 -2.61105946e-03
      -3.84901650e-03 -3.84901650e-03 -3.04590352e-03 -3.11349053e-03
      -2.66476371e-03 -3.52170179e-03 -2.42315182e-05 -1.12160968e-04
      -2.87917297e-04 -1.21679812e-04 -5.73734567e-03 -5.73734567e-03
      -5.73734567e-03 -6.84316095e-04 -3.10689444e-04 -2.87720322e-04
      -3.46254492e-05 -8.07655451e-04 -1.60933996e-03 -5.45880012e-03
      -5.60203381e-03 -5.60203381e-03 -1.78292126e-03 -6.09467970e-04
      -8.88028531e-04 -1.03644782e-03 -4.18690965e-03 -3.61804245e-03
      -4.18690965e-03 -4.18690965e-03 -4.18690965e-03 -2.27912376e-03
      -3.05179274e-03 -4.92552947e-03 -4.92552947e-03 -2.06872448e-03
      -1.42016413e-03 -2.70669162e-03 -1.77904684e-03 -1.54449628e-03
      -2.74816295e-03 -4.92552947e-03 -5.00803301e-03 -5.00803301e-03
      -4.60722856e-03 -1.55088049e-03 -3.84031126e-04 -5.42896159e-04
      -2.02057345e-04 -3.79250094e-04 -5.00803301e-03 -5.31694107e-03
      -3.30580678e-03 -9.48220666e-04 -7.90320046e-04 -9.76066163e-04
      -9.62575199e-04 -1.24906260e-03 -5.19978860e-03 -5.31694107e-03
      -4.88355244e-03 -4.88355244e-03 -1.14606670e-03 -8.88075389e-04
      -3.66851193e-04 -2.43304967e-04 -1.34906115e-03 -4.88355244e-03
      -4.88355244e-03 -5.21525275e-03 -5.21525275e-03 -3.06760799e-03
      -2.14942638e-03 -1.41820509e-03 -2.49722810e-03 -8.24212271e-04
      -1.40914100e-03 -4.48762113e-03 -5.22877695e-03 -5.22877695e-03
      -2.52410257e-03 -1.10200187e-03 -1.39627059e-03 -2.26415170e-04
      -4.21208242e-04 -2.77375546e-03 -5.22877695e-03 -4.17145621e-03
      -4.17145621e-03 -1.51522667e-03 -8.62322689e-04 -1.30651257e-04
      -3.08568869e-03 -4.17145621e-03 -4.17145621e-03 -4.17145621e-03
      -4.58715763e-03 -3.98768624e-03 -2.20097136e-03 -8.15089617e-04
      -6.68366381e-04 -1.37095584e-03 -3.56079242e-03 -4.58715763e-03
      -4.58715763e-03 -1.35342497e-03 -3.22834169e-03 -4.12765983e-03
      -4.12765983e-03 -4.12765983e-03 -4.12765983e-03 -3.69519438e-03
      -2.23458349e-03 -7.31844222e-04 -3.55874212e-03 -3.55874212e-03
      -3.55874212e-03 -3.55874212e-03 -1.72017107e-03 -3.55874212e-03
      -3.55874212e-03 -2.83424277e-03 -3.55874212e-03 -6.46659080e-03
      -1.00112264e-03 -9.78326716e-05 -7.18017645e-06 -1.36351358e-04
      -1.50121108e-04 -3.48907924e-04 -3.81393125e-03 -6.46659080e-03
      -5.81433717e-03 -9.66480176e-04 -3.23761960e-05 -9.99320218e-06
      -4.20867982e-05 -1.34695569e-04 -2.92048557e-04 -5.54670766e-03
      -5.81433717e-03 -6.87941490e-03 -1.18454464e-03 -4.49578365e-04
      -2.93685123e-04 -2.72521022e-04 -1.58110415e-04 -4.89113620e-04
      -1.62188720e-03 -6.87941490e-03 -4.39000828e-03 -4.39000828e-03
      -3.91777465e-03 -3.21910623e-03 -3.04126833e-03 -6.11641270e-04
      -9.47856402e-04 -2.34765653e-03 -4.39000828e-03 -3.52745084e-03
      -4.47301473e-03 -4.47301473e-03 -4.47301473e-03 -3.46893282e-03
      -2.46690516e-03 -8.00619193e-04 -6.24824606e-04 -2.81712227e-03
      -8.76563776e-04 -6.71188487e-03 -6.71188487e-03 -2.64672120e-03
      -1.10419351e-03 -1.08927219e-04 -1.97697860e-36 -1.69612377e-36
      -4.75975859e-04 -3.64277442e-03 -3.64277442e-03 -3.64277442e-03
      -3.64277442e-03 -3.64277442e-03 -3.64277442e-03 -1.68032909e-03
      -1.98088540e-03 -3.64277442e-03 -3.20832455e-03 -3.89582966e-03
      -2.95122503e-03 -1.99730345e-03 -4.08129068e-03 -4.08129068e-03
      -3.01751494e-03 -4.08129068e-03 -1.53176126e-03 -4.61951923e-03
      -4.61951923e-03 -4.61951923e-03 -3.14860605e-03 -9.60973324e-04
      -7.69296719e-04 -1.39181851e-03 -1.93934259e-03 -4.28853137e-03
      -2.16072673e-04 -1.54060347e-03 -5.57902455e-03 -5.57902455e-03
      -5.57902455e-03 -1.69455959e-03 -8.55466526e-04 -2.02579569e-04
      -4.24217396e-05 -1.81615690e-03 -3.90337082e-03 -3.90337082e-03
      -3.90337082e-03 -3.90337082e-03 -3.90337082e-03 -3.90337082e-03
      -1.49385596e-03 -1.63161953e-03 -2.84060906e-03 -3.53484810e-03
      -2.47521373e-03 -3.53484810e-03 -3.53484810e-03 -3.53484810e-03
      -3.38993222e-03 -3.53484810e-03 -3.38876038e-03 -1.15704315e-03
      -1.18989486e-03 -4.51259175e-03 -4.51259175e-03 -4.51259175e-03
      -4.51259175e-03 -3.51225259e-03 -2.82901223e-04 -1.71019475e-03
      -4.26925166e-04 -3.71002185e-04 -1.52842235e-03 -3.40444408e-03
      -6.44520298e-03 -6.44520298e-03 -1.29991455e-03 -3.69694986e-04
      -4.50063759e-04 -9.20137463e-05 -1.11543130e-04 -4.29092906e-03
      -6.01194939e-03 -5.22727007e-03 1.27882662e-03 -1.18354941e-03
      -3.56008590e-04 -1.20037228e-04 2.16107001e-03 -3.84806073e-03
      -2.12228321e-03 -2.22509424e-03 -3.55954003e-03 -5.37246326e-03
      -5.05045522e-03 -2.58383155e-03 -5.14265615e-04 -9.22013132e-04
      4.36564442e-03 -1.40325224e-04 -6.38160418e-05 -1.39240106e-03
      3.38482860e-05 -6.57457486e-03 -6.57457486e-03 -1.42243830e-03
      -4.18610056e-04 -2.13126877e-05 -8.47199156e-38 -1.69618404e-36
      -7.33822235e-04 -2.77029537e-03 -2.79331510e-03 -6.66050240e-03
      -1.49055524e-03 -5.46906376e-04 1.58966659e-03 -6.59474346e-04
      -2.84339476e-04 -1.37488486e-03 -6.23303931e-03 -6.23303931e-03
      -3.22505506e-03 -2.90275575e-03 -1.64585988e-04 -2.53106497e-04
      3.01648700e-03 -8.41680623e-04 -1.55263906e-03 -5.58219803e-03
      -4.52820584e-03 -5.58219803e-03 -1.65158021e-03 -1.26431603e-03
      -1.16188057e-04 -5.11749531e-04 -8.55377526e-04 -3.55066219e-03
      -4.83761076e-03 -4.83761076e-03 -4.83761076e-03 -3.75454943e-03
      -1.02470058e-03 -5.39235189e-04 -6.03955705e-04 -1.39780715e-03
      -4.37956862e-03 -4.37956862e-03 -4.37956862e-03 -4.37956862e-03
      -4.37956862e-03 -1.14404003e-03 -2.14330386e-03 -7.56848080e-04
      -2.40547443e-03 -3.89456563e-03 -4.39753989e-03 -4.39753989e-03
      -4.39753989e-03 -3.75716714e-03 -3.64335114e-03 -3.64335114e-03
      -3.64335114e-03 -1.76634837e-03 -3.64335114e-03 -3.22845904e-03
      -3.64335114e-03 -2.98673636e-03 -3.28670745e-03 -5.77924913e-03
      -3.50272655e-03 -3.69232218e-03 -1.70593162e-03 -8.26447213e-04
      -5.32197650e-04 -5.29010082e-04 -1.60151115e-03 -5.77924913e-03
      -3.85926105e-03 -2.50706100e-03 -3.83140985e-03 -3.85926105e-03
      -3.85926105e-03 -1.22056040e-03 -3.40135698e-03 -2.45251413e-03
      -3.85926105e-03 -5.63966436e-03 -5.63966436e-03 -1.04835967e-03
      -6.32726355e-04 -1.31351489e-03 -4.56705777e-04 -1.75024121e-04
      -7.45288038e-04 -5.63966436e-03 -3.30231013e-03 -1.73097372e-03
      -3.75532545e-05 -1.37704401e-03 -2.52962671e-03 -4.39779740e-03
      -4.39779740e-03 -4.39779740e-03 -4.39779740e-03 -4.00873180e-03
      -4.00873180e-03 -8.26606352e-04 -5.89706295e-04 -4.00873180e-03
      -4.00873180e-03 -4.00873180e-03 -1.46591454e-03 -4.00873180e-03
      -5.36510628e-03 -5.36510628e-03 -5.36510628e-03 -4.31025284e-04
      -1.00652303e-03 -2.07457761e-03 -6.19784114e-04 -1.76912348e-03
      -2.02347268e-03 -3.44917615e-04 -4.68291633e-04 -5.94199577e-04
      -1.33031490e-03 -6.59583090e-03 -6.59583090e-03 -3.14139854e-03
      -4.48655519e-05 -8.21852973e-06 -2.60057877e-05 -2.13810685e-36
      -8.87130504e-04 -4.01035883e-03 -5.28349122e-03 -5.28349122e-03
      -4.22425522e-03 -2.63198325e-03 -1.41402264e-03 -6.77497883e-04
      -7.76806381e-04 -3.66257125e-04 -1.12328527e-03 -5.13579557e-03
      -6.76923525e-03 -4.17976733e-03 -2.61281198e-03 -6.08026225e-04
      -4.52538254e-03 -5.46202413e-04 -6.39577338e-04 -2.08858494e-03
      -2.86695873e-03 -2.49265786e-03 -4.31373902e-03 -4.52538254e-03
      -4.52538254e-03 -4.34175273e-03 -4.34175273e-03 -2.81899818e-03
      -1.04243960e-03 -2.15253467e-03 -1.35939464e-03 -2.94079212e-03
      -4.34175273e-03 -4.34175273e-03 -5.18540805e-03 -4.94432217e-03
      -1.85264100e-03 -1.31891354e-03 -6.46909873e-04 -4.27180668e-04
      -1.96285406e-03 -3.41076753e-03 -5.18540805e-03 -5.63184544e-03
      -5.15767792e-03 -1.35368155e-03 -2.11271181e-04 -4.29962392e-06
      -7.62776842e-37 -1.11060205e-03 -2.50799768e-03 -5.63184544e-03
      -6.17045118e-03 -2.12083897e-03 -3.24130990e-03 -2.39631883e-03
      -2.72078469e-04 -1.23256468e-04 -4.51618456e-04 -1.48168800e-03
      -6.17045118e-03 -6.56755641e-03 -6.57787314e-04 -8.46871000e-04
      -4.12108813e-04 -5.50687895e-04 -2.21184175e-03 -9.21182160e-04
      -2.39059725e-03 -6.56755641e-03 -5.01503516e-03 -5.01503516e-03
      -4.86866478e-03 -5.29414334e-04 -2.48457160e-04 -3.83819133e-05
      -1.09161733e-36 -3.64952666e-06 -5.01503516e-03 -4.95341280e-03
      -4.95341280e-03 -2.36011413e-03 -1.10893126e-03 -1.47676107e-03
      -1.85303984e-03 -8.39496090e-04 -3.57451709e-03 -4.95341280e-03
      -5.06398361e-03 -5.06398361e-03 -2.05290271e-03 -2.11796584e-03
      -1.45427138e-03 -5.80150052e-04 -8.52204626e-04 -3.26872081e-03
      -5.06398361e-03 -3.37207946e-03 -2.94885132e-03 -3.37207946e-03
      -3.37207946e-03 -3.37207946e-03 -3.37207946e-03 -3.37207946e-03
      -3.37207946e-03 -3.37207946e-03 -2.78162025e-03 -3.56510887e-03
      -3.56510887e-03 -3.56510887e-03 -3.56510887e-03 -3.56510887e-03
      -3.41559225e-03 -2.95565580e-03 -2.82032439e-03 -3.82496696e-03
      -3.82496696e-03 -3.82496696e-03 -3.82496696e-03 -3.81026533e-03
      -2.62131472e-03 -8.04006064e-04 -2.10480182e-03 -3.82496696e-03
      -1.99710438e-03 -3.81280761e-03 -3.33005795e-03 -3.81280761e-03
      -3.81280761e-03 -3.81280761e-03 -3.81280761e-03 -2.26612203e-03
      -2.59201671e-03 -3.64688225e-03 -3.64688225e-03 -3.64688225e-03
      -3.64688225e-03 -3.64688225e-03 -3.64688225e-03 -2.01805728e-03
      -3.59339989e-03 -1.68880820e-03 -3.34076467e-04 -6.07908890e-03
      -6.07960578e-03 -4.96065011e-03 -7.45334022e-04 -4.70624618e-05
      -1.83259341e-04 -9.40242899e-05 -3.95238487e-04 -3.98607412e-03
      -3.98607412e-03 -3.98607412e-03 -3.98607412e-03 -3.98607412e-03
      -2.50746077e-03 -2.10895250e-03 -8.86695751e-04 -2.93880887e-03
      -2.00711121e-03 -4.17126669e-03 -4.24929895e-03 -4.24929895e-03
      -4.24929895e-03 -1.84219971e-03 -2.85130623e-03 -2.20881822e-03
      -2.75234482e-03 -2.19992804e-03 -4.25352342e-03 -4.25352342e-03
      -4.25352342e-03 -4.25352342e-03 -4.25352342e-03 -1.95666123e-03
      -4.92175051e-04 -4.49827436e-04 -3.48049123e-03 -2.76956055e-03
      -4.24800627e-03 -4.24800627e-03 -4.24800627e-03 -4.24800627e-03
      -2.35528150e-03 -1.43588986e-03 -2.02795394e-36 -7.20309850e-04
      -2.99528916e-03 -5.14006056e-03 -5.14006056e-03 -5.14006056e-03
      -2.17878260e-03 -3.77608550e-04 -1.65551063e-03 -1.76209537e-03
      -4.03703935e-03 -4.03703935e-03 -4.03703935e-03 -2.39029713e-03
      -2.15635565e-03 -1.28942658e-03 -2.46622344e-03 -4.03703935e-03
      -4.03703935e-03 -3.92281124e-03 -2.12449138e-03 -3.92281124e-03
      -3.92281124e-03 -3.92281124e-03 -2.31561065e-03 -1.43236201e-03
      -3.27699282e-03 -3.92281124e-03 -1.18000526e-03 -1.33273180e-03
      -4.36362252e-03 -4.36362252e-03 -4.36362252e-03 -4.13820753e-03
      -2.77351728e-03 -3.23171774e-03 -2.00268975e-03 -2.97744712e-03
      -6.49654889e-04 -4.51392232e-04 -1.39313028e-03 -6.31259149e-03
      -6.31259149e-03 -1.74562400e-03 -9.60792357e-04 -2.06639455e-03
      -1.78585376e-03 -1.56492402e-03 -3.38134822e-03 -3.65075003e-03
      -4.90497658e-03 -2.93063512e-03 -4.15229611e-03 -3.31115397e-03
      -2.85878708e-03 -4.34523961e-03 -3.49715818e-03 -4.55480535e-03
      -2.34893290e-03 -5.52079082e-03 -2.98256241e-03 -1.51139672e-03
      -4.10915789e-04 -4.95733169e-04 -1.67394290e-03 -1.95071113e-03
      -4.29345667e-03 -4.27260762e-03 -2.60727829e-03 -2.67740409e-03
      -2.15808139e-03 -4.38624155e-03 -4.27519577e-03 -1.99947343e-03
      -1.28151046e-03 -9.16470890e-04 -8.74864927e-04 -4.07245802e-03
      -2.85230856e-03 -5.63968578e-03 -5.63968578e-03 -1.96434464e-03
      -3.49198555e-04 -2.68717762e-03 -5.08600904e-04 -9.10405128e-04
      -1.40853133e-03 -3.63031006e-03 -6.10647816e-03 -6.10647816e-03
      -1.10392843e-03 -7.53199391e-04 -4.18940559e-04 -1.34695217e-03
      -9.03678476e-04 -8.59275111e-04 -4.16272273e-03 -6.24243915e-03
      -6.24243915e-03 -1.72372147e-05 -5.83556655e-04 -1.51771665e-05
      -3.11846292e-04 -8.45394854e-04 -2.24766042e-03 -5.06330840e-03
      -5.06330840e-03 -5.06330840e-03 -4.04701848e-03 -2.74097256e-04
      -1.10745339e-06 -1.50315418e-05 -4.75700159e-04 -2.27145036e-03
      -5.53525379e-03 -5.53525379e-03 -5.53525379e-03 -1.43840152e-03
      -2.33999314e-03 -2.48818519e-03 -3.81910196e-03 -3.17943608e-03
      -3.81910196e-03 -3.81910196e-03 -3.81910196e-03 -3.81910196e-03
      -2.21704901e-03 -1.43080170e-03 -3.33142607e-03 -1.96137605e-03
      -8.56468512e-04 -4.66260128e-03 -4.66260128e-03 -4.66260128e-03
      -3.30971088e-03 -2.37369584e-03 -4.18777065e-03 -3.73181840e-03
      -2.45359307e-03 -4.88414429e-04 -1.28350081e-03 -2.75671249e-03
      -4.18777065e-03 -4.18777065e-03 -4.18777065e-03 -5.58041222e-03
      -4.73354151e-03 -2.37612007e-03 -1.41588133e-03 -1.25945045e-03
      -1.37799757e-03 -6.65287080e-04 -1.78212079e-03 -5.58041222e-03
      -5.20040700e-03 -5.20040700e-03 -1.08552503e-03 -5.14904859e-05
      -3.50471673e-04 -6.05327194e-04 -7.96336855e-04 -4.00543679e-03
      -5.20040700e-03 -5.10217622e-03 -5.10217622e-03 -7.80525384e-04
      -2.27562618e-03 -7.58999959e-04 -3.27773392e-04 -1.43111614e-03
      -3.58810904e-03 -5.10217622e-03 -4.57590399e-03 -1.41883548e-03
      -1.02755765e-03 -4.18481417e-04 -4.57590399e-03 -3.54129472e-03
      -6.93508075e-04 -4.52332012e-03 -4.57590399e-03 -4.41558426e-03
      -2.70281848e-03 -1.35654048e-03 -9.52044153e-04 -9.67211265e-04
      -1.90605794e-03 -4.66961227e-03 -4.66961227e-03 -4.66961227e-03
      -5.14906598e-03 -5.14906598e-03 -8.07456207e-04 -1.23693113e-04
      -8.67047114e-04 -3.37500055e-03 -1.12721953e-03 -2.93288520e-03
      -4.87625739e-03 -5.87218092e-04 -1.16886280e-03 -2.52106576e-03
      -2.51060282e-03 -5.95740275e-03 -5.95740275e-03 -3.60566285e-03
      -9.90204164e-04 -2.69426586e-04 -2.48797755e-06 0. -3.80701207e-38
      -2.05479038e-04 -6.97131082e-03 -6.97131082e-03 -1.43260311e-03
      -1.05551539e-04 -2.48797755e-06 -6.63087761e-04 -2.51494232e-04
      -6.33980788e-04 -3.35356477e-03 -5.12455357e-03 -5.12455357e-03
      -5.12455357e-03 -2.43314798e-03 -1.62283110e-03 -2.80026882e-03
      -3.84881650e-03 -4.38517518e-03 -4.38517518e-03 -4.38517518e-03
      -4.06624982e-03 -6.22739259e-04 -9.54079907e-04 -1.17699686e-03
      -1.09143171e-03 -3.43639473e-03 -3.76537000e-03 -4.24980186e-03
      -4.24980186e-03 -4.24980186e-03 -4.24980186e-03 -8.03509647e-06
      -3.92562681e-04 -6.10178057e-03 -2.68301251e-03 -8.04807525e-04
      -1.44046251e-04 -4.35716298e-04 -5.27997152e-04 -2.22734082e-03
      -3.41036706e-03 -6.10178057e-03 -5.01762796e-03 -4.53019608e-03
      -2.00448721e-03 -1.69213256e-03 -3.21673835e-03 -1.51421945e-03
      -2.53199716e-03 -1.64026453e-03 -5.01762796e-03 -5.88328764e-03
      -3.28791584e-03 -2.14878679e-03 -3.41113480e-36 -9.96227247e-37
      -8.26417731e-38 -7.38188974e-04 -3.77012021e-03 -5.88328764e-03
      -6.70509739e-03 -2.95865512e-03 -3.41113480e-36 -2.74030412e-36
      -2.74030412e-36 -1.37759163e-37 -5.44410250e-06 -8.12587678e-04
      -6.70509739e-03 -3.28820013e-03 -1.15835282e-03 -1.12899020e-03
      -1.15789752e-03 -4.24222555e-03 -4.24222555e-03 -4.24222555e-03
      -4.24222555e-03 -3.58063309e-03 -2.27731769e-03 -3.12821590e-03
      -1.76015441e-04 -1.13356521e-03 -4.86379163e-03 -4.86379163e-03
      -3.77502269e-03 -4.39402508e-03 -1.53465767e-03 -5.12820063e-03
      -3.17030703e-03 -9.87480977e-04 -6.70655223e-04 -9.43913765e-04
      -1.15798670e-03 -2.62390147e-03 -5.12820063e-03 -5.12820063e-03
      -5.83729707e-03 -5.46583720e-03 -5.68955031e-04 -3.30966723e-04
      -9.95911396e-05 -5.33337239e-04 -4.12470952e-04 -7.04228587e-04
      -5.83729707e-03 -6.56459946e-03 -3.19453981e-03 -5.55706618e-04
      -9.10066810e-05 -3.69376503e-04 -7.76675515e-05 -1.45135622e-04
      -1.57193886e-03 -6.56459946e-03 -5.45333186e-03 -5.45333186e-03
      -2.14258395e-03 -5.86163311e-04 -1.61650544e-03 -5.39719069e-04
      -1.26592105e-03 -8.93160643e-04 -5.45333186e-03 -6.74997864e-04
      -4.64507984e-03 -5.71697671e-03 -5.71697671e-03 -2.51763198e-03
      -9.58960503e-04 -4.44445759e-04 -1.95817952e-03 -8.59654276e-04
      -5.71843702e-05 -5.17760357e-03 -5.17760357e-03 -5.17760357e-03
      -2.73882458e-03 -2.88370252e-03 -1.46073196e-03 -9.76630836e-04
      -3.90468980e-04 -2.39784573e-03 -2.69554555e-03 -2.20677024e-03
      -4.01805900e-03 -3.39207589e-03 -4.01805900e-03 -4.01805900e-03
      -3.44644301e-03 -3.14556714e-03 -3.79886152e-03 -3.79886152e-03
      -3.79886152e-03 -3.79886152e-03 -3.79886152e-03 -3.79886152e-03
      -2.51455093e-03 -2.32600630e-03 -1.13978202e-03 -8.57962063e-04
      -9.92113259e-04 -5.22226794e-03 -5.82946464e-03 -5.82946464e-03
      -1.46471278e-03 -5.61011257e-04 -2.25814858e-36 -2.04469831e-36
      -2.84184935e-03 -1.82326080e-03 -4.73561324e-03 -5.22016687e-03
      -5.22016687e-03 -1.60389056e-03 -1.74359023e-03 -1.65537233e-03
      -1.67306024e-03 -3.67020746e-03 -3.67020746e-03 -3.67020746e-03
      -3.67020746e-03 -3.67020746e-03 -1.34592713e-03 -1.87851791e-03
      -3.67020746e-03 -3.67020746e-03 -5.39705390e-03 -1.36814010e-03
      -1.48138811e-03 -1.12237816e-03 -6.63166575e-04 -1.40643434e-03
      -2.08148011e-03 -5.39705390e-03 -5.39705390e-03 -1.99481932e-04
      -1.29426480e-04 -1.59424951e-03 -4.21718974e-03 -4.21718974e-03
      -4.21718974e-03 -4.21718974e-03 -4.21718974e-03 -2.83850450e-03
      -2.11183750e-03 -3.33554973e-03 -4.02713753e-03 -4.02713753e-03
      -4.02713753e-03 -3.70735745e-03 -4.02713753e-03 -4.32046683e-04
      -2.28242180e-03 -7.81405543e-05 -1.41207391e-04 -1.56703789e-03
      -1.76914234e-03 -6.70644455e-03 -6.70644455e-03 -1.68863987e-03
      -9.53186303e-04 -7.81405543e-05 -9.85591905e-04 -1.60307647e-03
      -4.34082188e-03 -3.72324372e-03 -6.88531622e-03 -2.46189022e-03
      -2.68011098e-03 -1.21172564e-03 -9.72822250e-04 -2.73365714e-03
      -2.22133799e-03 -4.12927940e-03 -3.85042373e-03 -5.96090499e-03
      -2.27547996e-03 -1.74821436e-03 -1.96243962e-03 -2.71439203e-03
      -5.44849318e-03 -1.49194407e-03 -3.65643064e-04 -7.95549058e-05
      -5.61883062e-05 -1.69451791e-03 -4.81298007e-03 -3.41738341e-03
      -5.44849318e-03 -4.89726616e-03 -4.89726616e-03 -3.87744908e-03
      -1.99960871e-03 -7.62106793e-04 -1.29823771e-03 -9.14746372e-04
      -2.32920493e-03 -4.89726616e-03 -3.66575201e-03 -3.66575201e-03
      -3.66575201e-03 -2.96493084e-03 -2.61512329e-03 -1.83783751e-03
      -3.66575201e-03 -3.66575201e-03 -3.66575201e-03 -1.49113635e-04
      -4.09791915e-04 -8.38877109e-04 -1.31557090e-03 -7.39836833e-04
      -4.10026452e-03 -5.77108003e-03 -5.77108003e-03 -3.58174113e-03
      -5.78291110e-06 -9.73835049e-05 -1.51684202e-04 -2.48611526e-04
      -1.79259048e-04 -3.14878323e-03 -7.83345196e-03 -5.26641682e-03
      -2.80695851e-04 -1.02572027e-03 -2.06481817e-36 -2.35956725e-36
      -3.33495654e-36 -1.37057831e-03 -5.21512283e-03 -5.21512283e-03
      -5.21512283e-03 -3.86730861e-03 -8.03387142e-04 -6.75230986e-04
      -7.59038725e-04 -2.32683774e-03 -2.19099736e-03 -4.86461027e-03
      -4.86461027e-03 -4.86461027e-03 -4.07782802e-03 -2.62524071e-03
      -2.05053599e-03 -4.03952668e-04 -6.37183140e-04 -3.38196126e-03
      -4.85488074e-03 -4.85488074e-03 -4.85488074e-03 -2.38789734e-03
      -3.86614748e-03 -3.85447289e-03 -3.86614748e-03 -2.53053405e-03
      -1.81152241e-03 -2.10674526e-03 -3.29314824e-03 -3.86614748e-03
      -3.86614748e-03 -6.53168606e-03 -1.88530330e-03 -3.60653474e-04
      -2.13218704e-36 -2.13218704e-36 -2.13218704e-36 -1.05110019e-04
      -3.21349828e-03 -6.53168606e-03 -4.76786215e-03 -4.63354634e-03
      -3.87538993e-03 -1.22312875e-03 -1.19573390e-03 -2.43168836e-03
      -1.26757403e-03 -2.66921101e-03 -4.76786215e-03 -5.94096025e-03
      -2.95141991e-03 -1.04520970e-03 -5.03172458e-04 -1.92708409e-04
      -9.40386206e-04 -1.62788760e-03 -3.89727717e-03 -5.94096025e-03
      -5.17798308e-03 -5.17798308e-03 -7.47592130e-04 -9.37186531e-04
      -3.56383534e-04 -7.19995704e-04 -1.52151566e-03 -3.82762519e-03
      -5.17798308e-03 -3.58174858e-03 -3.58174858e-03 -3.58174858e-03
      -3.58174858e-03 -2.63757608e-03 -1.69790583e-03 -3.58174858e-03
      -3.58174858e-03 -3.58174858e-03 -4.95952042e-03 -4.95952042e-03
      -4.16558282e-03 -2.51756958e-03 -1.02245400e-03 -1.44316422e-04
      -3.07478040e-05 -9.78114433e-04 -4.95952042e-03 -4.58205293e-04
      -9.06083369e-06 -4.44333506e-04 -4.40672273e-04 -4.77607036e-03
      -5.98865515e-03 -5.98865515e-03 -1.96624920e-03 -6.28816138e-04
      -2.12095547e-05 -9.02379543e-06 -2.23224469e-36 -1.92152685e-04
      -3.20842839e-03 -6.67084195e-03 -6.67084195e-03 -2.07970625e-05
      -4.32024754e-05 -3.46023985e-03 -2.62748147e-03 -1.32772909e-03
      -3.04416893e-03 -2.61603761e-03 -4.40940447e-03 -4.40940447e-03
      -2.11674278e-03 -4.40940447e-03 -3.92108178e-03 -2.17471388e-03
      -4.04573861e-04 -3.24672763e-03 -2.70177028e-03 -3.92108178e-03
      -3.92108178e-03 -3.92108178e-03 -3.92108178e-03 -4.14977502e-03
      -8.71522876e-04 -1.13067050e-04 -1.26400279e-04 -3.56285926e-03
      -4.14977502e-03 -4.14977502e-03 -4.14977502e-03 -4.14977502e-03
      -6.93072146e-03 -1.00857241e-03 -3.29889939e-04 -8.45348268e-07
      -8.44817635e-07 -3.82697734e-04 -6.40779966e-04 -1.24708784e-03
      -6.93072146e-03 -7.03729829e-03 -4.72815736e-04 -1.33972047e-04
      -1.97388310e-36 -1.97388310e-36 -1.97388310e-36 -1.80528335e-36
      -9.42806364e-05 -7.03729829e-03 -6.97357813e-03 -3.26908892e-04
      -1.24625640e-05 -2.88431509e-36 -2.71632398e-05 -2.21301467e-04
      -1.40986813e-04 -1.36589154e-03 -6.97357813e-03 -6.81228144e-03
      -6.75900199e-04 -8.43046073e-05 -2.23985349e-04 -1.69496008e-04
      -1.23247752e-04 -2.51356425e-04 -2.42577097e-03 -6.81228144e-03
      -4.26972611e-03 -1.22679386e-03 -2.83494941e-04 -1.40477985e-03
      -4.04947298e-03 -2.58731516e-03 -4.26972611e-03 -4.26972611e-03
      -4.26972611e-03 -4.32644365e-03 -4.32644365e-03 -4.32644365e-03
      -3.95688880e-03 -3.13681783e-03 -6.21915096e-04 -1.16798525e-04
      -1.28740538e-03 -3.98234325e-03 -3.02704959e-03 -4.16340539e-03
      -4.16340539e-03 -4.16340539e-03 -4.16340539e-03 -4.16340539e-03
      -1.41253485e-03 -1.07212143e-03 -7.78872520e-04 -3.71255260e-03
      -3.71255260e-03 -3.71255260e-03 -3.71255260e-03 -3.46223568e-03
      -1.77614286e-03 -2.59726471e-03 -3.71255260e-03 -2.97091459e-03
      -3.36518133e-04 -8.01380666e-04 -2.45094160e-03 -6.16195938e-03
      -6.16195938e-03 -3.82257649e-03 -7.56628986e-04 -8.54342186e-04
      -8.76485952e-04 -1.99485337e-03 -3.73117812e-03 -3.28260590e-03
      -2.95264064e-03 -4.38345410e-03 -4.38345410e-03 -4.38345410e-03
      -1.94439117e-03 -8.61831359e-04 -3.51415103e-04 -1.31777616e-03
      -6.62103156e-03 -6.62103156e-03 -3.01699247e-03 -6.98321266e-04
      -6.84019396e-05 -2.35146232e-04 -3.91122769e-04 -2.24039168e-03
      -3.54528660e-03 -3.73533764e-03 -2.50934600e-03 -3.73533764e-03
      -3.73533764e-03 -3.73533764e-03 -3.73533764e-03 -2.44496367e-03
      -3.49837262e-03 -3.15180630e-03 -3.49837262e-03 -3.49837262e-03
      -3.49837262e-03 -3.49837262e-03 -3.49837262e-03 -2.71699717e-03
      -2.98376568e-03 -3.96950589e-03 -3.96950589e-03 -2.60065380e-03
      -3.96950589e-03 -3.96950589e-03 -3.96950589e-03 -1.07861916e-03
      -1.82948948e-03 -3.08945240e-03 -6.19811472e-04 -1.46248832e-03
      -1.56238291e-03 -6.74444856e-03 -6.74444856e-03 -1.73855782e-03
      -1.82231699e-04 -5.54297643e-04 -1.56236856e-04 -5.49085846e-04
      -6.22003397e-04 -3.17821372e-03 -5.25247771e-03 -5.25247771e-03
      -5.25247771e-03 -2.22396618e-03 -1.21039440e-04 -9.79684410e-04
      -4.51037893e-03 -3.94840119e-03 -7.02435907e-04 -5.71354700e-04
      -6.75595307e-04 -1.14421349e-03 -4.51037893e-03 -4.51037893e-03
      -4.51037893e-03 -3.31891212e-03 -2.11658352e-03 -3.63025488e-03
      -2.81058438e-03 -2.36710836e-03 -4.30649100e-03 -4.30649100e-03
      -3.19533120e-03 -3.17671476e-03 -2.52428086e-04 -4.56384756e-03
      -5.02048852e-03 -5.02048852e-03 -5.02048852e-03 -1.72347401e-03
      -1.40799399e-04 -2.08436550e-36 -9.12999622e-06 -1.41384010e-03
      -2.92228675e-03 -2.03527370e-03 -4.87111695e-03 -4.87111695e-03
      -3.47718247e-03 -4.75980900e-03 -1.34962273e-03 -8.99338396e-04
      -1.05663144e-04 -2.74615595e-04 -1.53594796e-04 -5.32715721e-03
      -6.26755552e-03 -5.56864124e-03 -7.04580569e-04 -3.01778608e-04
      -7.70540573e-05 -3.85098509e-04 -1.54679443e-03 -1.87317817e-03
      -6.17392507e-05 -6.51937956e-03 -6.51937956e-03 -2.85275513e-03
      -3.47549503e-04 -1.78928996e-04 -3.26260296e-03 -3.79323564e-03
      -2.23395671e-03 -2.44143070e-04 -7.91162532e-03 -5.89609088e-04
      -9.30400623e-04 -1.25391618e-03 -1.93588017e-03 -5.24656614e-03
      -2.93752551e-03 -2.73816823e-03 -1.37025455e-03 -1.05975763e-04
      -7.70472572e-04 -6.91872323e-04 -1.66507601e-03 -7.03666266e-03
      -4.57506999e-03 -2.92176940e-03 -1.08086923e-03 -1.39208790e-03
      -1.71908969e-03 -1.07793976e-03 -2.99911643e-03 -2.23734579e-03
      -6.95354119e-03 -1.65133609e-03 -2.33757100e-03 -4.40254901e-03
      -3.47631611e-03 -4.40254901e-03 -3.94663028e-03 -4.40254901e-03
      -1.61486457e-03 -1.71852473e-03 -1.83654984e-03 -2.54541519e-03
      -2.07773130e-03 -4.34418023e-03 -1.49176118e-03 -4.34418023e-03
      -4.34418023e-03 -4.28293785e-03 -2.86573172e-03 -1.46701408e-03
      -8.37140018e-04 -9.46137763e-04 -5.50051918e-04 -7.72376603e-04
      -3.10375961e-03 -5.32876654e-03 -5.32876654e-03 -5.32876654e-03
      -1.22405880e-04 -1.11708272e-04 -9.21780738e-05 -1.21661651e-04
      -5.05021249e-04 -3.83305899e-03 -6.46734843e-03 -6.46734843e-03
      -8.38446897e-04 -1.30459724e-04 -2.03882084e-36 -2.55712585e-36
      -3.78003519e-04 -2.34660530e-03 -5.36752865e-03 -5.36752865e-03
      -5.36752865e-03 -2.71411636e-03 -3.28236632e-03 -3.68125108e-03
      -2.20726733e-03 -2.82715354e-03 -2.28016521e-03 -3.84181109e-03
      -3.84181109e-03 -3.84181109e-03 -3.59835289e-03 -4.86142840e-03
      -6.21560612e-04 -2.14768719e-04 -3.60248523e-04 -1.48838875e-03
      -4.50195558e-03 -4.86142840e-03 -4.86142840e-03 -2.35983916e-03
      -1.86734425e-03 -1.94091583e-03 -1.67532370e-03 -9.24573222e-04
      -4.75669606e-03 -3.57893971e-03 -2.81459489e-03 -4.75669606e-03
      -4.75669606e-03 -3.07914894e-03 -3.84380133e-03 -3.66556365e-03
      -2.17468967e-03 -2.19692662e-03 -2.83610285e-03 -3.84380133e-03
      -3.84380133e-03 -3.84380133e-03 -2.97385594e-03 -6.45196589e-04
      -2.85260915e-03 -2.92736641e-03 -4.36156476e-03 -4.31133574e-03
      -4.36156476e-03 -2.98641925e-03 -2.83629471e-03 -3.74695519e-03
      -2.67840480e-03 -3.74695519e-03 -3.74695519e-03 -3.13014933e-03
      -2.00304482e-03 -2.90575763e-03 -3.74695519e-03 -3.74695519e-03
      -1.40964039e-04 -9.23309562e-05 -3.04051879e-04 -7.34972185e-04
      -5.03151072e-03 -5.75258769e-03 -5.75258769e-03 -2.68193870e-03
      -2.66708754e-04 -5.82954753e-03 -5.82954753e-03 -2.51165591e-03
      -3.34365689e-03 -6.83055317e-04 -2.47586868e-04 -5.90877666e-04
      -1.47740112e-03 -3.30188894e-03 -1.13380444e-03 -3.48907401e-04
      -3.68521898e-04 -1.40582130e-03 -5.28612081e-03 -5.51603595e-03
      -5.51603595e-03 -1.51563913e-03 -2.19914643e-03 -1.73813524e-03
      -5.01685310e-04 -1.37646001e-36 -5.57057851e-04 -3.82931833e-03
      -5.96050452e-03 -5.96050452e-03 -2.70761154e-03 -1.66482490e-03
      -2.02010167e-04 -1.90257942e-05 -1.97861483e-03 -3.81510076e-03
      -4.92132735e-03 -4.92132735e-03 -3.49092134e-03 -4.26217215e-03
      -1.48520339e-03 -4.09869337e-03 -4.09869337e-03 -4.00944194e-03
      -2.66692764e-03 -1.38557656e-03 -2.24826438e-03 -1.49357202e-03
      -4.09869337e-03 -4.09869337e-03 -5.27686067e-03 -5.27686067e-03
      -1.58717739e-03 -9.41765553e-04 -9.13971220e-04 -1.71740714e-03
      -1.45878782e-03 -2.57260702e-03 -5.27686067e-03 -5.68444747e-03
      -3.88987013e-03 -2.05818168e-03 -2.17220397e-04 -2.05897068e-05
      -1.59664603e-04 -8.07232806e-04 -3.83595354e-03 -5.68444747e-03
      -5.02912933e-03 -4.30450076e-03 -7.71589228e-04 -2.09960908e-05
      -1.13010909e-04 -5.08085242e-04 -2.05569132e-03 -5.02912933e-03
      -5.02912933e-03 -4.41232882e-03 -4.23556147e-03 -3.66111915e-03
      -3.46724177e-03 -3.78666189e-03 -5.56309125e-04 -1.25305145e-03
      -1.01882301e-03 -4.41232882e-03 -5.17249480e-03 -7.24986137e-04
      -1.84278248e-03 -2.26842263e-03 -2.32610991e-03 -1.99674326e-03
      -8.68539559e-04 -5.17249480e-03 -5.17249480e-03 -3.62999225e-03
      -4.14331490e-03 -1.95067842e-03 -2.81263050e-03 -1.64448633e-03
      -1.82226370e-03 -4.14331490e-03 -4.14331490e-03 -4.14331490e-03
      -3.83737078e-03 -3.83737078e-03 -3.83737078e-03 -3.83737078e-03
      -2.22487166e-03 -3.32385488e-03 -2.36837566e-03 -2.09339033e-03
      -3.83737078e-03 -6.73298584e-03 -1.08336390e-03 -5.51522477e-04
      -1.01532554e-03 -3.67723842e-04 -9.26032197e-04 -5.58125961e-04
      -2.20195809e-03 -6.73298584e-03 -5.11757098e-03 -4.58209775e-03
      -1.68335799e-03 -5.32323145e-04 -7.56058071e-05 -2.01297698e-05
      -1.27626781e-03 -4.62192344e-03 -5.11757098e-03 -5.43641998e-03
      -5.43641998e-03 -2.32748734e-03 -7.30522210e-04 -1.34779478e-03
      -3.02513246e-04 -1.83192431e-04 -1.70312764e-03 -5.43641998e-03
      -2.76393199e-04 -6.81171194e-04 -5.79470582e-03 -5.79470582e-03
      -5.04341116e-03 -2.42858450e-03 -5.25969779e-04 -2.57067033e-04
      -2.16866785e-04 -3.92269809e-03 -3.92269809e-03 -3.92269809e-03
      -3.92269809e-03 -3.92269809e-03 -3.92269809e-03 -2.09801761e-03
      -1.55074941e-03 -6.90120680e-04 -7.65563222e-04 -7.96642387e-04
      -1.90422649e-03 -4.14764974e-03 -4.14764974e-03 -4.14764974e-03
      -4.14764974e-03 -4.14764974e-03 -2.95361783e-03 -3.17650381e-03
      -3.64680472e-03 -3.64680472e-03 -3.64680472e-03 -3.64680472e-03
      -1.43799989e-03 -2.77173729e-03 -3.64680472e-03 -3.64680472e-03
      -2.74864584e-03 -4.23432654e-03 -4.23432654e-03 -4.23432654e-03
      -4.23432654e-03 -1.46539195e-03 -1.86085980e-03 -1.75469776e-03
      -3.40804039e-03 -1.20765856e-03 -4.85381996e-03 -4.85381996e-03
      -4.85381996e-03 -4.85381996e-03 -1.37954415e-03 -6.62134786e-04
      -8.17491615e-04 -8.99246836e-04 -4.28412808e-03 -4.28412808e-03
      -3.64509691e-03 -4.28412808e-03 -4.28412808e-03 -1.71912019e-03
      -8.24620656e-04 -1.26599381e-03 -2.76264432e-03 -5.55999763e-03
      -3.64652160e-03 -1.21233519e-03 -6.45541702e-04 -1.07118138e-03
      -1.94795465e-03 -3.89298704e-03 -1.52863492e-03 -5.55999763e-03
      -5.42986207e-03 -5.42986207e-03 -9.13552707e-04 -5.11799240e-04
      -5.24050090e-04 -6.33752788e-04 -2.06100778e-03 -2.23316206e-03
      -5.42986207e-03 -3.80090321e-03 -3.80090321e-03 -1.08588452e-03
      -3.05603375e-03 -3.80090321e-03 -2.14852579e-03 -3.80090321e-03
      -3.50018195e-03 -3.80090321e-03 -3.04122502e-03 -3.48592992e-03
      -3.48592992e-03 -3.48592992e-03 -2.31099641e-03 -3.48592992e-03
      -3.48592992e-03 -3.48592992e-03 -3.48592992e-03 -7.78218673e-05
      -1.80512376e-04 -4.74525179e-04 -5.49354590e-03 -7.17779063e-03
      -4.07840498e-03 -8.21601425e-04 -9.94732618e-05 -4.09669046e-05
      -2.31032306e-03 -3.56207695e-03 -8.76507314e-04 -1.61559181e-03
      -3.85874603e-03 -5.57073811e-03 -3.21961311e-03 -3.87936970e-03
      -2.58523971e-03 -3.52217397e-03 -1.89311465e-03 -2.33769789e-03
      -5.42384945e-03 -4.02662251e-03 -3.42268520e-03 -1.92778173e-03
      -1.43138319e-03 -3.84431472e-03 -5.51900547e-03 -9.82198180e-05
      -8.17293985e-05 -7.33244451e-05 -6.93602022e-04 -1.98404814e-36
      -3.47615057e-03 -4.29174863e-03 -6.15005009e-03 -6.77302247e-03
      -8.83308705e-04 -1.58885715e-03 -5.63470996e-04 -2.52408936e-04
      -9.42158023e-37 -1.50964318e-36 -1.38221052e-03 -6.91659516e-03
      -2.53344630e-03 -5.48885029e-04 -2.31595710e-03 -3.37678054e-03
      -3.73967760e-03 -1.84040202e-03 -4.85176779e-03 -3.01607559e-03
      -5.09400805e-03 -1.14645816e-04 -9.33458214e-04 -2.29219068e-03
      -3.16537381e-03 -6.44300645e-03 -6.44300645e-03 -3.73972696e-04
      -2.67651776e-05 -1.82445438e-04 -2.05906504e-03 -3.66862310e-04
      -2.60717148e-04 -3.73116694e-04 -1.96669647e-03 -4.77163447e-03
      -4.77163447e-03 -4.77163447e-03 -4.77163447e-03 -9.91350506e-04
      -1.48840307e-04 -3.79039528e-04 -1.39820564e-03 -2.54024658e-03
      -4.63944860e-03 -5.73479012e-03 -5.73479012e-03 -1.60337379e-03
      -3.63696367e-04 -4.75479290e-04 -1.54235822e-04 -1.61234551e-04
      -1.12569088e-03 -3.81868449e-03 -6.35947892e-03 -6.35947892e-03
      -1.49045407e-03 -6.52733899e-04 -1.96891371e-03 -2.03248672e-03
      -6.72702037e-04 -2.30790232e-03 -5.18644042e-03 -5.18644042e-03
      -5.18644042e-03 -2.13820511e-03 -8.68898991e-04 -7.34778470e-04
      -4.84095770e-04 -7.84088625e-04 -4.63963952e-03 -4.63963952e-03
      -4.63963952e-03 -4.63963952e-03 -3.35969240e-03 -3.64942639e-03
      -3.44086741e-03 -3.64942639e-03 -1.48815883e-03 -2.38145539e-03
      -3.64942639e-03 -3.64942639e-03 -3.64942639e-03 -3.64942639e-03
      -5.95309213e-03 -1.34698406e-03 -1.78557634e-03 -1.43501675e-03
      -4.77336260e-04 -1.83800037e-03 -2.91385502e-03 -3.06078279e-03
      -5.95309213e-03 -6.39387313e-03 -9.02348373e-04 -4.79738774e-05
      -7.99306963e-06 -1.98307840e-04 -2.44155084e-03 -1.32854015e-03
      -3.00271413e-03 -6.39387313e-03 -6.71078637e-03 -1.37107912e-03
      -2.06228942e-04 -7.13234011e-04 -2.09219730e-03 -5.74843783e-04
      -8.59063039e-06 -1.45665440e-03 -6.71078637e-03 -5.36476215e-03
      -2.78722582e-04 -4.00276440e-05 -3.03906563e-04 -7.37715454e-04
      -1.67065780e-04 -3.50763672e-03 -5.36823692e-03 -5.36823692e-03
      -3.07971262e-03 -2.15137866e-03 -3.73247568e-03 -3.73247568e-03
      -3.73247568e-03 -3.73247568e-03 -3.71815381e-03 -2.51478422e-03
      -3.10479430e-03 -3.89246794e-04 -3.03280918e-04 -3.85762483e-04
      -1.84104219e-03 -5.63084194e-03 -5.63084194e-03 -5.63084194e-03
      -7.20157463e-04 -1.34868998e-04 -5.05796866e-04 -9.13282041e-04
      -4.58145340e-04 -5.86851442e-04 -5.56475855e-03 -5.56475855e-03
      -5.56475855e-03 -1.97895989e-03 -9.92070767e-04 -9.28122099e-05
      -2.81455596e-05 -1.23363046e-04 -2.53724237e-03 -5.89480344e-03
      -5.89480344e-03 -4.26069181e-03 -1.42214831e-03 -1.80990854e-03
      -4.73086024e-03 -4.73086024e-03 -3.13455879e-04 -1.42886804e-03
      -3.77425971e-03 -2.62460089e-03 -1.26638741e-03 -2.73991679e-03
      -4.73086024e-03 -2.44896952e-03 -4.47580358e-03 -2.75388360e-03
      -4.47580358e-03 -4.47580358e-03 -4.47580358e-03 -1.21109607e-03
      -1.88587175e-03 -9.03918641e-04 -4.30739718e-03 -3.93640110e-03
      -1.73642160e-03 -3.86562617e-03 -4.30739718e-03 -1.93717587e-03
      -7.19276024e-04 -2.48701358e-03 -4.30739718e-03 -3.86234652e-03
      -3.86234652e-03 -1.70810928e-03 -3.67241981e-03 -1.87273836e-03
      -2.93412688e-03 -3.86234652e-03 -3.37974844e-03 -3.86234652e-03
      -7.01657124e-03 -5.33804297e-04 -3.79781413e-05 -2.02859475e-04
      -1.78311238e-04 -1.48767460e-04 -1.78134927e-04 -6.49485504e-04
      -7.01657124e-03 -6.82600215e-03 -2.24044779e-03 -5.27084048e-04
      -2.40872556e-04 -1.16076815e-04 -4.72856591e-05 -1.98975380e-04
      -8.48061172e-04 -6.82600215e-03 -3.63072823e-03 -3.63072823e-03
      -2.94090668e-03 -3.63072823e-03 -3.63072823e-03 -2.86543276e-03
      -1.91950635e-03 -3.63072823e-03 -3.63072823e-03 -3.74738686e-03
      -3.74738686e-03 -3.74738686e-03 -3.74738686e-03 -3.74738686e-03
      -3.54740629e-03 -6.46332919e-05 -1.66730222e-03 -3.74738686e-03
      -3.08033009e-03 -3.48913739e-03 -3.48913739e-03 -3.48913739e-03
      -3.48913739e-03 -2.96242954e-03 -2.88833887e-03 -3.48913739e-03
      -3.48913739e-03 -3.60177131e-03 -3.60177131e-03 -3.58247082e-03
      -3.60177131e-03 -3.60177131e-03 -3.60177131e-03 -2.14658282e-03
      -2.08846875e-03 -3.60177131e-03 -3.38930869e-04 -2.87380791e-03
      -4.02981415e-03 -5.81325870e-03 -5.81325870e-03 -1.32266362e-03
      -2.26117438e-03 -5.64305054e-04 -1.94254244e-04 -1.31990993e-04
      -6.94184331e-04 -6.69108331e-03 -6.69108331e-03 -2.88482010e-03
      -9.70082881e-04 -6.60333681e-05 -1.68001643e-05 -1.53734174e-04
      -3.48031824e-03 -3.65453144e-03 -3.65453144e-03 -3.65453144e-03
      -3.65453144e-03 -2.34919204e-03 -2.94272578e-03 -3.65453144e-03
      -2.56240764e-03 -3.68019938e-03 -3.68019938e-03 -3.68019938e-03
      -3.50200478e-03 -2.11311015e-03 -3.32439016e-03 -3.68019938e-03
      -2.03276658e-03 -3.68019938e-03 -3.14616296e-03 -2.80840555e-03
      -3.66973970e-03 -3.66973970e-03 -3.66973970e-03 -1.66720047e-03
      -3.66973970e-03 -3.42540164e-03 -3.66973970e-03 -4.96743107e-03
      -4.96743107e-03 -4.96743107e-03 -4.38433560e-03 -1.85752590e-03
      -1.28297042e-03 -9.24373453e-05 -2.18510312e-36 -1.07256556e-03
      -4.00298228e-03 -4.00298228e-03 -4.00298228e-03 -4.00298228e-03
      -3.60957766e-03 -7.49899074e-04 -3.25040426e-03 -1.53385429e-03
      -2.99923262e-03 -4.00053570e-03 -4.00053570e-03 -4.00053570e-03
      -2.38017342e-03 -3.54212802e-03 -1.83900236e-03 -3.32625746e-03
      -1.71037542e-03 -4.00053570e-03 -5.30749373e-03 -5.30749373e-03
      -5.18076727e-03 -1.56981172e-03 -2.63384706e-03 -6.16380712e-04
      -8.79786734e-04 -2.32863778e-04 -2.38348311e-03 -3.90621624e-03
      -3.90621624e-03 -3.90621624e-03 -2.54605245e-03 -1.02940423e-03
      -7.18723633e-04 -3.90621624e-03 -3.90621624e-03 -3.90621624e-03
      -3.88603332e-03 -3.88603332e-03 -3.88603332e-03 -2.96772807e-03
      -2.53276108e-03 -2.33247154e-03 -1.85547431e-03 -3.88603332e-03
      -3.88603332e-03 -2.63014506e-03 -3.41963489e-03 -3.29899439e-03
      -3.41963489e-03 -3.41963489e-03 -3.41963489e-03 -3.41963489e-03
      -3.41963489e-03 -3.41963489e-03 -1.24138757e-03 -1.50690135e-03
      -2.31664069e-03 -4.36304789e-03 -7.09449453e-03 -3.06288339e-03
      -7.30796310e-04 -4.45716345e-04 -3.26054776e-03 -3.85157857e-03
      -8.43017595e-04 -6.58590288e-04 -1.83627650e-03 -2.64990469e-03
      -5.79051813e-03 -4.52212105e-03 -2.07881862e-03 -3.83155188e-03
      -5.00755943e-03 -2.96826265e-03 -2.76677287e-03 -1.08731049e-03
      -1.62752927e-04 -8.22769380e-06 -2.13012821e-03 -5.13116131e-03
      -5.06475149e-03 -5.05939731e-03 -2.06470490e-03 -1.02207798e-03
      -1.12585723e-04 -3.28797069e-05 -8.02528870e-04 -1.84835086e-03
      -5.66138560e-03 -5.69218257e-03 -5.55687351e-03 -3.41359456e-03
      -5.16372873e-03 -3.13276512e-04 -9.41617065e-04 -2.43053062e-36
      -6.74639479e-04 -8.44843686e-04 -5.28229401e-03 -2.71796086e-03
      -2.80950405e-03 -2.21910840e-03 -4.85703163e-03 -3.79783846e-03
      -5.00769680e-03 -2.74830940e-03 -1.55185815e-03 -2.47116154e-03
      -7.23966821e-07 -1.53776489e-06 -8.33166632e-06 -4.17058065e-04
      -6.97728992e-03 -6.97728992e-03 -1.32827880e-03 -2.22465104e-36
      -7.23966821e-07 -3.04311491e-03 -2.92273727e-03 -3.99127230e-03
      -3.03915422e-03 -3.99127230e-03 -3.99127230e-03 -3.99127230e-03
      -1.89434318e-03 -2.29179463e-03 -1.96094607e-06 -2.37639484e-04
      -3.95596784e-04 -5.71298320e-03 -5.71298320e-03 -4.85586189e-03
      -3.19903204e-03 -3.56357283e-04 -9.69457687e-07 -1.53695431e-03
      -2.20410875e-03 -1.12702616e-03 -2.12874473e-03 -2.06103292e-03
      -4.53533465e-03 -4.53533465e-03 -4.53533465e-03 -4.53533465e-03
      -8.50559620e-04 -1.97364739e-06 -6.25335233e-05 -6.33294621e-05
      -1.17820071e-03 -3.38637223e-03 -6.53154543e-03 -6.53154543e-03
      -6.62343111e-04 -6.64051040e-04 -1.12459098e-03 -2.13918695e-03
      -1.20855926e-03 -2.98217800e-03 -4.55273129e-03 -4.55273129e-03
      -4.55273129e-03 3.39615131e+36 3.39615131e+36 3.39615131e+36
      3.39615131e+36 -1.05041312e-04 -8.72256525e-04 -8.17823689e-04
      -4.76619322e-03 -4.76619322e-03 -4.76619322e-03 -5.44099277e-03
      -3.08332150e-03 3.39615131e+36 3.39615131e+36 3.39615131e+36
      3.39615131e+36 -1.80138764e-03 -4.54744836e-03 -5.44099277e-03
      -5.21396380e-03 3.39615131e+36 3.39615131e+36 3.39615131e+36
      3.39615131e+36 -9.62301507e-04 -9.34794836e-04 -5.21396380e-03
      -5.21396380e-03 -5.27288159e-03 -4.22114180e-03 -6.74422015e-04
      -1.43664423e-04 -1.13774906e-03 -1.11368822e-03 -1.47920568e-03
      -4.56623547e-03 -5.27288159e-03 -4.68456093e-03 -4.68456093e-03
      -3.88625590e-03 -1.07223343e-03 -1.81055249e-04 -4.58415336e-04
      -2.17076996e-03 -3.53396614e-03 -4.68456093e-03 -5.88425715e-03
      -4.57420759e-03 -3.99076001e-04 -1.21020887e-04 -4.77465655e-04
      -5.09745383e-04 -1.80836755e-03 -2.30395398e-03 -5.88425715e-03
      -6.92300359e-03 -6.71965710e-04 -3.61104641e-04 -1.94823631e-04
      -4.00079225e-05 -4.92691528e-04 -5.79574087e-04 -1.50093331e-03
      -6.92300359e-03 3.39615131e+36 3.39615131e+36 3.39615131e+36
      3.39615131e+36 -2.99033883e-04 -2.32130001e-36 -1.05983065e-03
      -2.28612009e-03 -5.40827587e-03 -5.86030120e-03 -1.58643094e-03
      -4.27424675e-05 3.39615131e+36 3.39615131e+36 3.39615131e+36
      3.39615131e+36 -4.48918622e-03 -5.86030120e-03 -6.93936786e-03
      -1.50897400e-03 3.39615131e+36 3.39615131e+36 3.39615131e+36
      3.39615131e+36 -1.18010350e-40 -8.48882424e-04 -6.93936786e-03
      -5.71491662e-03 -2.12422619e-03 -1.16677396e-03 -2.89679563e-04
      -3.37486446e-04 -9.23218886e-06 -2.57424108e-04 -5.28875459e-03
      -5.71491662e-03 -5.20415558e-03 -5.20415558e-03 -2.03583273e-03
      -3.72923125e-04 -5.37619577e-04 -1.63898035e-03 -7.66396814e-04
      -3.22245737e-03 -5.20415558e-03 -5.11382520e-03 -4.56673186e-03
      -3.94891802e-04 -7.12455658e-05 -1.87323985e-05 -2.71571644e-05
      -1.36023707e-04 -5.11382520e-03 -5.11382520e-03 -6.57939119e-03
      -3.48416739e-03 -1.95295273e-04 -3.83090445e-36 -1.71329772e-36
      -5.07060365e-37 -2.79135529e-05 -7.66830286e-04 -6.57939119e-03
      -5.95702231e-03 -5.95702231e-03 -4.62914992e-04 -1.34235408e-04
      -4.33882951e-06 -1.44602713e-37 -4.37280280e-04 -7.51394022e-04
      -5.23878075e-03 -3.51324352e-03 -3.51324352e-03 -1.39632006e-03
      -3.51324352e-03 -3.36141861e-03 -3.51324352e-03 -3.51324352e-03
      -3.51324352e-03 -3.51324352e-03 -5.92416106e-03 -1.34785962e-03
      -5.64064248e-04 -6.58922188e-04 -1.80201128e-03 -4.49953950e-04
      -1.73667993e-03 -4.49246634e-03 -5.92416106e-03 -5.67649584e-03
      -1.18793908e-03 -2.81601941e-04 -5.60096669e-05 -1.12988852e-36
      -6.05350477e-04 -9.51444206e-04 -5.67649584e-03 -5.67649584e-03
      -3.62715870e-03 -3.62715870e-03 -3.62715870e-03 -3.62715870e-03
      -3.62715870e-03 -2.45357491e-03 -1.23435399e-03 -3.62715870e-03
      -3.62715870e-03 -3.53845023e-03 -3.65817244e-03 -4.41111624e-03
      -4.41111624e-03 -4.41111624e-03 -2.86699925e-03 -1.68177276e-03
      -8.51253746e-04 -1.87349948e-03 -3.96629242e-04 -3.85964429e-03
      -5.98855596e-03 -5.98855596e-03 -2.73159053e-03 -2.02037324e-03
      -9.97307943e-04 -1.77063012e-05 -2.89565214e-04 -2.79426482e-03
      -3.37393582e-03 -4.16262215e-03 -4.16262215e-03 -4.16262215e-03
      -2.48815259e-03 -2.56845704e-03 -3.52043216e-03 -1.79701101e-03
      -3.94316437e-03 -3.94316437e-03 -3.94316437e-03 -3.94316437e-03
      -3.94316437e-03 -1.03478762e-03 -1.87843130e-03 -1.30977167e-03
      -3.94316437e-03 -3.80780734e-03 -3.80780734e-03 -3.80780734e-03
      -3.80780734e-03 -3.80780734e-03 -1.80524657e-03 -2.33010645e-03
      -2.97538843e-03 -3.09537468e-03 -6.57884753e-04 -3.96480411e-03
      -4.85840905e-03 -4.85840905e-03 -4.85840905e-03 -2.68049445e-03
      -1.29410427e-03 5.64222034e+11 -9.08439921e-04 -2.59966590e-03
      -3.25668813e-03 -3.61505081e-03 -2.24957243e-03 -3.61505081e-03
      -3.44543252e-03 -3.61505081e-03 -3.61505081e-03 -3.61505081e-03
      -1.53218070e-03 137762800. 9.24832461e+09 3.56236288e+10
      1.44521200e+11 5.97411889e+11 2.43596157e+15 34609800.
      8.20340039e+03 5.83538901e+11 3.66490460e+10 136430976.
      4.15637737e+19 1.93664533e+29 9579623. 2.11096875e+06
      9.55841511e+12 37644772. 3.83079867e-03 9.55840568e+12 35623612.
      3.75279311e+13 1.04857026e+19 2.59411676e+15 2.32406594e+12
      1.54347619e+14 1.50053650e+11 3.75320666e+13 1.00138848e+16
      2.46708778e+12 2.21569792e+09 3.84102826e+13 139799568.
      3.75286189e+13 2.26892314e+09 2.15278750e+06 551134848.
      -3.13148228e-03 1.25343359e+05 8568554. 4.44679392e+22
      1.53508512e+11 5.05159790e+02 3.69939415e+10 2.22609792e+09
      2.45803877e+15 6.25889813e+14 6.11816145e+14 4.15702872e+19
      9.55877163e+12 9.92434228e+15 9.87948564e+15 6.20238442e+14
      2.41189703e+12 3.61370132e+10 6.49591607e+17 1.48673888e+11
      9.87807259e+15 1.00142392e+16 9.83391711e+15 1.74817200e+23
      2.49217088e+15 1.01051915e+16 2.67258182e+21 2.85799470e+24
      9369085. 5.30343062e+05 9.11913677e+09 8.99029094e+09
      5.89133382e+11 5.89165756e+11 141144416. 561872256. 1.35849766e+05
      8695858. 548440128. 6.00149721e+11 1.10936678e+25 7.25517971e+26
      6.28683354e+14 6.06652375e+05 4.97407837e+02 2.64452558e+18
      1.45083797e+05 4.10067611e+19 2.45839230e+15 9.51461190e+12
      8.20661133e+03 8568716. 9.47168708e+15 3.63141939e+10
      3.78825301e+13 1.45216373e+11 9.92345966e+15 3.61323315e+10
      3.40619510e+10 1.24402734e+31 5.27620812e+05 -5.14961220e-03
      -9.01787716e-04 -1.15540257e-04 -8.27804033e-05 -2.47813552e-03
      -5.99852251e-03 -5.99852251e-03 -3.01489420e-03 -2.14637420e-03
      -2.60104053e-03 -4.04554373e-03 -3.62256938e-03 -2.65950593e-03
      -1.10648468e-03 4.23278520e-03 -6.40975428e-04 -8.77973740e-04
      -4.46964242e-03 -4.49774787e-03 -1.97991868e-03 -8.38436943e-04
      -1.94639096e-03 -9.68365697e-04 -4.34335117e-04 -7.17718445e-04
      -5.45894727e-03 -5.45894075e-03 -5.45894587e-03 -4.65272879e-03
      2.84710247e-02 -6.43493433e-04 -5.56746789e-04 1.48429870e-04
      -4.68057347e-03 -4.10082238e-03 -3.48983705e-03 -4.68068058e-03
      -2.71275314e-03 -1.96561939e-03 -1.00281788e-03 1.52086944e-03
      -3.46543413e-04 -1.82421936e-03 -5.27849421e-03 -5.27850026e-03
      -5.27839269e-03 -3.15506069e-04 -1.22487138e-04 -3.98309465e-04
      -3.06242582e-04 -4.51093190e-04 -4.42994013e-03 -6.21778192e-03
      -6.21777494e-03 -1.35396107e-03 -2.74102832e-03 -2.30928231e-03
      -2.26638443e-03 -2.83740810e-03 -2.44195107e-03 -4.55008401e-03
      -4.55005793e-03 -4.55005700e-03 -2.33207247e-03 -4.68263077e-03
      -1.50557840e-03 -7.21848046e-04 1.06138410e-03 4.84371006e-01
      -1.31278543e-03 -4.85426653e-03 -4.84765926e-03 -4.85426653e-03
      -6.14469871e-03 -2.97873653e-03 -1.27014157e-03 -4.92968014e-04
      -7.40923686e-04 -1.38495059e-03 -1.52268482e-03 -2.89085903e-03
      -6.14469871e-03 -6.54879492e-03 -1.84391672e-03 -9.73747985e-04
      -1.33799354e-03 -1.22608675e-03 -1.42901612e-03 -1.32763991e-03
      -1.45818607e-03 -6.54879492e-03 2.99465675e+01 9.92169013e+15
      1.02212231e+13 3.93660699e+19 6.17303100e+14 -2.70253257e-03
      5.50510330e+11 3.95052509e+16 4.04427203e+10 4.24396401e+25
      9.42357663e+12 564545472. 1.61133376e+20 140447312. 5.91991381e+14
      9.34007118e+12 546031. 2.32315546e+09 1.56608011e+17
      5.94620645e+11 153276576. 133778240. 5.86298556e+11 1.33654281e-01
      8.23349950e+06 2.57481214e+18 1.42305099e+02 9.03030925e+12
      2.12273267e+03 3.64826214e+10 3.95080684e+16 1.58589000e+14
      3.66517577e+13 6.37950184e+17 6.66941969e+17 9.20689152e+09
      1.44523870e+11 8947352. 8527923. 8.94599987e+09 -1.61998684e-03
      4.17596407e+19 -2.07701977e-03 -2.62684398e-03 -6.15327992e-03
      -4.20703506e-03 -4.20703506e-03 -4.20703506e-03 1.48682031e+11
      2.44699963e+15 6.74071489e+20 2.62165326e+18 4.19449964e+19
      1.00151239e+16 6.40922576e+17 1.68517872e+20 1.09753353e+22
      1.68526563e+20 6.43827486e+17 1.04399531e+19 2.72008298e+21
      3.87690466e+13 6.43827486e+17 4.19449964e+19 2.68438716e+21
      6.25956318e+14 3.98768128e+16 2.58688423e+18 6.46721195e+17
      1.60956889e+17 6.68145315e+20 6.77069268e+20 1.62409344e+17
      9.55945740e+12 1.67777101e+20 4.02413439e+16 9.96937930e+15
      2.48104208e+15 6.68145315e+20 6.80032285e+20 1.04866119e+19
      2.59845906e+18 2.69628596e+21 2.61012406e+18 1.68523660e+20
      1.68523660e+20 1.07375475e+22 4.40902358e+22 4.40902358e+22
      1.09277413e+22 6.74083030e+20 7.05431884e+23 7.05431884e+23
      1.05332730e+19 1.08799604e+22 1.05330916e+19 6.74094570e+20
      4.38998552e+22 1.69264432e+20 1.04864316e+19 2.72003682e+21
      4.39005983e+22 2.84604842e+24 2.84604842e+24 7.08477903e+23
      7.08477903e+23 8.45714762e+35 -5.91757894e-03 -4.56795981e-03
      -3.50325904e-03 -3.95752344e-04 -4.56795981e-03 1.77122448e+23
      2.72012942e+21 1.70008089e+20 1.61683133e+17 1.08801461e+22
      1.04867934e+19 2.61007870e+18 2.70813774e+21 4.04229008e+16
      6.43804946e+17 9.92399009e+15 2.58683915e+18 1.08325521e+22
      6.49648713e+17 2.58683942e+18 1.67782888e+20 1.04866130e+19
      2.70813802e+21 1.60959706e+17 1.12863383e+25 1.77116503e+23
      1.00605142e+16 3.82364413e+13 9.51512990e+12 9.24950835e+09
      6.11738836e+14 4.15738892e+19 1.04866119e+19 4.17605291e+19
      6.23108419e+14 1.60227827e+17 1.68517872e+20 4.40909789e+22
      1.69267335e+20 6.46721126e+17 6.46721126e+17 6.80009204e+20
      2.40098895e+12 2.46973853e+15 6.43816147e+17 6.71096791e+20
      9.64828122e+12 2.46973853e+15 6.43816147e+17 1.60956889e+17
      4.00583697e+16 6.99351592e+23 1.77122448e+23 1.63132754e+17
      1.47299549e+11 1.68517872e+20 6.23119492e+14 1.45911661e+11
      5.89165691e+11 2.68438745e+21 1.09279259e+22 2.61012378e+18
      2.59845906e+18 2.82167969e+24 6.83007053e+20 1.68523660e+20
      1.68523660e+20 1.07373629e+22 4.40909744e+22 7.08489792e+23
      4.39006028e+22 6.74083030e+20 7.08465941e+23 1.13840023e+25
      4.23182850e+19 1.74837898e+23 4.23175593e+19 1.08803319e+22
      4.39005983e+22 1.69264432e+20 1.04864316e+19 6.77046117e+20
      1.09277402e+22 1.14327397e+25 1.14327397e+25 7.08477903e+23
      7.08477903e+23 -4.03692340e-03 -4.03692340e-03 -2.79218098e-03
      -8.82402936e-04 -2.42119352e-03 -1.39949843e-03 -3.94134829e-03
      -3.94134829e-03 -3.94134829e-03 -3.94134829e-03 -2.13282625e-03
      -3.56764323e-03 -3.51732154e-03 -4.09813086e-03 -4.09813086e-03
      -4.03541466e-03 -2.64382269e-03 -4.09813086e-03 -2.05382938e-03
      -1.93791161e-03 -1.73572602e-03 1.22422284e+31 4.61216194e+25
      4.09675756e+16 6.37292683e+14 2.45834721e+15 -1.69148436e-03
      3.09933594e+04 -3.91064119e-03 -3.91064119e-03 -3.16814682e-03
      -3.73233831e-03 -1.93347887e-03 1.71015441e+23 3.14948841e+30
      7.71502004e+29 5.18130098e+34 -3.04717640e-03 -1.61356176e-03
      -3.73234507e-03 -2.39965715e-03 -4.21635946e-03 6.62288806e+20
      1.04855311e+19 -4.21635946e-03 -3.35703790e-03 -2.97881640e-03
      -7.14020629e-04 -1.43417029e-03 -5.67216333e-03 -4.52216435e-03
      -1.93901686e-03 -2.77833873e-03 -1.45443901e-03 -8.36054678e-04
      -4.60494688e-04 -3.62435268e-04 -5.67216333e-03 -6.55625667e-03
      -5.32315066e-03 -1.35470429e-04 -2.75761471e-04 6.36878749e-03
      6.52328925e-03 3.39730619e-03 8.77052080e-04 -5.13291080e-03
      -6.31270045e-03 -6.55770348e-03 -1.04651161e-04 7.23710109e-05
      6.83734473e-03 6.94347173e-03 9.85755119e-04 2.67881260e-04
      -2.69977190e-03 -5.63723547e-03 -5.39356656e-03 1.60984555e-03
      4.53255000e-03 4.54641227e-03 4.55087982e-03 4.44446784e-03
      3.07515822e-03 -4.71509807e-03 -4.98755137e-03 -4.97658085e-03
      1.23012680e-04 4.04720474e-03 4.04720474e-03 4.01135534e-03
      3.45344725e-03 3.60050960e-03 -1.69121299e-03 -8.45509756e-04
      -3.14337364e-03 -7.14604103e-04 -8.21606081e-04 1.44803850e-03
      -1.08969165e-03 1.89734763e-03 2.51259026e-03 -4.78956994e-04
      -2.13284191e-04 4.84819699e-04 5.46279480e-04 7.47008016e-04
      -4.96577646e-04 2.09574052e-03 -1.41912402e-04 -1.75649836e-03
      -4.96577646e-04 -1.74744066e-03 -2.58037774e-03 -1.82554859e-03
      2.18159799e-03 2.64075538e-03 2.82258098e-03 8.64449423e-04
      -5.92539029e-04 -1.55785470e-03 -3.01143341e-03 -6.98968244e-04
      1.81154418e-03 4.86529805e-03 5.00529911e-03 4.01146337e-03
      -2.54834048e-03 -5.17928414e-03 -4.77191107e-03 1.22562051e-03
      3.28927743e-03 3.70601215e-03 -4.41298558e-04 -8.90084775e-04
      5.99398394e-04 -1.46841630e-03 -1.98948500e-03 -1.34675717e-03
      -2.62092357e-03 -2.65210576e-04 1.10565219e-03 1.83537893e-03
      1.27212761e-03 3.27985385e-03 2.82252138e-03 8.58355139e-04
      -2.38998886e-03 4.12147929e-04 2.22832942e-03 1.34765310e-03
      -9.09504306e-05 -4.44070855e-03 -2.37933150e-03 1.30629132e-03
      4.12147929e-04 4.12147929e-04 3.49630229e-03 2.09143432e-03
      2.01288215e-03 3.56099405e-03 3.52328131e-03 7.52671389e-04
      -3.13720922e-03 -3.13720922e-03 2.73510697e-03 4.76067362e-04
      1.96308410e-03 1.57652143e-03 -2.30244640e-03 -2.36046710e-03
      -3.36916349e-03 4.08362743e-04 4.08362743e-04 4.08362743e-04
      3.04033747e-04 -4.07803047e-04 1.71508046e-03 2.53706542e-03
      1.95830874e-03 -2.38080625e-04 -9.81762423e-04 -9.81762423e-04
      -9.81762423e-04 -1.04951649e-03 9.57712822e-04 -4.42206474e-05
      -1.21630612e-03 2.44567823e-03 2.17014947e-03 1.60889176e-03
      -1.04951649e-03 -1.04951649e-03 -1.15507096e-03 2.34374683e-03
      1.58661674e-03 9.01529565e-04 7.04918173e-04 -1.18317454e-04
      -1.05894134e-04 5.05705772e-04 -1.15507096e-03 2.25873882e-04
      -4.51592816e-04 -3.70012969e-03 7.78140529e-05 2.83577887e-04
      4.85355122e-04 2.25873882e-04 1.77384401e-03 2.25873882e-04
      -2.37458199e-03 2.06023199e-03 2.60196836e-03 -1.19027347e-04
      1.55576516e-03 2.72020884e-03 1.62224297e-03 -5.54251368e-04
      -2.37458199e-03 -6.16326346e-04 -6.16326346e-04 -2.37482809e-03
      -2.05142656e-03 1.43731770e-03 2.07022345e-03 2.79513537e-03
      2.62684817e-03 -6.16326346e-04 -2.21331278e-03 1.10424729e-03
      1.47346267e-03 -7.18799245e-04 -7.18799245e-04 -7.18799245e-04
      1.76987192e-03 1.14263373e-03 1.28242376e-04 -3.23886576e-04
      5.64296264e-04 1.05994369e-03 2.12943321e-03 -5.54635364e-04
      -3.23886576e-04 -3.23886576e-04 -7.36172777e-04 -3.23886576e-04
      1.65951260e-05 1.78247830e-03 -1.16491993e-03 6.16050384e-04
      1.65951260e-05 1.65951260e-05 -1.12090260e-03 -5.80376400e-05
      1.65951260e-05 -3.85993742e-03 -1.71332655e-03 1.08157191e-03
      1.97534123e-03 2.31571053e-03 7.65717050e-05 1.67048350e-03
      6.96727308e-04 -3.00971558e-04 -8.24780436e-04 -3.07595241e-03
      6.64013554e-04 4.03827243e-03 2.82176305e-03 1.82149714e-04
      2.71021272e-03 -8.24780436e-04 -8.24780436e-04 -3.35763069e-03
      1.43388123e-03 2.57077185e-03 2.60455045e-03 3.10390466e-03
      3.45524983e-03 2.96615483e-03 1.68241712e-03 -3.35763069e-03
      5.14260842e-04 5.14260842e-04 9.31300514e-04 7.11072993e-04
      4.84440912e-04 -6.72063383e-04 -1.48731703e-03 -2.15763738e-03
      -5.62451198e-04 3.44620179e-03 1.05111126e-03 4.71922758e-05
      4.71922758e-05 4.71922758e-05 4.71922758e-05 -1.46935345e-03
      -2.79107667e-03 -6.98098520e-05 -1.42764952e-03 -1.42764952e-03
      -3.28967581e-04 2.00652401e-03 1.90455141e-03 2.75790179e-03
      1.23084185e-03 3.64840322e-04 -1.42764952e-03 -6.35034463e-04
      -6.35034463e-04 -6.35034463e-04 1.44971802e-03 3.38498456e-03
      2.61269277e-03 -2.09814589e-03 -2.65336945e-04 -1.73407199e-03
      3.44563392e-03 2.17356090e-03 1.52594189e-03 -2.39738286e-03
      -2.39738286e-03 -6.86725369e-04 2.36839347e-04 2.85850931e-03
      1.81217981e-03 3.52370879e-03 2.97549320e-03 -3.60359508e-03
      -2.30263080e-03 -1.79087848e-03 2.67879362e-03 3.58434045e-03
      2.87570292e-03 2.90293642e-03 6.76357420e-04 4.29739070e-04
      4.00593592e-04 7.63611810e-04 7.05006998e-04 -3.95017560e-04
      -1.82906329e-03 -7.43612065e-04 -8.00105336e-04 1.16450223e-03
      1.06984975e-04 1.06984975e-04 1.06984975e-04 1.06984975e-04
      1.06984975e-04 -1.57712516e-03 -4.10837529e-04 1.06984975e-04
      2.70836730e-03 1.11915171e-04 -1.79193949e-03 -2.49420700e-04
      1.11915171e-04 -1.81714291e-04 -3.61312326e-04 -1.86862890e-03
      2.34652706e-03 2.17638607e-03 -7.66792873e-05 -1.86046842e-03
      -1.86046842e-03 -1.86046842e-03 3.10077867e-03 3.40432487e-03
      1.47705583e-03 3.08347726e-03 3.55961802e-03 1.23701361e-03
      -2.85228225e-03 -3.75347282e-03 -3.89084127e-03 -4.06469172e-03
      -2.75625003e-04 1.00931351e-03 3.62491305e-03 8.88763054e-04
      3.96956195e-04 -3.27014830e-03 -4.06997744e-03 -3.64792370e-03
      -2.09066062e-03 3.66830570e-03 4.15133173e-03 1.93058606e-03
      2.42884751e-04 3.75918142e-04 8.93128337e-04 1.76091690e-03
      -2.90781585e-03 9.21145082e-04 -5.65424270e-04 -5.65424270e-04
      4.15619317e-04 -3.56566597e-04 8.27150070e-04 -3.56566597e-04
      8.15293170e-04 6.95686613e-04 1.07117475e-03 -6.36684126e-04
      -1.07479270e-03 -3.56566597e-04 -6.01340376e-04 -7.23409641e-04
      -2.11887658e-04 9.22610168e-04 7.91198458e-04 2.95421487e-04
      5.30597572e-05 -2.11887658e-04 -2.11887658e-04 -1.57911476e-04
      4.30509157e-04 -4.53143410e-04 -2.32442352e-03 -1.57911476e-04
      7.68164406e-04 2.55286368e-03 -1.57911476e-04 -1.57911476e-04
      -2.53146491e-03 -3.73350596e-03 -3.34979105e-03 6.88480446e-04
      3.56232910e-03 2.59997998e-03 -1.32738857e-03 -3.64626036e-03
      -1.92647893e-03 -2.67519359e-03 -8.89174815e-04 -2.67463929e-05
      1.56191911e-03 -3.16859485e-04 -4.04074276e-03 4.94759809e-03
      7.53079657e-04 5.52439706e-05 -3.67851392e-03 -1.09219074e-03
      -1.10751018e-03 -2.31477804e-03 2.83703301e-03 5.04380045e-03
      -4.33918831e-05 -1.91340363e-03 -5.07088145e-03 -5.32407453e-03
      -4.01535351e-03 -2.09912308e-03 1.70045381e-03 1.67344953e-03
      3.56233143e-03 -3.47778492e-04 -1.63801527e-03 -2.66330689e-03
      -5.19277621e-03 6.68887573e-04 1.65697047e-03 2.81521282e-03
      4.07138374e-03 4.31226147e-03 3.73433065e-03 2.30059237e-03
      -4.88422345e-03 -6.82666316e-04 2.94828764e-03 1.88083469e-03
      3.29565047e-03 -5.16902655e-03 3.44709819e-03 6.63794577e-04
      2.51696445e-03 -6.82666316e-04 8.92808894e-04 -2.62846734e-04
      -1.10442704e-03 -2.91551638e-04 -4.21273289e-03 1.43047865e-03
      3.48998420e-03 4.01513372e-03 1.58161367e-03 -9.87142703e-05
      2.17687426e-04 -5.89917472e-04 -5.29856374e-03 -1.27268676e-03
      3.08964099e-03 4.54554427e-03 2.37648794e-03 -2.11005216e-04
      2.67365569e-04 3.47023574e-03 8.19754321e-04 1.30732998e-03
      -3.56755871e-03 1.49049785e-03 -8.24664836e-04 2.12412933e-03
      7.10026477e-04 -1.83731318e-05 3.24346649e-04 -1.35753071e-03
      7.56821362e-04 -4.51567583e-03 2.91827921e-04 2.63380329e-03
      3.51495761e-03 3.02726123e-03 5.77221799e-04 -5.54566504e-04
      -4.05653147e-04 -6.37116958e-04 -5.14374999e-03 2.42441916e-03
      2.62702932e-03 1.53277488e-03 -8.42508976e-04 2.54090130e-03
      6.82353100e-04 -2.12486571e-04 -5.33436541e-04 -3.36370966e-03
      -3.44805606e-03 1.39713497e-03 4.30649525e-04 4.19245654e-04
      4.12437017e-04 2.87517277e-03 2.63395021e-03 1.59332308e-03
      -2.19949475e-03 -2.93481606e-03 -4.32239758e-04 -2.26950942e-04
      -4.32239758e-04 1.16931740e-03 3.96163529e-03 3.28085013e-03
      1.76708668e-03 -3.77993740e-04 -2.78858631e-03 -3.55319097e-03
      -8.34460545e-04 5.03868447e-04 3.00094555e-03 3.31802643e-03
      3.01636336e-03 3.24336556e-03 2.49980646e-03 -4.88738413e-04
      -2.88246688e-03 -2.88246688e-03 9.47447028e-04 -3.75089498e-04
      8.38279724e-04 -1.08293409e-03 -6.11001233e-05 -6.11001233e-05
      -6.11001233e-05 -6.11001233e-05 -3.17010592e-04 1.09214813e-03
      -1.89843017e-03 3.53416515e-04 1.53933128e-03 4.03727900e-04
      8.12678016e-04 3.53416515e-04 -9.71028814e-04 3.53416515e-04
      -2.12207623e-03 -1.48460327e-03 1.14146853e-03 1.25329639e-03
      1.49432314e-03 2.58928211e-03 1.23360602e-03 -1.47678237e-03
      -1.72027643e-03 -3.02209496e-03 -1.83943624e-03 2.23417650e-03
      3.07966396e-03 3.17432359e-03 2.70292303e-03 1.07928514e-04
      6.64579857e-05 -1.65671948e-03 -1.65671948e-03 -3.12925526e-03
      3.62875895e-03 3.76899005e-03 9.85862571e-04 1.37999130e-03
      3.76792229e-03 3.66145559e-03 1.36647746e-03 -3.12925526e-03
      -1.92672247e-03 3.52007779e-03 3.56517872e-03 -6.11869968e-04
      2.14004167e-03 9.76184616e-04 3.61650134e-04 -9.27369751e-04
      -1.92672247e-03 -6.72661059e-04 -1.96272321e-03 1.63906720e-03
      3.13305133e-03 2.38416498e-04 2.38416498e-04 2.38416498e-04
      -1.63760583e-03 -2.22126395e-03 -8.14360101e-04 1.18493735e-04
      1.20079967e-04 -2.71695107e-03 1.67797203e-04 4.96867578e-04
      4.96867578e-04 4.96867578e-04 4.96867578e-04 -7.57423346e-04
      -3.69433896e-03 6.46916160e-04 2.16442905e-03 3.97348497e-03
      2.49418686e-03 5.21523063e-04 5.40550973e-04 -2.25502695e-03
      -4.47240006e-03 1.61657037e-04 1.36580167e-03 1.75735832e-03
      1.98696763e-03 2.40772148e-03 3.10232746e-03 1.27128244e-03
      -2.68335035e-03 -4.66270978e-03 7.18159077e-04 2.72605522e-03
      3.99461528e-03 3.68293258e-03 3.98530997e-03 4.03249310e-03
      2.32725567e-03 -4.53261333e-03 -2.71211471e-03 -4.76913294e-03
      -2.50809127e-04 1.47276151e-04 3.85657744e-03 4.00072522e-03
      3.08207516e-03 2.72718002e-03 -2.07768078e-03 -2.32311967e-03
      -3.18391627e-04 3.22547648e-03 3.74198589e-03 3.01482994e-03
      1.95297319e-03 1.09507085e-03 1.50814268e-03 -4.85529890e-03
      -1.22058182e-03 -5.72657911e-04 2.62796739e-03 2.22659949e-03
      2.29989504e-03 -4.68018494e-04 9.03148786e-04 -1.22058182e-03
      -1.22058182e-03 -9.23810876e-04 1.10845780e-03 1.10346975e-03
      7.89934420e-05 3.59983416e-03 -9.80704790e-04 -7.16509821e-04
      -1.90615456e-03 -9.67640255e-04 -1.02569046e-03 1.91298220e-03
      2.91025126e-03 1.22885988e-03 3.25396680e-03 1.71722181e-03
      -1.02569046e-03 -1.02569046e-03 -2.69450806e-03 2.34589819e-03
      3.61652696e-03 -2.34437827e-03 -5.03531983e-03 -4.58440278e-03
      1.25378545e-03 3.45881679e-03 3.03576957e-03 3.45646217e-03
      2.96345563e-03 5.68447402e-04 -1.39985536e-03 -1.39985536e-03
      -2.11213715e-03 -3.70960101e-04 1.29798509e-03 3.24975234e-03
      2.42993585e-03 3.71548231e-04 6.20952269e-05 6.20952269e-05
      6.20952269e-05 -1.19354669e-03 -8.54983926e-04 5.70057193e-04
      1.74856512e-03 3.26661160e-04 -6.22421037e-04 4.46042715e-04
      -8.69679425e-05 -8.69679425e-05 1.66695623e-03 6.95134979e-04
      -1.86346984e-03 -1.78353232e-03 1.49204012e-03 1.15004477e-04
      1.33630994e-03 -2.10034850e-04 -2.10034850e-04 1.24431856e-04
      -2.10034850e-04 -2.10034850e-04 -2.10034850e-04 -2.10034850e-04
      2.05169455e-03 3.39819747e-03 -2.85605248e-03 -3.24924593e-04
      -3.24924593e-04 -3.24924593e-04 1.91445652e-04 2.34662599e-04
      9.54765055e-05 -1.85667537e-03 -2.92258942e-03 -7.92390085e-04
      -2.19635270e-03 2.39299843e-03 1.58883631e-03 1.58883631e-03
      -1.41138723e-03 -3.46990721e-03 -5.63241600e-04 -2.18735542e-03
      -2.85941921e-03 -4.09247167e-03 -2.42316606e-03 1.22665137e-03
      3.03494721e-03 3.59880109e-03 -6.29823364e-04 -1.08654785e-03
      -1.64255837e-03 -2.60714605e-03 -2.10908125e-03 1.67590682e-04
      2.80842325e-03 1.67079840e-03 7.30181346e-04 2.26882999e-04
      1.83875381e-03 3.37605574e-03 3.24834371e-03 1.74048007e-03
      -2.55891494e-03 -6.34993892e-04 -1.25930039e-03 -2.09807255e-03
      -5.74800943e-04 1.32278830e-03 -7.30382220e-04 -7.30382220e-04
      -2.33642268e-03 -3.28347366e-03 9.47859429e-04 1.56242913e-03
      3.32718319e-03 2.63638748e-03 3.88331944e-03 5.30950772e-03
      -4.26320883e-04 -3.64464941e-03 -3.70549993e-03 -3.77271092e-03
      -3.66868614e-03 -3.58653045e-03 -2.51785573e-03 2.95918580e-04
      1.31803844e-03 2.60058511e-03 8.35251820e-04 2.09531194e-04
      -3.58978985e-03 -3.46162217e-03 -2.27977871e-03 -1.43284409e-03
      3.19063372e-04 1.07263972e-03 2.34381948e-03 4.03733662e-04
      6.06060028e-04 -4.19035740e-03 3.23011511e-04 1.69266807e-03
      -1.07320282e-03 -5.65544050e-03 -5.69184637e-03 -1.69663690e-03
      -1.49656902e-04 5.12200315e-03 5.65765565e-03 1.60947628e-03
      2.49723525e-05 -4.13100468e-03 -4.53369552e-03 -6.44449494e-04
      -2.24851491e-03 -1.00638648e-03 4.76852641e-04 6.84489124e-03
      9.76857555e-05 -7.74391519e-04 -5.33122849e-03 -3.30916350e-03
      9.86992847e-04 3.66428983e-03 4.29212907e-03 -1.94024830e-03
      3.75588052e-03 1.91375019e-03 1.02369336e-03 -3.97112267e-03
      -4.14037798e-03 8.75177444e-04 9.89779714e-04 3.67823336e-03
      -6.75641873e-04 4.48247325e-03 4.27956413e-03 2.02070526e-03
      -3.27854953e-03 -1.08171348e-03 1.45253391e-04 -2.04308843e-03
      9.92357149e-04 -3.65113909e-03 3.38094123e-03 3.04644834e-03
      3.60365049e-03 -3.50731309e-04 -1.82431075e-03 -1.65671343e-03
      -4.27592918e-03 4.43767465e-04 -1.75886333e-03 3.99983674e-03
      4.03498346e-03 1.68627361e-03 -1.53891882e-03 -4.72039729e-03
      5.27408956e-05 3.88350833e-04 1.58108352e-03 3.82882659e-03
      4.65370016e-03 4.31772089e-03 4.07720264e-03 -4.84383060e-03
      -2.26632063e-03 1.78466784e-03 2.18250416e-03 2.34353100e-03
      1.64930825e-04 1.51009928e-03 2.11145543e-03 2.00238009e-03
      -2.50028307e-03 -2.29948363e-03 -1.13073690e-03 8.41556466e-04
      1.43976044e-03 -3.40661663e-03 2.84731970e-03 3.08022881e-03
      3.97870317e-03 -6.65462925e-04 9.60653997e-04 9.94539238e-04
      -1.01773371e-03 -2.00396427e-03 -2.00396427e-03 1.15430087e-03
      2.35879025e-03 3.29141156e-03 -2.75403254e-05 1.88946654e-03
      2.66895135e-04 1.74439774e-04 -5.31907659e-04 -5.31907659e-04
      -5.31907659e-04 9.01353662e-04 6.05183537e-04 7.63108430e-04
      -2.78582447e-03 2.25784746e-03 3.02372780e-03 2.52722879e-03
      2.39713257e-03 -8.44470283e-04 -8.44470283e-04 -8.44470283e-04
      -3.28888302e-04 5.48621407e-04 1.17485970e-03 8.02866882e-04
      1.27216312e-03 3.60475993e-03 -7.82800314e-04 -7.82800314e-04
      -7.82800314e-04 -7.82800314e-04 1.05582539e-03 2.51459097e-03
      1.39645231e-03 -2.16542481e-04 -3.30075365e-03 -3.45582399e-03
      -2.76332488e-04 -2.76332488e-04 1.67706667e-03 8.54791375e-04
      -1.76261202e-03 -5.35618979e-04 -1.43391208e-03 -2.84687406e-03
      -1.14349229e-03 2.32190127e-03 8.62745917e-04 8.54791375e-04
      -2.07723887e-03 -2.21034585e-04 1.71462179e-03 1.89023640e-03
      3.28560569e-03 3.50443390e-03 2.38211080e-03 -1.83258147e-03
      -2.07723887e-03 -3.98709904e-03 5.86569331e-06 2.17219745e-03
      3.49551556e-03 3.48245003e-03 3.40794865e-03 3.27297766e-03
      7.56150926e-04 -3.00827064e-03 -5.25081181e-04 -4.89234633e-04
      -5.25081181e-04 1.89503364e-03 3.25244619e-03 8.71606171e-04
      -1.77050228e-04 -5.25081181e-04 -5.25081181e-04 -9.04668588e-04
      1.28665450e-03 -1.67364778e-04 -1.51973136e-03 -1.49343954e-03
      2.97783874e-03 2.92908680e-03 -9.04668588e-04 -9.04668588e-04
      -2.28596129e-03 -9.76979383e-04 2.03320291e-03 3.70496209e-03
      2.59723491e-03 3.66032380e-03 3.39996372e-03 4.79716371e-04
      -3.85835697e-03 -1.43847708e-03 -1.43847708e-03 1.74429978e-03
      1.71249686e-03 1.64780556e-03 1.88379001e-03 9.24236490e-04
      4.65720877e-05 -1.43847708e-03 -8.15908890e-04 -8.15908890e-04
      9.42162878e-04 2.25879205e-03 1.59330433e-03 9.97860698e-05
      8.63941968e-04 -8.15908890e-04 -8.15908890e-04 -9.28685360e-04
      -2.95038219e-03 -1.35030597e-04 2.07080925e-03 1.91920588e-03
      1.45530130e-03 -3.56808014e-04 4.96959372e-04 4.96959372e-04
      -6.13702554e-03 1.29343083e-04 1.50944805e-03 1.99326966e-03
      4.87816427e-03 4.87108296e-03 4.83286846e-03 8.08247947e-04
      -4.76158503e-03 -6.79906085e-03 2.21221897e-04 1.08242466e-03
      2.15220716e-04 4.22959775e-03 4.83110175e-03 4.73505538e-03
      4.76902025e-03 -5.48894610e-03 -2.58819014e-03 1.70020072e-03
      2.09560059e-03 2.42231647e-03 2.55348044e-03 2.56255944e-03
      2.45010667e-03 -1.76612171e-03 -1.76612171e-03 -1.61474850e-03
      1.67317386e-03 3.50102875e-03 9.48536443e-04 3.30854882e-03
      8.33837083e-04 4.68266167e-04 -1.61474850e-03 -1.61474850e-03
      -1.88832311e-03 -1.88832311e-03 2.21224711e-03 2.10425002e-03
      1.36450550e-03 2.47108052e-03 2.41772691e-03 1.95540977e-03
      -1.88832311e-03 -7.68712140e-04 1.60816615e-03 -2.69779470e-03
      -7.40790740e-04 1.27395766e-03 2.40744487e-03 2.98837037e-03
      -2.17319423e-04 -7.68712140e-04 3.47052468e-03 3.55815901e-05
      -1.44968869e-03 -1.44968869e-03 -1.44968869e-03 3.02577764e-03
      1.64836273e-03 2.02745013e-03 1.83102163e-03 1.32867810e-03
      -8.39790388e-04 -8.39790388e-04 -8.39790388e-04 -8.39790388e-04
      2.82750675e-03 2.05488293e-03 1.47427269e-03 6.46702596e-04
      -2.96030100e-03 1.08944741e-03 1.08944741e-03 1.08944741e-03
      -2.35498243e-04 -1.27396290e-03 -6.32861920e-04 -1.22754078e-03
      -5.20716188e-04 3.58484976e-04 -1.21214229e-03 3.58484976e-04
      3.58484976e-04 3.58484976e-04 -7.60489726e-04 -1.10872195e-03
      3.58484976e-04 3.98583419e-04 3.83809202e-05 6.49341964e-05
      -1.77431258e-03 -1.77431258e-03 -1.77431258e-03 2.40947818e-03
      3.37213580e-03 3.41692567e-03 2.58075353e-03 1.55000482e-03
      -6.74802053e-04 -1.70577760e-03 -6.74802053e-04 -1.47200224e-03
      4.97080677e-04 1.33849622e-03 1.82398455e-03 8.91385076e-04
      -2.41668290e-03 -3.49861430e-03 -2.28991196e-03 -3.91542329e-04
      1.77834148e-03 1.77834148e-03 3.13725416e-03 -3.31079517e-03
      -3.57818184e-03 -3.19885882e-03 -2.52812821e-03 -1.00420276e-03
      8.23109469e-04 8.41168163e-04 1.58471102e-03 8.41168163e-04
      6.57733355e-04 -1.00981561e-03 -3.50261689e-03 -4.04810021e-03
      -2.49516638e-03 -1.97437825e-03 -2.61107413e-03 1.52508053e-03
      3.99885280e-03 2.60496861e-03 -2.65386933e-03 -1.47299853e-03
      -1.84785877e-03 1.38935086e-03 7.30858417e-04 -9.43469699e-04
      1.49331719e-03 3.04698944e-04 3.04698944e-04 3.04698944e-04
      -6.82343845e-04 -1.41975016e-03 -1.87729904e-03 -1.78580824e-03
      8.09180710e-05 4.81242838e-04 1.95815437e-03 1.14530534e-03
      2.14223238e-03 1.43944169e-03 -2.81202118e-03 -3.40324244e-03
      -3.15108174e-03 -3.15033947e-03 -2.56871362e-03 1.43944169e-03
      1.43944169e-03 2.79957289e-03 2.52225855e-03 -3.01340013e-03
      -3.89510579e-03 -4.23307624e-03 -3.64340679e-03 -2.43961043e-03
      9.78200464e-04 3.74209369e-03 4.29038983e-03 3.24196974e-03
      -6.38292113e-04 -1.83988002e-03 -4.46744263e-04 -2.82940688e-03
      -6.39396894e-05 2.68508191e-03 2.30026082e-03 3.68234864e-03
      -4.13427973e-04 -2.86638853e-04 -5.41707850e-04 4.80624195e-03
      -2.37178686e-03 -2.28631714e-36 -8.17496388e-04 -2.68633943e-04
      -4.13427973e-04 -2.28631714e-36 -8.29624205e-37 -2.34519073e-04
      2.66250689e-03 -1.04630832e-03 2.11183843e-03 -1.80588639e-03
      -1.37149019e-03 -1.48280247e-04 -1.72030041e-03 -9.11322481e-04
      1.00505051e-04 6.04388351e-03 -2.70871050e-03 3.70988064e-03
      2.96614977e-04 -9.61200858e-05 -2.02200655e-03 -3.27871414e-03
      -5.39422908e-04 2.50426657e-03 2.08899565e-03 -1.30024808e-03
      1.64187129e-03 4.39255359e-03 3.78581579e-03 -1.89909036e-03
      1.71649258e-03 3.35729145e-03 3.35729145e-03 3.08112078e-03
      -3.67171969e-03 7.91104452e-04 -2.14749970e-03 8.15489911e-04
      1.42884767e-03 1.25690235e-03 3.50948144e-03 2.88369018e-03
      -2.18947977e-03 -4.14912216e-03 5.54827100e-04 2.51551694e-03
      3.24708479e-03 2.67894007e-03 -4.46492154e-03 3.37826181e-03
      1.92270952e-03 3.37909348e-03 3.11939907e-03 3.62321944e-03
      3.06454045e-03 2.84013897e-03 -3.36490595e-03 1.33680017e-03
      1.78564992e-03 -5.27986907e-04 -2.42070411e-03 -1.78590568e-03
      1.09830906e-03 2.85267364e-03 3.42563470e-03 5.12636150e-04
      1.20635334e-04 3.08594736e-03 1.24927727e-03 2.60387012e-03
      -1.54263887e-03 1.72901608e-04 -1.86561618e-03 4.30928456e-04
      -2.06545592e-04 -2.52135494e-03 -4.46825026e-04 4.25218343e-04
      8.06378899e-04 -2.00698688e-03 -6.45014661e-05 7.95388245e-04
      2.58648390e-04 2.89832149e-03 3.03544127e-03 2.11058883e-03
      2.23439070e-03 9.83410631e-04 -7.38719420e-04 -1.51796674e-03
      -1.51796674e-03 -1.49190042e-03 1.87591021e-03 -1.03026396e-03
      -2.32191151e-03 -2.90208706e-03 -1.10436464e-03 -1.66361348e-03
      -2.08585858e-04 1.78983773e-03 1.39099243e-03 1.39099243e-03
      5.96332538e-05 -1.00783852e-03 6.56611694e-04 2.24598125e-03
      -3.57350055e-03 5.96332538e-05 1.45964441e-03 5.96332538e-05
      5.96332538e-05 -1.32082193e-03 2.71077006e-04 2.63072667e-03
      2.71126535e-03 1.99181447e-03 -2.01871665e-03 -6.92270987e-04
      -6.92270987e-04 -6.92270987e-04 3.62646952e-03 3.88228730e-03
      1.63851725e-03 -1.15317089e-04 -8.94863624e-04 -4.56380378e-03
      -1.13218126e-03 -1.13218126e-03 1.62769586e-03 1.43031473e-04
      -1.94347487e-03 -1.35961178e-04 1.15609635e-03 -2.22975010e-04
      7.91482627e-04 1.43031473e-04 1.43031473e-04 1.43031473e-04
      -3.22358304e-04 -1.29767205e-03 -1.21326279e-03 -1.75278843e-03
      -6.79452438e-04 2.86197220e-03 2.69615860e-03 6.17110709e-05
      -3.22358304e-04 -2.79613677e-03 -3.48802586e-03 -5.27437602e-04
      7.33413384e-04 2.58130161e-03 3.16554448e-03 2.89775804e-03
      -2.18864676e-04 -2.18864676e-04 -1.36360014e-03 -6.57417753e-04
      -4.46213176e-04 1.69063220e-03 3.07551934e-03 2.10016174e-03
      2.18975614e-03 -2.56951991e-03 -4.46213176e-04 -1.84758124e-03
      -3.80089885e-04 -4.10577049e-04 2.41324003e-03 1.94831530e-03
      -3.59771249e-04 1.61387294e-03 -4.92097111e-04 -9.92488000e-04
      -4.81690455e-04 -3.93480059e-06 1.30624115e-03 -3.59559053e-04
      5.08984922e-05 -1.21112633e-03 5.08984922e-05 9.55699710e-04
      5.08984922e-05 2.45417352e-04 -2.01121578e-03 -1.87062856e-03
      1.35121052e-03 1.07570330e-03 1.03388575e-03 2.45417352e-04
      2.45417352e-04 2.45417352e-04 1.39112468e-04 1.39112468e-04
      -1.10227824e-03 -4.77311005e-05 1.39112468e-04 1.66658743e-03
      -1.32893934e-03 1.39112468e-04 1.39112468e-04 -4.95286891e-03
      -5.52225392e-04 5.87887305e-04 1.25599455e-03 7.82821793e-04
      3.68218590e-03 3.92950792e-03 1.32932072e-03 -3.95656936e-03
      -4.10948647e-03 -4.25883662e-03 1.81510812e-03 2.39590881e-03
      3.41992849e-03 3.89859686e-03 3.37392697e-03 1.48276298e-03
      -3.87411891e-03 -2.65525375e-03 -4.93563712e-04 5.68343559e-04
      2.30596954e-04 3.60861413e-05 3.60861413e-05 2.04722909e-03
      2.70156586e-03 -2.73604318e-03 -3.11045814e-03 -1.66533946e-03
      -3.73001443e-03 -2.91688764e-03 1.46327919e-04 4.42986796e-03
      1.65411446e-03 1.65411446e-03 -3.47465626e-03 -1.64336537e-03
      -1.50047662e-03 -4.75856214e-04 1.22563331e-03 -9.64137944e-05
      2.73189298e-03 3.07895150e-03 1.99971860e-03 -1.64336537e-03
      -5.96019032e-04 -1.77761167e-03 -1.07529655e-03 -2.33897683e-03
      2.59394059e-04 4.19853925e-04 2.27532745e-03 4.19853925e-04
      4.19853925e-04 5.44642285e-03 -1.12195360e-03 -4.49074944e-03
      -5.91047108e-03 -5.87375602e-03 1.15346906e-04 2.27412954e-03
      5.24568651e-03 5.10831084e-03 5.54406457e-03 1.19901451e-04
      -4.52650711e-03 -4.92423959e-03 -4.79506608e-03 -3.14716226e-03
      -8.14087223e-04 5.24396636e-03 5.61593799e-03 2.91138166e-03
      4.80122864e-04 -6.20239356e-04 -1.89496321e-03 -3.43034905e-03
      -2.40498106e-03 1.81300944e-04 1.81178271e-03 1.94522541e-03
      1.96460984e-03 -1.47769507e-03 -4.07671323e-04 -4.07671323e-04
      -4.07671323e-04 7.99320056e-04 -1.15711836e-03 -1.19810698e-04
      2.07767170e-03 3.50485439e-04 3.89280904e-05 -2.72948440e-04
      -3.79286124e-04 -2.72948440e-04 2.93040561e-04 -2.24049247e-04
      1.27758423e-03 8.03852090e-05 -1.32362777e-03 -8.68198287e-04
      -3.64832580e-04 1.53835432e-03 3.10946908e-03 2.88460101e-03
      3.15418141e-03 -1.79829774e-03 -1.70605897e-03 -4.54205181e-03
      -8.92000040e-04 -2.17119901e-04 4.62701684e-03 4.65677027e-03
      4.63466626e-03 -2.86230585e-03 -5.23515791e-03 -5.53306891e-03
      -3.41909193e-03 -2.69046891e-03 1.42990088e-04 4.47317911e-03
      6.49465295e-03 1.15034764e-03 -1.39717071e-03 -2.98164226e-03
      -3.42465751e-03 4.40269723e-05 -2.50266562e-03 -1.15317595e-03
      -2.65969778e-03 -3.67589295e-04 -5.37996297e-04 2.97796261e-03
      -2.49156350e-04 7.62037933e-04 -3.50854709e-03 -3.52977170e-03
      -3.52363940e-03 -3.36576533e-03 -2.58861971e-03 1.91182410e-03
      2.34172842e-03 4.63705510e-03 -2.99647218e-03 -4.91211133e-04
      -8.87628819e-04 -2.24200357e-03 9.20408929e-05 -2.59963027e-03
      3.06944177e-03 8.02321418e-04 1.33908959e-03 -6.95156748e-04
      -1.03024335e-03 2.27066432e-03 2.10804646e-04 -1.11633213e-03
      1.20572746e-03 -1.64297293e-03 -2.10319457e-04 3.85697786e-04
      7.69823782e-06 7.12275214e-04 1.02654786e-03 -1.53623265e-03
      -2.68808613e-03 -2.08995095e-03 1.90601044e-04 1.23750744e-03
      7.12275214e-04 7.12275214e-04 1.21501659e-03 -4.82684886e-03
      -2.03833589e-03 -4.64381592e-04 -4.44861921e-03 -2.55730515e-03
      6.30007358e-04 3.25942482e-03 2.44224188e-03 -4.42633219e-03
      -4.53852146e-04 1.65327161e-04 6.98458753e-04 6.33451808e-03
      -4.18929470e-04 -2.38409126e-03 -5.55113424e-03 -5.34388563e-03
      -4.58116690e-03 -1.52639498e-03 -5.11898519e-03 2.24299720e-06
      5.97225642e-03 4.95241955e-03 -3.38506699e-03 -1.31937803e-03
      -4.58116690e-03 -7.01621873e-03 -2.11437455e-36 -2.11437455e-36
      -2.87434413e-36 6.09872025e-03 6.09872025e-03 4.95249219e-03
      6.88723172e-04 -7.03667710e-03 -4.82398644e-03 -4.29434178e-04
      9.00791201e-04 2.09832704e-03 3.46641266e-03 4.17004572e-03
      4.04659938e-03 2.36653420e-03 -2.42405082e-03 -2.09754845e-03
      2.39425735e-03 2.32164003e-03 3.64532741e-03 -3.85467568e-03
      2.90178205e-03 8.63892725e-04 2.89062620e-03 -1.77989271e-03
      2.59721000e-03 3.49854375e-03 1.43547892e-03 -2.20323284e-03
      -3.34160216e-03 -9.01330844e-04 -2.04097261e-04 1.00794656e-03
      2.25007767e-03 -2.47054989e-03 2.03027367e-03 -2.13573524e-03
      3.08647519e-03 2.95191538e-03 3.54833715e-03 6.55386131e-04
      2.58156192e-03 -2.42597749e-03 1.56470854e-03 1.34872238e-03
      9.11367242e-04 6.04877423e-04 -4.03797487e-03 4.16662358e-03
      1.46428193e-03 1.14606007e-03 2.98738043e-04 -1.03814213e-03
      3.66132660e-03 4.34340647e-04 6.30527968e-04 -4.32291208e-03
      1.52202649e-03 1.99333439e-03 3.50742601e-03 -9.47002496e-04
      1.58955541e-03 1.26855390e-03 1.49241672e-03 2.57425732e-03
      -5.75343962e-04 -1.83556334e-03 -8.56854895e-04 -7.67157646e-04
      -7.67157646e-04 -1.29670289e-03 3.22007295e-03 3.50466301e-03
      3.49835772e-03 2.61629908e-03 7.80659670e-04 -1.22344936e-04
      -4.11322154e-03 -2.67907837e-03 4.24906320e-04 2.15487252e-03
      8.59290827e-04 -3.58268898e-03 -1.56550051e-03 -1.73535649e-04
      1.30137859e-03 -6.39280697e-05 -6.39280697e-05 -6.80855534e-04
      -1.06584246e-03 -4.68046957e-04 1.86660880e-04 2.04485375e-03
      2.43126508e-03 -6.80855534e-04 -1.06020214e-03 1.92866859e-03
      5.49802906e-04 7.03912519e-04 -2.56268959e-03 -1.49794249e-03
      -5.55021747e-04 6.30379596e-04 6.30379596e-04 6.30379596e-04
      6.30379596e-04 1.78299157e-03 1.82569365e-03 3.56409990e-04
      1.07856366e-04 -7.98219466e-04 -4.37921891e-03 -5.81957109e-04
      4.28322557e-04 4.28322557e-04 4.69228486e-03 2.52319587e-04
      -3.60531907e-04 -1.63426902e-03 -9.06541129e-04 -4.60530259e-03
      -6.13472483e-04 -5.05754666e-04 2.35062931e-03 -5.87657967e-04
      3.24635557e-03 1.85002957e-03 1.57589326e-03 -8.48452444e-04
      1.90381613e-03 2.54326803e-03 -2.58113374e-03 -1.93025474e-03
      -1.21610344e-03 1.75823609e-03 2.10206350e-03 3.32807453e-04
      1.87179190e-03 4.70777159e-04 -5.68127027e-04 -1.21610344e-03
      -1.21610344e-03 -4.51169908e-04 -1.63980271e-03 -3.11791897e-04
      3.68162710e-03 2.69255484e-03 1.43404165e-03 -2.39291461e-03
      1.89992739e-03 -4.51169908e-04 -4.31451155e-03 -8.98660044e-04
      2.47291755e-03 2.37534917e-03 3.46122659e-03 3.80968186e-03
      3.68822645e-03 -1.32998830e-04 -3.34652327e-03 -2.01308430e-04
      -1.69486401e-03 -1.11682143e-03 -5.81632834e-04 2.92097917e-03
      2.40152236e-03 -9.43803752e-05 -9.43803752e-05 -9.43803752e-05
      -7.69349339e-04 7.27710431e-04 1.06774725e-03 2.06409692e-04
      2.06409692e-04 2.06409692e-04 2.06409692e-04 7.82102055e-04
      -2.50353431e-03 -6.97364798e-04 1.76672963e-03 7.52199267e-04
      2.77748634e-03 -1.04752567e-03 1.06755330e-03 -1.47239154e-03
      -6.97364798e-04 -6.97364798e-04 -2.07742234e-03 -5.89329575e-04
      2.56372092e-04 6.35614677e-04 1.19930820e-03 1.29919033e-03
      2.80998938e-04 2.13526958e-03 -1.55575480e-03 -2.15873541e-03
      8.13211780e-04 7.66478770e-04 1.26405840e-03 8.36047548e-05
      1.49872887e-03 1.62219291e-03 1.68248359e-03 -2.15873541e-03
      -1.53458631e-03 -2.82560312e-03 2.12309114e-03 -8.46570416e-04
      8.05105839e-04 2.81730061e-03 3.35051888e-03 1.97204528e-03
      -1.53458631e-03 -2.78073037e-03 4.46749938e-04 4.46749938e-04
      4.46749938e-04 1.10931066e-03 4.46749938e-04 8.26063449e-04
      -1.13205169e-03 -1.58126070e-03 -2.94497539e-03 -2.71469983e-03
      -1.52672827e-03 -2.22078781e-03 -6.85842941e-04 7.77890964e-04
      5.08974679e-03 2.28895759e-03 -2.49914941e-03 4.68704558e-04
      1.47284742e-03 -1.25259068e-03 -4.75423597e-03 -1.40001718e-03
      -1.64882833e-04 3.17610800e-03 3.14741861e-03 2.74728239e-03
      7.57582719e-04 -2.76281056e-03 -5.17440494e-03 -5.15684346e-03
      -4.86304192e-03 -1.26574223e-03 5.14668366e-03 6.03502430e-03
      3.46385175e-03 -4.27043880e-04 -1.88257662e-03 -3.01484461e-03
      -2.19649100e-03 -2.25000526e-03 1.42036204e-03 2.12106318e-03
      2.73872376e-03 6.35782024e-04 -7.24157668e-04 -3.78417340e-03
      -4.46174247e-03 -4.36202530e-03 4.62482858e-04 3.58759076e-03
      2.43635545e-03 2.78378022e-03 3.12728481e-03 -2.24753935e-03
      -3.72470496e-03 -2.69780192e-03 -3.64962569e-03 -3.04932008e-03
      -1.63985591e-03 3.29063111e-03 4.08340339e-03 1.89371558e-03
      6.06001588e-04 -7.02385325e-04 -1.58673734e-03 -2.52556149e-03
      -7.02385325e-04 -7.02385325e-04 2.37206672e-03 3.23648239e-03
      3.41074704e-03 4.45997721e-05 1.68425078e-03 2.37868028e-03
      2.75729294e-03 -3.34843039e-03 -3.77344782e-03 -1.05299847e-03
      -4.43885627e-04 4.45997721e-05 -1.08022988e-03 -7.34955102e-05
      2.72931205e-03 3.51569545e-03 3.81966680e-03 1.72679336e-03
      -2.96283467e-03 -2.83495360e-03 -4.62648412e-03 -7.21566670e-04
      3.36864032e-03 3.52566456e-03 3.91200976e-03 2.46505369e-03
      1.06674153e-03 -1.89792633e-03 -3.88471736e-03 -1.51075516e-03
      5.66765084e-04 4.46452759e-03 4.59877076e-03 4.19281144e-03
      1.95875857e-03 -4.31018707e-04 -3.08287796e-03 -1.73991406e-03
      -4.48297989e-03 -1.88577129e-03 1.27556454e-03 -4.23295714e-04
      1.65495765e-03 2.41503888e-03 -6.36109093e-04 -9.71674337e-04
      6.63065002e-04 -1.80780247e-03 -3.20129143e-03 -2.67707277e-03
      -3.25124944e-03 -2.35284446e-03 -1.49628578e-03 2.06387928e-03
      2.06387928e-03 2.31132424e-03 -2.68290658e-03 -1.48440839e-03
      2.51674064e-04 -3.16106685e-04 -2.87304702e-03 -3.16106685e-04
      1.24701369e-03 2.84449640e-03 1.67205220e-03 -3.16106685e-04
      -6.35513643e-05 -1.87753176e-03 -1.21533615e-03 1.17431651e-03
      1.46094197e-03 1.87855843e-03 1.17421662e-03 -6.35513643e-05
      -1.69505924e-03 3.42941144e-03 2.05221074e-03 7.28228246e-04
      3.27233155e-03 -4.90906741e-03 -1.50640844e-03 1.69410720e-03
      2.61539035e-03 3.17899487e-03 -2.54299841e-04 -4.75774752e-04
      -1.40132324e-03 8.59548163e-04 -2.34572403e-03 5.94916288e-03
      8.05177959e-04 1.59318370e-04 -2.54299841e-04 -6.74295938e-03
      2.86231836e-04 4.40255872e-06 -2.09793366e-36 6.66843355e-03
      6.66843355e-03 3.17859463e-03 3.68234963e-04 -7.01659266e-03
      -5.83635410e-03 6.71867048e-04 1.84244569e-03 1.01085252e-03
      1.65078533e-03 3.71252606e-03 5.47686266e-03 5.47686266e-03
      -2.93651572e-03 2.87190056e-03 1.49415014e-03 1.52681069e-03
      3.46886134e-03 -6.14459952e-03 3.65636614e-03 3.06022307e-03
      3.45714507e-03 2.97154672e-03 -3.55304638e-03 2.28065546e-04
      1.79335836e-03 1.03378890e-03 2.51181715e-04 3.28165782e-03
      1.73052202e-03 2.26336159e-03 -3.22896568e-03 -6.82501181e-04
      3.56629345e-04 1.39821146e-03 -4.24329337e-04 -2.26898468e-03
      2.19736318e-03 2.03795219e-03 7.99625763e-04 -1.14957511e-03
      -2.63418118e-03 8.72479286e-04 2.38636290e-04 3.78618645e-03
      4.57415078e-03 2.73493491e-03 5.59486798e-04 2.35867244e-03
      -2.21916521e-03 -4.54556197e-03 -2.31270911e-03 -3.16900993e-03
      1.24541740e-03 -6.42719562e-04 5.00652660e-03 4.04901570e-03
      4.68654232e-03 -3.66431032e-03 -3.29944422e-03 1.79272285e-03
      1.49087177e-03 2.97984597e-03 3.55905504e-03 3.43885319e-03
      2.90963124e-03 3.46385688e-03 -3.29944422e-03 -7.23472564e-04
      3.23852611e-04 -6.76690368e-04 -1.33251573e-03 8.59558000e-04
      6.19015424e-04 2.18684366e-03 5.54740429e-04 -8.74404330e-04
      -2.00573332e-03 1.74473925e-03 -2.01240327e-04 5.73461177e-04
      2.82591878e-04 2.72128242e-03 2.54308991e-03 3.22677486e-04
      -2.00573332e-03 3.50012188e-03 4.00110567e-03 6.20558334e-04
      6.10874267e-04 1.46707898e-04 -1.49752037e-03 -3.04639922e-03
      -7.14592636e-04 -7.14592636e-04 3.30042909e-04 -2.19036345e-04
      -1.36944442e-03 -1.23524969e-03 -1.22393962e-04 -1.22393962e-04
      -1.22393962e-04 2.63986457e-03 3.97184573e-04 1.93745526e-03
      5.05147560e-04 -4.88342193e-04 -2.25210376e-03 -3.64232319e-03
      -3.23109934e-03 6.42835221e-04 7.44625635e-04 1.12223323e-03
      4.90578765e-04 4.40859888e-03 4.31088731e-03 4.12810780e-03
      -8.09666526e-05 -1.53899344e-03 -3.65325832e-03 -3.00681521e-03
      -8.88423470e-04 -6.42695231e-04 -1.05854306e-05 1.11598696e-03
      3.31252022e-03 5.28699765e-03 1.01724034e-03 -8.45064525e-04
      -5.40424651e-03 -1.72888068e-03 7.81633833e-04 2.26960774e-03
      4.10777656e-03 4.08908585e-03 -2.50682991e-04 -3.91273201e-03
      -4.07366594e-03 -1.87251542e-03 -2.31860875e-04 2.34917365e-03
      1.92071754e-03 1.15024310e-03 5.72311517e-04 -1.61062798e-03
      -1.94832054e-03 -4.34028218e-04 -5.38127148e-04 -2.14077532e-04
      -3.07767931e-03 1.93668064e-03 8.59571563e-04 3.48296226e-03
      3.70776234e-03 1.40843925e-03 2.62819952e-03 2.20136205e-03
      -3.07767931e-03 -1.97473587e-03 1.02150335e-03 3.51193431e-03
      2.98898807e-03 5.93500910e-04 3.48547171e-03 1.92826975e-03
      -1.97473587e-03 -1.97473587e-03 -1.72464072e-03 -9.94727947e-04
      -9.94727947e-04 2.41164491e-03 3.13018169e-03 2.25419784e-03
      2.36931816e-03 1.83555476e-05 -2.65313592e-03 2.18269043e-03
      3.23875714e-03 2.49621086e-03 2.88993237e-03 -5.70997887e-04
      -2.68139504e-03 -2.68139504e-03 7.24466459e-04 1.87867763e-03
      1.24151085e-03 -5.25229261e-04 3.15182202e-04 3.15182202e-04
      3.15182202e-04 3.15182202e-04 3.15182202e-04 -1.78538368e-03
      -1.91761891e-03 -1.31994160e-03 1.41461240e-03 2.23027985e-03
      2.85483664e-03 1.93393056e-03 2.08536541e-04 -7.14033260e-04
