<?xml version="1.0"?>
<opencv_storage>
<my_svm type_id="opencv-ml-svm">
  <svm_type>C_SVC</svm_type>
  <kernel><type>LINEAR</type></kernel>
  <C>1.0000000000000000e-02</C>
  <term_criteria><epsilon>2.2204460492503131e-16</epsilon>
    <iterations>1000</iterations></term_criteria>
  <var_all>15867</var_all>
  <var_count>15867</var_count>
  <class_count>2</class_count>
  <class_labels type_id="opencv-matrix">
    <rows>1</rows>
    <cols>2</cols>
    <dt>i</dt>
    <data>
      -1 1</data></class_labels>
  <sv_total>1</sv_total>
  <support_vectors>
    <_>
      -3.43226222e-03 -4.41648206e-03 -4.41477355e-03 -1.68478268e-03
      -3.09203658e-03 -1.46856264e-03 -1.06830965e-03 -2.41663912e-03
      -4.41648206e-03 -4.41648206e-03 -3.34751792e-03 1.86871278e+00
      -2.83300341e-03 -3.46672931e-03 -3.50816292e-03 -3.50984326e-03
      -2.64117238e-03 -1.55020296e-03 -3.50984326e-03 -5.84422285e-03
      -2.25933455e-03 -1.77067821e-03 -9.36556084e-04 -3.53226322e-04
      -1.88783015e-04 -4.89115599e-04 -4.64648567e-03 -5.84422285e-03
      -6.97825663e-03 -6.46542059e-04 -1.51130516e-04 -5.15386055e-05
      6.27258746e-03 -1.95729110e-04 -1.28877626e-04 510722464.
      145805232. -5.19159948e-03 4.54270344e+05 -1.31692633e-03
      -7.71437539e-04 1.75340881e+03 3.46049570e+04 5.48791870e+02
      9.32029119e+21 6.45318366e+14 -6.96851546e-03 7100387.
      3.12834457e-02 -2.74775695e-04 6.52276611e+03 2.77310086e-04
      -6.11582829e-04 1.05014477e+05 1.21860221e-01 -4.84353211e-03
      4.48795345e+11 8.93540332e+03 -1.57300278e-03 2.94279814e+13
      1.39618149e+02 -2.38493318e-03 1.15626811e+11 2.86185388e-02
      -2.31314800e-03 2.83859272e+10 -3.36278696e-03 -4.24313033e-03
      443529984. -4.23515216e-03 -2.12217192e-03 1.72205325e+06
      -1.67864049e-03 -3.79022933e-03 1.07615453e+05 -4.75755613e-03
      -4.75767767e-03 4.33144750e+05 -1.28443819e-03 -6.53757248e-04
      457025120. 2.09957647e+00 -1.01925072e-03 1.76444688e+06
      1.21286072e-01 -5.68234362e-03 28565374. 5.35482361e+02
      -2.23574883e-04 7100715. 8.12617207e+00 -1.79403124e-03
      1957285120. 8901476. -4.53737937e-03 2.08157055e+12 143771088.
      -6.01639680e-04 30080576. 5.27812378e+02 -2.06441246e-03
      3.10181469e+13 9.37130291e+09 -3.86680686e-03 2.01907084e+15
      1.51320642e+11 -3.86680686e-03 1.24781794e+14 3.76576860e+10
      -1.03637358e-04 3.10188368e+13 580316800. -6.85364008e-03
      7.66657587e+12 580306240. -1.00593905e-04 1.90560574e+12
      144402848. -1.11889862e-03 1.17725962e+11 35932276.
      -4.08598408e-03 4.73652658e+11 2224755. -4.08598408e-03
      3.02884618e+10 2214433. -1.47159502e-03 29408830. 5.48385688e+05
      -3.59265227e-03 7519979. 3.37838594e+04 -3.92178446e-03
      1989665280. 35439448. 2.87656542e-02 3.69839247e+16 1.06222532e+19
      151260592. 3.57749259e+13 2.30084122e+09 3.42971328e+04
      5.86373229e+14 6.55277594e+17 6.22312292e+11 9.47416206e+15
      6.28583697e+14 -1.80463050e-03 31591176. 3.36232266e+04
      -4.98488639e-03 7687586. 1.35803609e+05 1.62644123e-04 505500960.
      35272332. 2.36622899e+09 3.75377736e+16 2.50307607e+15
      5.56628812e+05 1.53007969e+17 6.52384298e+17 6.34400090e+14
      1.64090676e+20 1.69247104e+20 1.56480674e+14 2.59007954e+21
      5.94535055e+11 -4.08984302e-03 7.08732939e+00 5.07116457e-03
      -5.76409184e-05 4.40922577e+02 3.14298198e-02 -2.80950015e-04
      1.84825025e+06 8.20184231e+00 -5.69911720e-03 1.10925547e+05
      3.07135880e-02 -2.66332785e-03 2.61172981e+01 -1.31771644e-03
      -2.63243774e-03 6.85044141e+03 3.76823870e-03 -4.08931216e-03
      9.54328403e-02 -4.08931170e-03 -9.49169858e-04 1.10907570e+05
      1.25933215e-01 -1.44592160e-03 1.79573938e+06 5.05425036e-01
      -4.98768315e-03 1.03825706e+02 -3.60854738e-03 -2.74644583e-03
      6.48116260e+03 -1.58459530e-03 -2.32118135e-03 112914080.
      8.32182598e+00 -4.46596695e-03 1.10923008e+05 1.25757933e-01
      -5.28180553e-03 6.72476149e+00 8.04522800e+00 3.59631544e+10
      3.75349476e+16 572505216. -5.92364289e-04 4.46364625e+05
      3.28190918e+01 -5.45186829e-03 113600912. 2.13148877e+03
      -3.58246252e-05 2.90845307e+10 3.45960273e+04 -1.56185916e-03
      1796224128. 8.60787988e+03 -5.84644033e-03 2.90852045e+10
      5.32852783e+02 -3.06274633e-05 7.22801459e+09 5.32852417e+02
      -6.17383339e-04 7.31408179e+09 3.44328203e+04 -5.33334725e-03
      1817698816. 5.56188562e+05 -1.56915958e-05 4.76347564e+11
      583011456. -3.05688079e-03 4.76401467e+11 5.56188688e+05
      -3.79346102e-03 3.08436051e+13 580306304. -6.64094114e-04
      2.90865459e+10 8.60788379e+03 -3.79346102e-03 6848564.
      2.79449802e-02 -3.47277801e-03 3.97401306e+02 -1.28182094e-03
      -4.18137788e-04 6.24730682e+00 -4.81848652e-03 -4.94002085e-03
      1.76436438e+06 2.04882693e+00 -3.69608495e-03 6.80996387e+03
      2.78903693e-02 -3.69608495e-03 28901576. 3.31439705e+01
      -3.69608495e-03 1.05104088e+02 -3.20988987e-03 -4.89897467e-03
      1.93559509e-02 -3.10863974e-03 -1.83109497e-03 2.62561816e+04
      2.01886201e+00 -2.11947225e-03 1.60004919e+03 4.97886717e-01
      4.15667598e-22 4.00012787e+02 -1.22455205e-03 -4.49024513e-03
      1.58948596e+03 -4.98517090e-03 -4.98708896e-03 1.69084162e+06
      2.08090568e+00 -4.00045101e-04 110908696. 3.42664180e+04
      -4.85481368e-03 6.88458496e+09 1.38363625e+05 -4.95052245e-03
      1.12217637e+11 1.39682031e+05 -9.53193230e-04 2.82255380e+10
      5.40512695e+02 -4.27929830e-04 108898072. 2.07564020e+00
      -5.69819612e-03 6.80530750e+06 1.28397480e-01 -3.91933648e-03
      1.69088225e+06 2.85312273e-02 -3.35074239e-03 4.20078562e+05
      6.41186070e-03 -3.91933648e-03 1.69084112e+06 2.88582053e-02
      -5.13215177e-03 8.59293571e+18 8.73173242e+03 -2.50024348e-03
      112919336. 9.52005386e-04 -2.93627963e-04 1.01263260e+02
      -5.01047960e-03 -4.84632980e-03 6.60484424e+03 -1.74253818e-03
      -2.04687729e-03 2.57589062e+04 -1.79745862e-03 -2.39568157e-03
      6.64484180e+03 -4.84621106e-03 -5.03581762e-03 6.40312958e+00
      -3.77056445e-03 -6.61609345e-04 1.06387421e+02 -9.67079541e-04
      -8.93018907e-04 110900848. 2.73300596e-02 -3.25950305e-03
      4.17878693e+02 -3.30047356e-03 -1.22764474e-03 1.55784178e+00
      -2.94183125e-03 -3.01002571e-03 3.68752033e-01 -2.22180411e-03
      -3.67888948e-03 1.63040625e+03 -4.86088311e-03 -2.18621036e-03
      1.07633391e+05 -1.40227424e-03 -4.83479910e-03 4.17861298e+02
      -1.33278442e-03 -3.97848617e-03 1.69212866e+03 -1.90471648e-03
      -3.97848617e-03 4.10149536e+02 -3.89534514e-03 -2.56551709e-03
      4.02450562e+02 -3.97847872e-03 -4.05307999e-03 4.81808319e+02
      -9.07991780e-04 -8.41917645e-04 4.44326986e-04 -3.60682956e-03
      -4.05305484e-03 -3.60590941e-03 -4.05307999e-03 -3.69947287e-03
      5.15089883e-03 -9.41454084e-04 -1.65547023e-03 -4.40504809e-04
      -4.42532497e-03 -4.42532497e-03 -4.42532450e-03 -4.42532497e-03
      -4.42406721e-03 -4.42363787e-03 -4.42406721e-03 -4.42406721e-03
      -2.37686164e-03 -2.43041827e-03 -2.54781777e-03 4.90816250e+05
      5.16852498e-01 -3.56127461e-03 1.78408984e+03 -3.42120044e-03
      -3.56127461e-03 28728558. 2.94735879e-02 -3.56127461e-03
      7.31257037e+09 3.39434814e+01 -3.68294981e-03 1.90526246e+12
      3.10918204e-02 -3.08348052e-03 7.13976627e+09 -2.97888997e-03
      -3.68294981e-03 1.88288559e+12 -3.16498778e-03 -3.33232014e-03
      2.92516372e+10 -4.00802679e-03 -4.51375311e-03 462330912.
      9.16853533e-05 -7.35293026e-04 -1.05071301e-03 -1.20019843e-03
      -8.92295444e-04 -1.68424216e-03 -2.68757436e-03 -6.53193425e-03
      -6.53193425e-03 -9.44204454e-04 1.24718208e+14 2.01037427e+03
      -1.13003689e-03 -2.09535356e-03 137683824. -3.65204667e-03
      -3.65204667e-03 -3.65204667e-03 -3.65204667e-03 -3.65204667e-03
      -2.54111271e-03 -3.52579262e-03 -3.59265739e-03 -3.59265739e-03
      -3.45444353e-03 -3.59265739e-03 -3.59265693e-03 -3.59265739e-03
      -1.50643359e-03 -2.82761641e-03 -3.59265739e-03 -1.42199220e-03
      -4.96943761e-03 -4.96943761e-03 -4.96943761e-03 -3.40615353e-03
      -2.46141944e-03 -2.27976451e-03 -6.41363265e-04 -3.55757918e-04
      -1.33567478e-03 -6.83291955e-03 -6.83291955e-03 -1.93776714e-03
      4.75097060e-01 3.35103300e-06 -9.09291848e-05 -2.76926352e-04
      -1.14527000e-04 -3.98588926e-03 -4.36416222e-03 -4.36416222e-03
      -4.36416222e-03 -6.03701337e-04 -2.04815506e-03 -1.71230640e-03
      -2.64055608e-03 -3.47483810e-03 -3.93033959e-03 -3.93031398e-03
      -3.93033959e-03 -3.93033959e-03 -2.37234076e-03 -2.10323650e-03
      -2.76972796e-03 -2.76197400e-03 -3.53064458e-03 -3.98138398e-03
      -3.98095930e-03 -3.98138398e-03 -3.98138398e-03 -3.97968479e-03
      -3.56768398e-03 -1.83992530e-03 -9.66977270e-04 -1.81560661e-03
      -2.83635105e-03 -4.50629229e-03 -4.74651158e-03 -4.74651158e-03
      -4.74651018e-03 -3.92764778e-04 -7.94334046e-04 -6.97790005e-04
      -1.44844293e-03 -2.55937781e-03 -4.33414662e-03 -4.33456199e-03
      -4.33456199e-03 -4.33456153e-03 -2.87249568e-03 -1.65820634e-03
      -1.88770203e-03 -1.81620405e-03 -3.83841852e-03 -3.83841828e-03
      -3.83841852e-03 -3.00160283e-03 2.67516251e+01 -1.27575221e-03
      7.99922998e+03 6.50817272e+23 1.52754209e+11 -2.43248229e-04
      1.00625724e-01 -9.18865029e-04 -6.26883470e-03 7.82695219e+09
      2.46579619e+12 3.34965959e-02 1893408256. 1.91056228e-04
      -1.72438135e-03 2.70753848e+04 3.98692023e-03 -5.62093221e-03
      1.71185338e+06 2.05933237e+00 -1.06569147e-03 7.18405683e+09
      5.43100525e+02 -7.30814121e-04 7.22470751e+12 2.23385034e+03
      -2.06353539e-03 2.92513739e+13 5.39040089e-01 -5.61374007e-03
      2.85610885e+10 -1.16991415e-03 -2.47935212e-04 2.83859272e+10
      -2.17047433e-04 -6.13178767e-04 443540512. -1.32932316e-03
      -6.82710111e-03 27889712. -1.57218496e-03 -3.50210047e-03
      1.07615461e+05 -1.25924079e-03 -7.21702119e-04 1743065.
      3.26578948e-03 -4.86504519e-03 7.39863808e+09 3.39443436e+01
      -3.75403062e-04 462467392. 1.33862640e+02 -5.32924489e-04
      462446304. 2.16236597e+03 -5.87714976e-03 1839384192.
      5.30341064e+02 -4.54954198e-03 7.74324070e+09 8901148.
      -6.06511370e-04 3.16635238e+10 -6.82215346e+26 -5.69131644e-03
      4.98391646e+11 8942274. -1.42484566e-03 7.71038380e+12 580306240.
      -2.06017029e-03 3.10188368e+13 9.37113600e+09 -6.32383209e-03
      1.24779034e+14 9.37113600e+09 -4.75429511e-03 3.10188368e+13
      580306304. -4.96763969e-03 1.90560574e+12 144402848.
      -9.26752109e-03 1.90560574e+12 144402848. -7.61894183e-03
      7.66657587e+12 2.33200435e+09 -8.19840003e-03 1.90564886e+12
      8940964. -3.87218548e-03 2.99455365e+10 2214351. -4.15846799e-03
      470551808. 1.36438500e+05 -3.82796838e-03 481299712.
      5.45805250e+05 -8.96041095e-03 1989665280. 35438136.
      -7.22906506e-03 5.28585032e+11 9.28825549e+09 1.72811898e-03
      516217376. 2.19415750e+06 4.98671234e-01 8.89716421e+12
      4.05931447e+16 9.95699668e+12 2.47159301e+18 1.63096074e+17
      2.27914950e+06 2.28959526e+15 3.69825874e+10 -4.63863416e-03
      125701512. 1.35803641e+05 2.35393997e-02 31259578. 5.43255500e+05
      1.40475594e+05 2118935040. 567136064. 8.57395801e+03
      1.45895123e+14 6.22965075e+14 6.08493109e+11 3.89768024e+16
      1.00135359e+16 144515568. 5.86450404e+14 2.27928320e+09
      -1.14795985e-02 4.30778325e-01 -4.28200234e-03 -4.28792229e-03
      2.72310333e+01 -2.93505448e-03 -7.59637589e-03 2.83861016e+04
      2.58631054e-02 -7.91400392e-03 6.85027637e+03 2.67284736e-02
      -3.50205344e-03 1.05105286e+02 1.04192551e-03 -4.79746144e-03
      6.85028027e+03 -2.01368923e-04 -8.20748415e-03 2.75649727e+04
      1.20519221e-01 -2.81455345e-03 2.75656211e+04 2.05035305e+00
      -4.65767737e-03 1.10922977e+05 8.23726749e+00 -7.07598077e-03
      1.03822960e+02 -3.60487495e-03 -2.79776333e-03 4.22679406e+05
      1.26388222e-01 -6.93239598e-03 28061406. 8.31857109e+00
      -7.56715611e-03 1.10923008e+05 3.07409260e-02 -2.09310814e-03
      7.17860254e+03 8.44707227e+03 1.46612175e+11 1.43808910e+14
      1.35819094e+05 -7.15136481e-03 1860648320. 3.44328203e+04
      -5.84234484e-03 7.39998106e+09 1.38389234e+05 -3.16614937e-03
      4.70860825e+11 2.24572625e+06 -6.51009940e-03 2.90852045e+10
      3.45960195e+04 -5.07786078e-03 2.90852045e+10 5.32847290e+02
      -4.98803798e-03 7.22801459e+09 5.32848938e+02 -3.63921467e-03
      112258736. 2.13148291e+03 -8.75409879e-03 4.76336783e+11
      583011456. -4.37221536e-03 1.18402392e+11 145079136.
      -3.59674427e-03 1.91664410e+12 2.23528175e+06 -8.46544839e-03
      1.90560574e+12 35932284. -2.57895933e-03 4.70871540e+11 9025012.
      -5.43588074e-03 1.05040148e+05 -8.84884503e-03 -7.43431365e-03
      2.59252891e+04 -6.66097505e-03 -4.39583743e-03 1.01262665e+02
      1.77203328e-03 -4.45079897e-03 3.01133046e+10 3.47643359e+04
      -8.85536335e-03 6.80979785e+03 1.20822571e-01 -8.02419335e-03
      4.43722812e+05 7.60785863e-03 -5.05957636e-04 6.48543072e+00
      -5.81322191e-03 -4.38668253e-03 9.21096057e-02 -8.43730383e-03
      -7.05179246e-03 6.52292285e+03 4.99440074e-01 -4.17145621e-03
      6.44132129e+03 4.98525411e-01 -5.30743413e-03 6.48243799e+03
      -8.26891419e-03 -6.21152017e-03 2.57608164e+04 -2.91278935e-03
      -4.16739937e-03 1.69080050e+06 2.07622647e+00 -3.02187447e-03
      7.27079578e+09 35930960. -5.29180188e-03 4.48881328e+11 8981595.
      -7.74351554e-03 1.81755865e+12 5.61359875e+05 -7.23009091e-03
      1742494976. 8.32028675e+00 -5.13154035e-03 1.66995162e+06
      2.31347196e-02 -8.91560409e-03 1.04361703e+05 1.95139274e-03
      -7.42517598e-03 4.20078562e+05 7.00657442e-03 -2.36877473e-03
      1.69084112e+06 1.24744192e-01 -4.28821426e-03 6805472.
      5.07886529e-01 -7.48128863e-03 2.13634298e+18 2.27743050e+06
      -4.08014562e-03 6.60532520e+03 -4.20484738e-03 -3.27728339e-03
      1.54525793e+00 -7.07894517e-03 -8.92873202e-03 2.51511669e+01
      -4.51972336e-03 -6.03844877e-03 1.58940552e+03 -6.90528483e-04
      -5.92816272e-04 4.02501129e+02 -6.88085798e-03 -4.50847624e-03
      6.64419824e+03 -7.65912700e-03 -8.67798086e-03 115606320.
      2.06742096e+00 -3.31393001e-03 27556782. -3.65940086e-03
      -4.83810203e-03 6.40082455e+00 -9.93188750e-03 -8.80797487e-03
      1.55423748e+00 -5.63427480e-03 -4.33746073e-03 2.43500271e+01
      -2.81711505e-03 -2.05977610e-03 1.06320086e+05 -1.05484612e-02
      -7.41523365e-03 2.67445020e+04 -1.67625502e-03 -4.76851221e-03
      3.92644167e-01 -2.51636538e-03 -5.24406089e-03 2.59527054e+01
      -8.41128640e-03 -7.58472504e-03 2.53069477e+01 -6.63511967e-03
      -5.31463325e-03 9.99653473e+01 -5.92857506e-03 -5.16053895e-03
      8.06260850e+06 1.21391155e-01 -5.67162549e-03 2.03179177e-02
      -8.14964436e-03 -7.08586257e-03 -3.15170595e-03 -2.86802766e-03
      -5.52920531e-03 -8.25039204e-03 -8.68787337e-03 -7.21899047e-03
      -3.08318622e-03 -2.69482378e-03 -3.13072838e-03 -6.00972539e-03
      -6.63754251e-03 -4.28645732e-03 -5.61096147e-03 -9.64940898e-03
      -1.22792628e-02 -6.52651116e-03 -2.00980692e-03 -1.06524955e-03
      5.31258474e+11 9154445. -2.76800361e-03 1.75360559e+03
      -1.06035797e-02 -9.58561804e-03 115593192. 2.08693647e+00
      -5.71337156e-03 1.96032345e+12 5.66746125e+05 -4.10130061e-03
      4.73566839e+11 -6.09537819e-03 -8.23901407e-03 7.13942938e+09
      -7.50032300e-03 -4.99389088e-03 4.67961840e+11 -4.90577426e-03
      -2.38535274e-03 1.90517635e+12 1.22759007e-01 -9.06508043e-03
      1860145280. 1.23562463e-01 -4.62603848e-03 -7.90126680e-04
      -2.49010697e-03 -2.14122096e-03 -4.92349127e-03 -6.08091149e-03
      -7.29343714e-03 -1.03341890e-02 -1.03341956e-02 -1.62480399e-03
      -3.30206752e-03 -2.14822637e-03 -3.61837400e-03 1.52129067e+14
      -6.20450778e-03 -9.66715720e-03 -8.88247974e-03 -9.84116923e-04
      -4.83875908e-03 -4.01121797e-03 -3.77524667e-03 -1.49413955e-03
      -6.83181081e-03 -4.45633428e-03 -6.60700584e-03 -7.85408728e-03
      -9.78065375e-03 -9.45864525e-03 -3.71287554e-03 -1.47279142e-03
      -1.14662771e-03 3.97192640e-03 -4.54851519e-03 -8.14820640e-04
      -7.02387327e-03 -5.59762400e-03 -1.22060468e-02 -8.39844625e-03
      -2.04037828e-03 -4.18610056e-04 -8.48308919e-05 -1.44143458e-04
      -2.77834432e-03 4.71465439e-01 -5.40922116e-03 -6.78647729e-03
      -1.02063529e-02 -5.36578009e-03 -4.23269439e-03 -1.28072104e-03
      -2.56153359e-03 -3.19690653e-03 -7.55419722e-03 -1.24124587e-02
      -9.42376070e-03 -3.76722496e-03 -3.63680581e-03 -6.67384942e-04
      -9.81847057e-04 1.36360549e-03 -6.05362467e-03 -4.51093353e-03
      -6.89250836e-03 -5.95216639e-03 -7.01445341e-03 -2.49018078e-03
      -3.68692121e-03 -5.01827104e-03 -5.72369341e-03 -4.48504789e-03
      -2.54162401e-03 -5.09286299e-03 -7.35908095e-03 -6.57019764e-03
      -7.05379527e-03 -5.28641697e-03 -5.38012013e-03 -5.44484053e-03
      -2.28563580e-03 -4.86987829e-03 -5.18245669e-03 -6.01948285e-03
      -8.57654959e-03 -9.43847932e-03 -6.20295107e-03 -7.12711550e-03
      -1.88546884e-03 -6.21398399e-03 -7.70307519e-03 -8.20604991e-03
      -7.42504187e-03 -6.39999378e-03 -6.55639824e-03 -6.11003162e-03
      -7.34496536e-03 -7.45185371e-03 -6.21202495e-03 1.74312329e+03
      2.60592178e-02 8528074. 2.49526272e+21 8.61173242e+03
      -8.68000928e-03 1.72354504e-02 -8.13799165e-03 -5.31823514e-03
      1946379520. 3.46049805e+04 -2.45606177e-03 1.70244629e+03
      -9.27061681e-03 -7.47156423e-03 2.70740957e+04 1.20144784e-01
      -7.46248802e-03 449003488. 5.37998962e+02 -7.00458419e-03
      3.03082735e+13 8.89507812e+03 -8.10463540e-03 2.90754459e+13
      5.61018127e+02 -5.14327968e-03 7.22419476e+12 -5.96768805e-04
      -1.98020064e-03 7.05336422e+09 -7.50354724e-03 -5.57867251e-03
      2.83859272e+10 -4.54609329e-03 -1.40461733e-03 443509056.
      -4.67240950e-03 -8.74404795e-03 451614624. -1.07159717e-02
      -4.68961196e-03 2.69045039e+04 -9.47366061e-04 -6.67878776e-04
      27721926. 2.40673479e-02 -8.96413904e-03 451666944. 5.13909459e-01
      -6.95312815e-03 1.19076168e+11 1.40360422e+05 -8.23026756e-04
      7.35686502e+09 5.37999573e+02 -5.38833858e-03 4.76379939e+11
      5.56209188e+05 -3.24998656e-03 1903682176. 5.53659312e+05
      -1.82215928e-03 7.74374605e+09 8942436. -5.02289692e-03
      3.22509786e+13 145089680. -5.68150077e-03 1.17720580e+11 35930968.
      -6.01323275e-03 4.73641878e+11 35930968. -9.85477306e-03
      3.08422252e+13 9.37080013e+09 -7.00554752e-04 3.08429151e+13
      580306304. -3.16682993e-03 1.90560574e+12 144402848.
      -9.66974720e-03 1.90560574e+12 144402848. -5.54392068e-03
      1.24075347e+14 9.37113600e+09 -5.58902696e-03 1.90564886e+12
      144402848. -7.81418104e-03 1.18410469e+11 8941126. -7.84219429e-03
      465204128. 1.37091297e+05 -4.92087333e-03 1817039. 2.10108594e+03
      -6.81922585e-03 7.51981450e+06 3.39464180e+04 -6.39887061e-03
      1957411200. 1.37106672e+05 -4.80114808e-03 31085890.
      1.36469219e+05 2.45735398e-03 2107650560. 5.97325840e+11
      9.37868493e+09 9.56335135e+15 2.51455464e+15 6.14022840e+11
      9.84043446e+18 6.22932460e+14 1.42446844e+05 8.67950343e+12
      2.18346825e+06 2.12323141e+00 4.91062625e+05 2.07088477e+03
      1.34606293e+02 2016597. 2.17334950e+06 5.59260562e+05
      5.86428325e+14 2.50316358e+15 6.08493109e+11 9.69916466e+15
      1.54342183e+14 5.67145625e+05 3.45888072e+10 567125696.
      -1.05453713e-03 3.00289844e+04 3.23454056e+01 -6.55216957e-03
      1.67315853e+00 -1.07492981e-02 -5.99366101e-03 6.68748903e+00
      -1.02766126e-03 -1.85729051e-03 6.60786867e+00 2.59423051e-02
      -5.78842964e-03 6.84995312e+03 1.33227798e+02 -5.28298970e-03
      2.75656172e+04 2.88189319e-03 -1.32492022e-03 4.46292844e+05
      1.33229111e+02 -9.23804194e-03 1.70240234e+03 1.20748729e-01
      -4.83925082e-03 2.61137238e+01 3.48382490e-03 -4.64577833e-03
      4.17865662e+02 -7.87368976e-03 -7.16565317e-03 27556772.
      8.35889626e+00 -4.60801367e-03 4.30564312e+05 1.22455761e-01
      -9.81793273e-03 1.70236194e+03 -5.12314914e-03 -4.72574495e-03
      7.95748403e+09 143113056. 1.37846469e+05 524322976. 3.21864395e+01
      -8.59974790e-03 3.01153178e+10 2.23528125e+06 -4.08880180e-03
      1.18405095e+11 5.56188688e+05 -7.33995764e-03 1.17025317e+11
      5.58799812e+05 -4.31899680e-03 1796266240. 8.60787793e+03
      -5.51209506e-03 2.90845307e+10 2.14168481e+03 -7.66676432e-03
      1796266240. 1.32563049e+02 -5.26649598e-03 27896254.
      5.30297791e+02 -7.50083895e-03 2.94261043e+10 36101356.
      -7.27087865e-03 1817867264. 8.56707910e+03 -5.64205414e-03
      1.18405087e+11 5.56188688e+05 -3.91710410e-03 1.17720580e+11
      5.53546812e+05 -7.68196816e-03 7.22784461e+09 5.58799750e+05
      -3.44024575e-03 6.48292529e+03 -4.07736655e-03 -7.13142660e-03
      27389656. 2.07521033e+00 -7.78867118e-03 28064034. 8.28037739e+00
      -2.67700758e-03 1.76444675e+06 1.20227009e-01 -4.89630736e-03
      6.80931689e+03 5.02350926e-01 -8.30772147e-03 1.05119942e+02
      -5.90059301e-03 -6.17477112e-03 2.75643359e+04 -3.68232396e-03
      -2.76798569e-03 1.67152258e+03 -5.33587066e-04 -8.15180875e-03
      1.62048315e+03 2.01428461e+00 -2.86638504e-03 2.59304258e+04
      4.98437643e-01 -7.37877656e-03 2.60942617e+04 -6.18224684e-03
      -7.69839110e-03 27220572. 1.23015098e-01 -5.80566609e-03 6805145.
      3.36204567e+01 -4.17069439e-03 449056032. 1.37723609e+05
      -8.62125028e-03 2.77101384e+10 2.23487175e+06 -4.36372822e-03
      2.78826107e+10 8.64788086e+03 -6.85996283e-03 27057396.
      5.08175731e-01 -4.53056488e-03 4.14845906e+05 -3.08148540e-03
      -6.24181982e-03 1.04361703e+05 -5.12889680e-03 -7.69840786e-03
      1690800. 2.62991711e-02 -6.65212283e-03 6805472. 1.23028420e-01
      -4.92195832e-03 6805472. 5.10431886e-01 -4.66960156e-03
      4.07638000e+02 -7.50577869e-03 -7.16198888e-03 6.24073362e+00
      -7.66814360e-03 -6.31101057e-03 1.01263931e+02 -4.05475544e-03
      -6.51494041e-03 1.01261497e+02 -3.98841081e-03 -5.14380727e-03
      2.48246536e+01 -9.21411254e-03 -5.49630076e-03 27725872.
      -5.81706408e-03 -4.71781055e-03 110892944. 8.43915749e+00
      -7.37669226e-03 1796140544. 8.35891438e+00 -8.28649104e-03
      2.60891426e+04 -6.98531047e-03 -6.07220316e-03 1.58695400e+00
      -6.36121165e-03 -3.60087049e-03 2.53024712e+01 -8.27865396e-03
      -6.80796336e-03 2.57595371e+04 -1.42544112e-03 -1.88354205e-03
      6.56292334e+03 -5.43296617e-03 -8.25291220e-03 4.10156189e+02
      -6.65759062e-03 -6.13838620e-03 1.58533061e+00 -5.15545486e-03
      -4.55315597e-03 1.59794784e+00 -4.89674648e-03 -2.16818787e-03
      6.27868223e+00 -8.26405454e-03 -1.10514341e-02 9.99630814e+01
      -3.89944459e-03 -1.35504117e-03 1.17894829e+02 -1.49003346e-03
      -5.19391522e-03 1.84574246e+00 -8.16803612e-03 -1.06437886e-02
      -7.98431598e-03 -2.28013005e-03 -1.46064174e-03 -1.05631689e-03
      -3.32084857e-03 -3.61251878e-03 -2.66122469e-03 -4.95714927e-03
      -8.72259773e-03 -7.39376014e-03 -3.84262460e-03 -5.28123043e-03
      -4.71274415e-03 -5.00951987e-03 -6.15232671e-03 -3.37293372e-03
      -5.69818495e-03 -7.09615275e-03 5.23022926e+11 9070068.
      -2.47600325e-03 4.54167562e+05 -4.82348492e-03 -3.89822829e-03
      1881872000. 1.35793015e+02 -7.48006208e-03 7.88579169e+12
      2.25649925e+06 -4.28225007e-03 7.26995917e+09 -8.22657812e-03
      -7.24052591e-03 1.87180384e+12 -2.05647037e-03 -4.28326800e-03
      7.18254950e+09 -6.27016090e-03 -5.49189188e-03 1.90513322e+12
      5.24390340e-01 -6.35528564e-03 7.48386765e+09 5.28140783e-01
      -4.78490302e-03 -3.50409141e-03 -2.53263558e-03 -6.66649546e-03
      -9.23063513e-03 -7.95240980e-03 -4.33702860e-03 -2.60247220e-03
      -4.06012218e-03 -6.89067226e-03 -8.03638529e-03 -8.03638529e-03
      -9.42902640e-03 2.23515341e+09 1.34594452e+02 1.08132263e+19
      8.24678125e+03 -3.04309838e-03 -4.23059613e-03 -5.62200742e-03
      -9.42739937e-03 -9.04739462e-03 -8.28643795e-03 -4.93251253e-03
      2.89946022e+01 3.12347221e+01 -1.26389717e-03 -1.04694185e-03
      -4.00500512e-03 -5.20040700e-03 -7.60903675e-03 -8.79732985e-03
      -6.90635154e-03 -3.20998812e-03 -1.13054295e-03 -9.20142455e-04
      -6.66298531e-03 -8.81997123e-03 -1.03172651e-02 -7.18161743e-03
      -3.96016985e-03 -2.73791444e-03 -5.90558688e-04 -4.93407436e-03
      -4.07885620e-03 -4.57911985e-03 -9.09243058e-03 -9.14459396e-03
      -8.98446422e-03 -7.27877580e-03 -1.84588286e-03 -1.41415338e-03
      -1.91950088e-03 -2.58535100e-03 -1.06354589e-02 -1.06353564e-02
      -9.42118187e-03 -6.55593118e-03 -6.28426392e-03 -1.69653771e-03
      -4.36646445e-03 -5.13760326e-03 -7.64597673e-03 -5.39819570e-03
      -6.89948862e-03 -6.21780427e-03 -7.19329691e-04 -1.73920172e-03
      -5.51585155e-03 -4.12109727e-03 3.04235573e+01 -1.15966750e-02
      -9.24494304e-03 5.23699680e-04 -1.36672833e-03 -3.96339863e-04
      1.52003464e-12 -6.47729466e-05 -4.43302421e-03 -8.46506190e-03
      -8.33544601e-03 -1.85028289e-03 -2.12915055e-03 -4.23003314e-03
      -4.89063282e-03 -4.47903899e-03 -4.86152573e-03 -6.04761392e-03
      -8.79688375e-03 -8.79688375e-03 -8.10426194e-03 -5.82316145e-03
      -5.29516116e-03 -6.47259876e-03 -7.09109474e-03 -6.52393606e-03
      -7.81786721e-03 4.33144775e+02 8.24050617e+00 2.08973432e+00
      1.97461375e+06 -3.89331486e-03 -4.52412385e-03 6.97187500e+03
      -7.19616283e-03 -6.42055878e-03 29907548. 8.19915771e+00
      -8.38547386e-03 6.85011963e+03 5.05874574e-01 -8.93781800e-03
      28061400. 3.33028793e+01 -4.04009502e-03 111579784. 3.36220589e+01
      -4.63550957e-03 1.87219064e+12 5.50792786e+02 -8.79198685e-03
      1.16299024e+14 2.25436499e+03 -4.64891875e-03 1.10811070e+11
      -3.20058246e-03 -6.46702526e-03 1741782016. -8.95262510e-03
      -9.81831551e-03 1752603520. -3.50826816e-03 -5.80374477e-03
      110203544. -1.38622694e-04 -7.62170006e-04 451614624.
      -6.04464533e-03 -7.30147306e-03 2.69051426e+04 -5.80326281e-03
      -4.66238568e-03 27386380. 7.89614487e-03 -3.20787728e-03 6847252.
      4.77297523e-04 -4.17475961e-03 2.92522967e+10 1.40360406e+05
      -4.68019024e-03 1807004032. 3.32955322e+01 -7.19932374e-03
      4.76358377e+11 8983233. -5.79961063e-03 117635336. 8.52724219e+03
      -1.62451202e-03 1903682176. 2225041. -8.66563804e-03
      4.87418135e+11 3.44341094e+04 -6.59123110e-03 2.89140736e+10
      2.22463175e+06 -8.56514904e-04 2.89140736e+10 2.22463175e+06
      -8.37272312e-03 7.57844253e+12 2.33192038e+09 -5.87936165e-03
      3.04910717e+13 580285312. -5.26061514e-04 1.90560574e+12
      144402848. -5.94024267e-03 7.66657587e+12 580306240.
      -7.87358824e-03 4.99127176e+14 9.37113702e+09 -4.61248681e-03
      7.66640338e+12 2.33200435e+09 -3.25148599e-03 1.18413165e+11
      8941126. -8.08697194e-03 1871596288. 3.41070664e+04
      -5.21411560e-03 1.81703925e+06 2.10101025e+03 -1.43858278e-03
      1.83796950e+06 8.44547852e+03 -5.30295027e-03 7.74324070e+09
      35939480. -1.11465026e-02 8.08784845e+09 5.48488250e+05
      6.95165200e-03 130391248. 572515136. 2.21603025e+06 3.70008580e+13
      1.55746738e+14 3.76858747e+10 9.38391298e+15 3.85807349e+13
      1.52125899e+11 5.97756025e+17 569768576. 5.29733062e-01
      7.67268652e+03 2.07088525e+03 8.73843848e+03 532386528.
      9.16074701e+09 3.47892969e+04 9.03065633e+12 9.60137108e+12
      9.37835008e+09 9.25142037e+12 3.66463672e+10 2.55539308e+12
      2.35736984e+15 6.52350351e+17 8821846. 1.47257489e+17
      2.42194737e+12 -4.42424975e-03 1.67795277e+00 -8.78844131e-03
      -9.35086515e-03 -3.33479652e-03 -5.30675147e-03 -4.40305145e-03
      9.75354910e-02 2.79531442e-02 -3.42885917e-03 1.10912711e+05
      1.39722875e+05 -8.82485975e-03 4.46323656e+05 2.80291475e-02
      -3.94925056e-03 1.70228589e+03 2.57979706e-03 -7.27490056e-03
      1.05108429e+02 -7.15396460e-03 -7.06505543e-03 9.24448445e-02
      -4.73891385e-03 -5.27336588e-03 1.68168372e+03 -4.44015115e-03
      -8.79190210e-03 110903440. 8.36110210e+00 -4.95098438e-03
      6.60436426e+03 -1.33157941e-03 -5.91008645e-03 1.05103989e+02
      -9.22519527e-03 -4.02797200e-03 9.37637568e+18 2.53667721e+15
      3.41286697e+01 130399136. 2.10148413e+03 -7.85901397e-03
      3.01139702e+10 8983232. -4.98104235e-03 7.31441920e+09
      3.44328203e+04 -7.47679686e-03 110919200. 5.32845642e+02
      -7.47679686e-03 27560712. 1.32565079e+02 -2.37632566e-03
      2.90845307e+10 8.60788184e+03 -5.51922014e-03 1796266240.
      1.32560257e+02 -5.43871755e-03 451729824. 2.13149048e+03
      -4.43529850e-03 112256104. 3.44328125e+04 -5.30074397e-03
      27901516. 8.15921021e+00 -6.52057724e-03 1817698816.
      3.44328203e+04 -6.57412363e-03 1.17720580e+11 3.42677070e+04
      -6.63684355e-03 1.05027281e+05 3.29757309e+01 -5.77911176e-03
      6.48260449e+03 1.44878507e-03 -8.42537638e-03 2.89100431e+10
      5.43120056e+02 -4.05193167e-03 112927224. 1.33857513e+02
      -7.49365194e-03 1.08964625e+05 -7.80350948e-03 -8.71081278e-03
      4.20433868e+02 5.02552867e-01 -5.04895393e-03 3.96723658e-01
      -5.11281891e-03 -4.72932775e-03 1.79536938e+06 5.01700878e-01
      -7.48033356e-03 6.72772168e+03 -6.11555856e-03 -5.24238357e-03
      1.62048511e+03 2.01709032e+00 -5.41314343e-03 4.20150281e+05
      2.01419783e+00 -4.22656955e-03 2.60936211e+04 2.97906110e-03
      -1.94433099e-03 7.14077030e+09 3.41010628e+01 -6.03255071e-03
      27389010. 3.36146927e+01 -5.64225810e-03 6.52356250e+03
      5.01693189e-01 -4.26320685e-03 105545216. 2.13108398e+03
      -1.18480474e-02 6.55479750e+06 2.04981542e+00 -2.55744765e-03
      1.66999238e+06 1.24186710e-01 -5.67413401e-03 4.14845906e+05
      2.36845342e-03 -5.21512283e-03 1.04361703e+05 -2.03175424e-03
      -2.23987224e-03 6.80530750e+06 5.11411130e-01 -6.11325493e-03
      1.69084112e+06 2.57621296e-02 -6.10892987e-03 1.04364273e+05
      -5.42475889e-03 -7.30590383e-03 1.70525294e-02 -3.11065465e-03
      -4.64322325e-03 4.07625397e+02 2.06274462e+00 -7.21050194e-03
      1.01261520e+02 -4.26501222e-03 -7.48699438e-03 1.54506481e+00
      -7.87218008e-03 -6.74668001e-03 2.48260155e+01 -5.36015071e-03
      -5.17549273e-03 1.98507483e+15 3.39224632e-03 -1.01487348e-02
      1.15634823e+11 8.48155880e+00 -3.62772797e-03 4.20109406e+05
      -1.64411415e-03 -2.46936618e-03 9.93386154e+01 -1.01594068e-02
      -8.39558989e-03 6.39990473e+00 -7.50308856e-03 -6.26543444e-03
      1.65084448e+03 -3.98732629e-03 -1.69049646e-03 4.17426344e+05
      -5.51785203e-03 -7.29468698e-03 6.20145941e+00 -6.08751364e-03
      -4.18657716e-03 3.87630910e-01 -3.29519599e-03 -6.27626246e-03
      6.39962006e+00 -1.05893342e-02 -8.80048051e-03 3.91815782e-01
      -1.97492167e-03 -9.37186531e-04 6.28781033e+00 -1.24509563e-03
      -6.41664863e-03 9.99619598e+01 -1.00731142e-02 -8.21879413e-03
      8.44317150e+00 -4.15163580e-03 2.32460119e+24 -3.00920662e-03
      -2.93889479e-03 -7.38318032e-03 -7.90343340e-03 -6.93185767e-03
      -8.96171853e-03 -7.88128749e-03 -5.99712972e-03 -6.87729102e-04
      2.49431119e-03 -9.28834546e-04 -1.04759773e-03 -2.59432779e-03
      -5.14250202e-03 -5.31793630e-04 3.79951380e-04 5.94549440e-03
      2.15118844e-03 -4.38720779e-03 -9.64051299e-03 -9.78662260e-03
      -5.48823597e-03 2.23070756e-03 2.85765762e-03 1.62351469e-03
      -1.20313943e-03 -5.20894304e-03 -4.42736968e-03 -3.44621274e-03
      -3.40332021e-03 1.97333470e-03 3.47170234e-03 -4.20606200e-04
      -8.05159332e-04 -4.45684558e-03 -2.14230176e-03 -3.00797541e-03
      -4.24886867e-03 -6.18299469e-03 -3.31916264e-03 -7.24273361e-03
      -4.36953129e-03 1.90306309e-04 6.86380954e-04 -3.19852890e-03
      1.92753520e-04 -4.89415973e-03 -4.13341494e-03 -4.17130999e-03
      -3.99666186e-03 -4.44912445e-03 -1.17087201e-03 -4.12416179e-04
      1.52559788e-03 -3.58375278e-03 -6.89956173e-03 -7.05243926e-03
      -4.55009146e-03 -3.95410927e-03 -4.83858259e-03 -4.25092061e-04
      2.53590348e-04 2.30478146e-03 2.51088804e-03 -4.37874347e-04
      -2.92154076e-03 -4.33653267e-03 -7.66524207e-03 -9.13771894e-03
      1.30336126e-03 -8.10631085e-04 -7.08487933e-04 2.14291518e-04
      1.95723478e-04 5.01149276e-04 1.20010882e-04 -6.65833661e-03
      -6.59461692e-03 5.20523645e-05 3.66498687e-04 -1.17005827e-03
      2.05547572e-03 -1.38701638e-03 -1.03864586e-04 6.09672803e-04
      -6.41507609e-03 -8.16692691e-03 -7.32987392e-05 -1.43894949e-03
      -1.86464936e-03 -9.06107598e-05 1.20209740e-03 2.01274734e-03
      -1.86657696e-03 -6.92644389e-03 -9.87236854e-04 -2.60673347e-03
      -2.85921036e-03 -1.29519287e-03 -4.30900883e-03 -2.47772806e-03
      -4.16013924e-03 -3.03575862e-03 -4.53014066e-03 -2.99095060e-03
      -4.67716763e-03 -5.70461713e-03 -3.28604784e-03 -3.89486365e-03
      -1.37996103e-03 -8.74844438e-04 -2.04545120e-03 -4.59392508e-03
      -2.00080941e-03 -9.41434177e-04 -2.39944085e-03 -2.15473119e-03
      -1.32705190e-03 -2.83945655e-03 -4.09412943e-03 -2.88358424e-03
      -1.16784289e-03 -1.09690579e-03 -3.60173173e-04 -6.39091618e-03
      -3.63234919e-03 -6.13215612e-03 -2.12933146e-03 -2.95045320e-03
      -4.06574085e-03 -3.53623298e-03 1.30643649e-03 2.35354621e-03
      1.00690150e-03 -5.74446796e-03 -7.85687752e-03 -6.61741337e-03
      -1.51888278e-04 5.47810865e-04 -3.03379865e-03 -2.15591281e-03
      -2.49227206e-03 -2.05128361e-03 -1.51629630e-03 -4.82758461e-03
      -7.52051640e-03 -4.31564171e-03 -3.18237580e-03 -2.12738337e-03
      -6.78683631e-04 1.00017787e-04 -4.03807173e-03 -3.54852621e-03
      -4.01335652e-04 -3.76183452e-04 -1.72588800e-03 -3.01802531e-03
      -1.03330170e-03 -2.88257073e-03 -4.18746565e-03 -9.93437134e-04
      -2.44836160e-03 -4.49789409e-03 -4.49789409e-03 -4.49789409e-03
      -5.80637576e-03 -8.07668723e-04 -2.21486483e-03 -1.91086228e-03
      -3.57178203e-03 -4.97827725e-03 -3.19571258e-03 -2.96406960e-03
      -3.30256647e-03 -2.52119103e-03 -2.28454708e-03 -3.09543638e-03
      -3.27028730e-03 -6.36425917e-04 -3.48383281e-03 -7.23425532e-03
      -6.66190544e-03 -3.66678159e-03 -2.68782326e-03 3.56612814e-04
      -2.04711780e-03 -3.50965909e-03 -3.49971978e-03 -8.97797197e-03
      -9.74408723e-03 2.02691485e-03 2.51499959e-03 3.00610292e-04
      -3.79915349e-04 -4.55734233e-04 -8.03502509e-04 -3.35971289e-03
      -5.40182786e-03 -4.54229070e-03 -3.78545024e-03 -4.24442906e-03
      -7.66411133e-04 1.71041043e-04 -4.38700244e-03 -5.46971476e-03
      -3.60883283e-03 -1.59752439e-03 -9.72690817e-04 -7.40364951e-04
      -2.55604484e-03 -4.15629288e-03 -6.46165200e-03 -3.84047837e-03
      -1.12905866e-03 -2.64272979e-03 -1.65149895e-03 -1.63087295e-03
      -6.42649550e-03 -5.04104793e-03 -4.68587363e-03 -2.94427807e-03
      1.64456200e-04 -6.03620429e-03 -4.78805183e-03 -4.62706108e-03
      -4.82019922e-03 -4.67671460e-04 1.62057950e-05 -6.49927533e-04
      -2.62281531e-03 -2.29459559e-03 -4.30126907e-03 -8.21322959e-04
      -4.78998292e-03 -4.64111287e-03 -9.13508527e-04 -3.30028986e-03
      -1.07412587e-03 -2.84299767e-03 -2.37910659e-04 -4.06863110e-04
      -2.85842310e-04 -5.13352407e-03 -6.07392238e-03 -5.37884003e-03
      1.54590840e-03 -2.67042685e-03 -1.57940120e-03 -2.63397419e-03
      -3.44254961e-03 -1.23315607e-03 3.87093122e-03 -2.93019111e-03
      -6.09496515e-03 -5.63119911e-03 -3.53367999e-03 -2.18797941e-04
      -4.50100796e-03 -5.99583192e-03 -2.92624929e-03 1.77029593e-04
      -7.49045238e-03 8.14575687e-05 -5.09227975e-04 -8.32743477e-04
      -1.65746745e-03 -6.01009978e-03 -3.98887927e-03 -2.45975563e-03
      -2.07258412e-03 -8.08305340e-04 -2.94146535e-04 6.56964621e-05
      -8.53617210e-04 -4.11272142e-03 -2.68087350e-03 -5.49487956e-03
      -4.40617371e-03 -2.18169298e-03 -3.14263813e-03 1.37429987e-03
      -1.63204517e-04 2.13382096e-04 -8.88742413e-03 -3.58521962e-03
      -4.49160906e-03 -1.83780456e-03 -4.14131209e-03 -5.95905539e-03
      -2.89201923e-03 -3.33012245e-03 9.73427494e-04 1.47495372e-03
      -4.37675416e-03 -4.42910008e-03 -2.97221611e-03 -5.24288695e-03
      -2.80943059e-04 -1.89391803e-03 -1.47445512e-03 -1.12525583e-03
      -1.98687380e-03 -5.90275275e-03 -5.63098211e-03 -4.11750982e-03
      -4.43555036e-04 -6.74597220e-04 -3.03451857e-03 -4.50760417e-04
      -6.69156550e-04 -5.66943455e-03 -5.40966308e-03 -5.65148704e-03
      -1.16160582e-03 -4.38258471e-03 -4.85574501e-03 -7.71786971e-03
      -3.20318318e-03 -2.15660385e-03 3.71455518e-03 -7.30813190e-04
      -2.79147341e-03 -4.10893047e-03 -5.11879940e-03 -5.25364047e-03
      -5.30535029e-03 -2.93973996e-03 3.75339238e-04 2.05891579e-03
      -5.23464242e-03 -7.85480533e-03 -6.10944396e-03 -4.47496027e-03
      -3.22810397e-03 -6.48103654e-03 -2.20609014e-03 -1.57884241e-03
      -1.70855457e-03 -5.53436670e-03 -3.01781017e-03 -3.68451700e-03
      -3.91920935e-03 -2.64272722e-03 -4.05137707e-03 -2.62874993e-03
      -1.12337130e-03 -4.44118120e-03 -1.08979538e-03 -4.31602122e-03
      -6.99927332e-04 -8.45989562e-05 -4.57403855e-03 -2.53985240e-03
      -4.46916092e-03 -4.45501879e-03 -6.86151162e-03 -6.38417760e-03
      -6.84752408e-03 -3.59359803e-03 -1.65051816e-03 6.79184508e-04
      3.74098570e-04 -3.31962970e-03 -5.09518385e-03 -3.93415382e-03
      -5.66112110e-03 -3.20270332e-03 -3.47162993e-03 -7.45552010e-04
      -1.65854534e-03 -1.35311927e-03 -3.31726996e-03 -4.58545331e-03
      -6.32009003e-03 -3.10229696e-03 -7.03659782e-04 -3.91147425e-03
      -1.89773901e-03 -4.29932610e-04 3.63090192e-04 -3.82512994e-03
      -7.52877351e-03 -5.75346779e-03 -5.23064053e-04 4.67499718e-04
      7.52015985e-05 1.34341372e-03 -6.25408441e-03 -7.67507590e-03
      -7.67507590e-03 -2.20142910e-03 -3.02933529e-03 -6.48745056e-03
      -6.09076209e-03 -2.83016008e-03 -1.90138048e-03 -1.14502735e-03
      5.13662177e-04 1.70371422e-04 -4.87297401e-03 -3.42464820e-03
      -1.13380444e-03 -1.24015647e-03 3.14813177e-03 4.18106513e-03
      4.53433022e-04 -6.19390002e-03 -8.18927959e-03 -7.11450772e-03
      -5.85152069e-03 -2.35131499e-03 2.00784625e-03 1.54217333e-03
      -8.21516500e-04 -4.09377692e-03 -6.22496288e-03 -8.58866703e-03
      -2.93468731e-03 3.39840795e-03 5.15125459e-04 -1.39040756e-03
      -5.30876406e-03 -2.55480502e-03 -5.18971169e-03 -8.97073653e-03
      -2.74595199e-03 -3.51720280e-03 -1.30683195e-03 -1.33487990e-03
      -2.05039140e-03 -3.40290787e-03 -3.93029815e-03 -3.51117179e-03
      -5.07222861e-03 -3.19472980e-03 -2.63984478e-03 -3.16558103e-03
      -4.61152662e-03 -4.61152662e-03 -4.97617875e-04 -2.65144254e-03
      -7.13203277e-04 -2.91045080e-03 -2.63730134e-03 -2.97547970e-03
      -7.77209084e-03 -3.30683892e-03 1.18804839e-03 -1.21371413e-03
      -1.49036350e-03 -1.39932940e-03 -1.42987387e-03 -2.30981945e-03
      -8.08103662e-03 -7.04506785e-03 -4.94166417e-03 -2.31516338e-03
      -2.27907649e-03 -1.93369272e-03 -1.39747187e-03 1.17327494e-03
      4.00141173e-04 -3.01190279e-03 -3.32772196e-03 -1.66933180e-03
      -3.42601980e-03 -4.79335524e-03 -4.40227287e-03 -7.69935735e-03
      -2.91175180e-04 1.87992246e-03 -1.23681757e-03 -1.64560042e-03
      -2.53270473e-03 -1.01520203e-03 -3.33871483e-03 -4.69174329e-03
      -5.56877768e-03 5.87988063e-04 1.83188042e-03 -1.77112781e-03
      -1.13440573e-03 -3.90266621e-04 -2.80890428e-03 -6.18618727e-03
      -6.28836779e-03 -3.42243095e-03 -8.85947840e-04 -1.53588410e-03
      -1.49804773e-03 -6.26735575e-03 -3.22930352e-03 -4.36962955e-03
      -4.38980618e-03 -3.59511026e-03 -1.98261091e-03 -3.08159413e-03
      -2.64223223e-03 -2.87215202e-03 -4.93540755e-03 -4.85873409e-03
      -1.89138053e-04 -3.19928949e-04 -7.06425402e-04 3.43718391e-04
      -2.69315555e-03 -2.26082141e-03 -4.22097929e-03 -3.76868085e-03
      -4.53499192e-03 -5.65734180e-03 -4.09734715e-03 -3.18635092e-03
      5.11073740e-04 1.34555565e-03 -4.71785082e-04 -3.81744094e-03
      -4.71730996e-03 -4.59046895e-03 -5.03615895e-03 -4.39549424e-03
      -4.28960891e-03 9.00153827e-04 2.80447281e-03 3.63923586e-03
      1.86025247e-03 -2.29744473e-03 2.50976067e-03 -3.24842590e-03
      -6.72420813e-03 -7.85739347e-03 -7.23407697e-03 -3.12073738e-03
      -8.69663141e-04 -2.01207958e-03 1.21432488e-04 -2.14661262e-03
      -1.41121622e-03 -4.50929673e-03 -3.96677852e-03 -3.96677852e-03
      -3.96677852e-03 -4.05950285e-03 -2.30585341e-03 7.33202090e-04
      7.82871968e-04 -2.06273305e-03 -8.52531521e-04 -1.30567444e-03
      -4.83470224e-03 -7.09636696e-03 -8.15114845e-03 -3.47431842e-03
      -3.75687639e-04 -3.18079605e-04 -2.02129013e-03 -3.29371658e-04
      -3.54107982e-03 -3.54107982e-03 -1.33227499e-03 -3.83794610e-03
      -2.81387381e-03 -1.63171964e-03 -4.45042038e-03 -5.59668615e-03
      -4.03015688e-03 -4.19068523e-03 -4.92042303e-03 1.47780334e-03
      -1.31260231e-03 -2.28341389e-03 -3.20184440e-03 2.72194215e-04
      -4.64762375e-03 -5.06798783e-03 -6.75047375e-03 -6.15652464e-03
      -1.90098095e-03 1.48118858e-03 1.15546631e-03 -1.12772337e-03
      -4.51260479e-03 -4.51260479e-03 -2.64247064e-03 -4.26325295e-03
      -6.13066368e-03 -4.02612379e-03 -8.84202658e-04 -1.35353138e-03
      -5.63586829e-03 -9.34115704e-03 -7.30172032e-03 -6.32769370e-04
      4.12035501e-03 1.69395143e-03 3.50767368e-04 -6.78570988e-03
      -4.69541829e-03 -8.65386706e-03 -8.90176557e-03 -8.61859135e-03
      -4.25973581e-03 -3.99980834e-03 -1.04226463e-03 4.56574792e-03
      1.57868932e-03 -3.62388836e-03 -5.87493787e-03 -4.77798237e-03
      -3.21692624e-03 -1.53096020e-03 -3.58106825e-03 -4.32593748e-03
      -2.80284439e-03 -1.27303938e-03 -1.40220416e-03 -2.38412432e-03
      -3.18823638e-03 -4.21694433e-03 -4.54666559e-03 -6.09981408e-03
      -3.49036534e-03 -2.93600862e-03 -3.41871660e-03 -2.17165821e-03
      -4.76860022e-03 -1.90285337e-03 -2.32071383e-03 1.94280979e-03
      -5.85687626e-03 -5.54361241e-03 -1.91813498e-03 1.45111547e-03
      1.22846523e-03 2.11973186e-03 -4.20790492e-03 -6.64766273e-03
      -4.70547285e-03 -3.90224915e-04 -4.04458866e-03 -4.57008695e-03
      -3.14565958e-04 -2.76879757e-03 -1.90560217e-03 -3.78551614e-03
      -2.15645647e-03 -2.60103983e-03 -4.51073097e-03 -5.23385499e-03
      -3.87645233e-03 -3.07094143e-03 -2.64966191e-04 -3.53949913e-03
      -5.21419011e-03 -2.46081501e-03 -1.56246510e-03 -1.08980830e-03
      -4.87749960e-04 5.06295881e-04 -2.50979164e-03 -3.78545257e-03
      -5.68861281e-03 -6.31158520e-03 -4.21871315e-04 -1.12741976e-03
      -7.52059801e-04 -9.93446680e-04 1.15061703e-03 -1.23668608e-04
      -1.66748883e-03 -9.77215357e-03 -5.14416816e-03 -2.52757850e-03
      -4.33045626e-03 -2.98511679e-03 -1.30698842e-03 1.36205298e-03
      -1.35889160e-03 -2.94108380e-04 -5.45360753e-03 -4.74245404e-04
      -1.29305781e-03 -2.65179039e-03 -6.36723125e-03 -8.71531107e-03
      -9.30603873e-03 -9.22603300e-04 3.77359288e-03 3.10473866e-03
      1.28161919e-03 2.35845847e-03 -3.26721370e-03 2.69422471e-03
      -1.93140504e-03 -2.16807728e-03 -2.39592884e-03 -1.67667400e-03
      -4.25378093e-03 -1.90311926e-03 -4.29758243e-03 -4.83902963e-03
      -2.66634650e-03 -4.90079308e-03 -7.88033474e-03 -3.51182278e-03
      -3.59908724e-03 -8.62168497e-04 -7.34271540e-04 -3.42442980e-03
      -1.91615499e-03 -4.06492129e-03 -3.68454633e-03 -5.15515858e-04
      -4.69729444e-03 -3.41261621e-03 2.97623337e-03 -2.62272591e-03
      -5.97651256e-03 -6.21385826e-03 -5.08529646e-03 -5.35130268e-03
      -5.15716337e-03 -2.86269654e-03 -2.80429027e-03 1.43409357e-03
      1.57930877e-03 -2.53560557e-03 -3.69114522e-03 1.38246978e-03
      -5.01400884e-03 -7.20493402e-03 -4.02222760e-03 -3.97194782e-03
      -5.85545599e-03 -3.20803770e-03 -5.31522324e-03 -2.81988410e-03
      -3.15262424e-03 -9.62918974e-04 -7.69624952e-04 -1.72834727e-03
      -4.09534760e-03 -3.30351596e-03 -7.22170062e-03 -3.45427566e-03
      -4.52808570e-03 1.58573694e-05 2.98678456e-03 2.25289632e-03
      -1.86283467e-03 -4.00230568e-03 -6.90738857e-03 -7.34816957e-03
      -7.81935989e-04 2.96591502e-03 3.41225043e-03 -9.59273966e-05
      -4.46149893e-03 -3.91261606e-03 -3.87346093e-03 -7.58222351e-03
      -7.78196892e-03 1.42482703e-03 9.91103007e-04 2.90443219e-04
      3.19267070e-04 -2.61914940e-03 -5.81068802e-04 -2.02913256e-03
      -7.18843238e-03 -5.19152870e-03 -8.99202598e-04 -4.85456578e-04
      3.17466771e-03 9.40217171e-04 -1.92994263e-03 -5.27051371e-03
      -7.13111367e-03 -5.65310940e-03 -3.20374896e-03 -2.27938546e-03
      -3.26279970e-03 -1.99626526e-03 -1.99626526e-03 -3.20769963e-03
      -4.83127125e-03 -6.18309481e-03 -4.24119039e-03 -1.29817904e-03
      -2.79237796e-03 3.81998648e-03 1.71655009e-03 -6.70897728e-03
      -9.05071851e-03 -9.05071851e-03 -4.14003432e-03 -2.44342256e-03
      -2.40459922e-03 -2.93391268e-03 2.55093997e-04 8.59918131e-04
      -3.75618390e-03 -5.31425234e-03 -7.00105168e-03 -3.25283781e-03
      2.23333645e-03 1.83364085e-03 3.00044456e-04 -3.04205925e-03
      -2.80651846e-03 -9.14173014e-03 -7.86539260e-03 -4.89636883e-03
      9.87871666e-04 -3.33860563e-03 -5.60340984e-03 -1.20205572e-03
      7.59122253e-04 -7.09214364e-04 -4.87523898e-03 -3.56280734e-03
      -1.51711190e-03 -3.05663166e-03 -3.87272239e-03 -2.21525156e-03
      -4.94338106e-03 -3.22146108e-03 -4.49432991e-03 -5.58828376e-03
      -7.42758764e-03 -1.66364317e-03 -2.82991375e-03 1.21148070e-03
      -2.15887022e-03 -4.65827202e-03 -2.36890977e-03 -4.18294547e-03
      -4.62471647e-03 -2.25449516e-03 -1.03659532e-03 -3.11212754e-03
      -5.01982076e-03 -2.62677157e-03 -1.88591366e-03 -1.11241592e-03
      -5.06608281e-03 -1.23433024e-03 -5.18328627e-04 -3.35799064e-03
      -1.73143786e-03 -2.76612514e-03 -7.23936968e-03 -2.83397757e-03
      -8.76924547e-04 -1.30072667e-03 7.63039512e-04 1.65096938e-03
      -1.46206806e-03 1.94232073e-03 -5.16278530e-03 -5.22096967e-03
      -3.73257347e-03 -2.01920979e-03 -2.86566163e-03 7.07264815e-04
      3.12979729e-03 1.56877527e-03 2.05514813e-03 -4.25214274e-03
      -2.28942081e-04 -3.94412037e-03 -5.40164532e-03 -4.68242541e-03
      -4.68242541e-03 -6.68273424e-04 -5.79296146e-04 -1.18899124e-03
      -2.03069809e-04 -4.23895940e-03 -4.96887276e-03 -4.96887276e-03
      -3.86734749e-03 -3.86734749e-03 -3.48740001e-03 -1.84593897e-04
      -1.78726285e-03 -6.70487713e-03 -3.54192732e-03 -7.28301238e-04
      -2.91860127e-03 -4.08503693e-03 -4.08503693e-03 2.99548730e-04
      -2.57524452e-03 -3.06796352e-03 -1.63471338e-03 -1.63709163e-03
      -4.69028158e-03 -6.65108440e-03 -6.48156879e-03 -2.80048558e-03
      -7.88602163e-04 1.25802704e-03 1.77886977e-04 1.00543446e-04
      9.34152224e-04 -1.73852185e-03 -8.44256766e-03 -8.85969214e-03
      -2.87355995e-03 2.46353983e-03 1.52576377e-03 8.12204555e-04
      2.00173119e-03 2.56974157e-03 -6.70622743e-04 -1.11135952e-02
      -1.03902426e-02 7.51759741e-04 2.91698403e-03 3.28749162e-03
      3.54864076e-03 -6.60288963e-04 -1.45659386e-03 -1.38405629e-03
      -6.31038472e-03 -6.08096877e-03 -1.69630256e-03 1.01672043e-03
      -2.02063029e-03 -3.11157829e-03 9.10322706e-04 -1.97637640e-03
      -8.13510735e-04 -6.67777471e-03 -5.74619370e-03 6.82120898e+26
      -2.95310700e-03 -1.49210027e-04 -3.05702386e-04 -2.64898292e-03
      -3.88289639e-03 -2.91876798e-03 -5.74635807e-03 -5.24128601e-03
      -2.97151110e-03 4.48440900e-04 -2.43562530e-03 -2.91834213e-03
      3.85950203e-04 -4.03549150e-03 -8.28759465e-03 -9.02025029e-03
      -6.12354744e-03 -3.34631256e-03 -1.46964344e-03 2.28108582e-03
      1.65405357e-03 -1.84884077e-04 -4.35171882e-03 -4.97847563e-03
      -4.06165700e-03 -4.56679659e-03 -5.67536475e-03 -3.19756800e-04
      -2.01533083e-03 1.50185148e-03 -1.66975369e-03 -3.13977920e-03
      -5.15182456e-03 -4.73483512e-03 -3.11568123e-03 -1.97661831e-03
      -1.17866124e-03 -4.56999522e-03 -2.58188206e-03 -7.33311940e-03
      -5.85770514e-03 -7.25661172e-03 -9.21122730e-03 5.66730800e-04
      -4.97304485e-04 7.52009626e-04 -4.86675621e-04 -1.01957296e-03
      -2.32037157e-03 -7.70485541e-03 -6.10733964e-03 -6.13611704e-03
      -3.20536434e-03 -7.93942891e-04 4.00190802e-05 -3.18103092e-04
      -9.35176795e-04 -4.60880622e-03 -3.85358837e-03 -3.20053939e-03
      -4.56842594e-03 -3.88573715e-03 -2.83674337e-03 -4.05964092e-04
      -2.02492171e-04 -5.33658359e-03 -2.57985038e-03 -2.59666005e-04
      -3.99014633e-03 -3.86950560e-03 -3.86620732e-03 -5.69540681e-03
      -7.93017913e-04 -1.26162684e-03 -5.76434517e-03 -3.82015342e-03
      -1.03102205e-03 -2.91212252e-03 -2.74272007e-03 -4.98372968e-03
      -7.71517633e-03 -3.13872495e-03 2.36475933e-03 1.99061446e-03
      -1.89433526e-03 -1.92960841e-03 -1.39453728e-03 -1.21010991e-03
      -3.19599523e-03 -3.17446142e-03 -7.38009205e-03 -3.19033791e-03
      -9.88737913e-04 -8.33637139e-04 -3.10655567e-03 -4.15495643e-03
      -3.28346668e-03 -1.58357935e-03 6.63709303e-04 -3.50436167e-04
      -1.46752398e-03 -5.03607513e-03 -2.06803950e-03 -5.21179521e-03
      -2.21710303e-03 -3.99536593e-03 -4.04705992e-03 -2.66205170e-03
      -2.28421981e-04 4.29190695e-05 -3.28822224e-03 -5.42875426e-03
      -2.52233120e-03 -2.28764722e-03 -5.19431662e-03 1.86524238e-04
      -3.21389688e-03 -2.93405447e-03 -1.50431137e-04 2.43104252e-04
      -3.37627367e-03 -1.32407760e-03 -2.70338287e-03 -2.11298745e-03
      -7.62427133e-03 -5.37026441e-03 -7.73478579e-03 -4.89765918e-03
      -1.17887255e-04 1.09151984e-03 2.79619599e-05 -6.02664601e-04
      -2.71399482e-03 -2.13015615e-03 -5.43060154e-03 -3.85837490e-03
      -5.22479997e-04 3.69556539e-04 -1.23913953e-04 -3.16630490e-03
      -3.98031762e-03 -6.91205077e-03 -4.08296194e-03 -4.69053164e-03
      -7.05674698e-04 -1.09596748e-03 -2.32844497e-04 -2.34137624e-04
      -1.38573733e-03 -4.17953311e-03 -3.75593454e-03 -4.92438255e-03
      -4.54106880e-03 -2.69932719e-03 1.42993929e-03 2.81846570e-03
      -3.85173247e-04 -1.92115817e-03 -4.70776903e-03 -3.03962710e-03
      -7.75699737e-04 -2.35784822e-03 -5.43439901e-03 -5.81168989e-03
      -2.39962270e-03 -4.05413751e-03 -3.69362388e-04 4.79223585e-04
      -2.65122927e-03 -2.73944950e-03 -5.01682982e-03 -4.98367986e-03
      -7.28240563e-03 -4.25308617e-03 1.06227223e-03 2.08444777e-03
      1.82750961e-03 -4.28032223e-03 -1.86312501e-03 -2.83418200e-03
      -6.62666559e-03 -7.63329351e-03 -4.03042184e-03 3.39615131e+36
      3.39615131e+36 3.39615131e+36 3.39615131e+36 -1.84816308e-03
      -7.04455888e-04 2.16374476e-03 -3.73648317e-03 -2.49184645e-03
      -3.07326438e-03 -6.52571907e-03 -6.31736265e-03 3.39615131e+36
      3.39615131e+36 3.39615131e+36 3.39615131e+36 9.49658424e-05
      -3.10757081e-03 -4.54333052e-03 -5.50078740e-03 3.39615131e+36
      3.39615131e+36 3.39615131e+36 3.39615131e+36 4.14532959e-04
      1.18284952e-03 -8.14320333e-03 -7.32468627e-03 -6.57017902e-03
      -1.59993325e-03 1.98499369e-03 -6.52316434e-04 -2.86463997e-03
      -3.65759991e-03 -1.52006943e-03 -4.88977041e-03 -3.82229593e-03
      -1.38894736e-03 -2.39282288e-03 -3.42772622e-03 1.35197234e-03
      -2.94291927e-03 -4.48549259e-03 -6.77732471e-03 -4.55369800e-03
      -7.06477277e-03 -4.07231506e-03 -2.10334244e-03 4.59543988e-03
      1.64024928e-03 1.28380454e-03 -2.58170930e-03 -3.54008609e-03
      -5.43732848e-03 -8.63802992e-03 -1.03156017e-02 -3.12689110e-03
      2.97530415e-03 1.75147876e-03 -2.01380928e-03 -4.95468220e-03
      -2.73416471e-03 -1.91443146e-03 -5.06419735e-03 3.39615131e+36
      3.39615131e+36 3.39615131e+36 3.39615131e+36 -2.37179454e-04
      -2.81274901e-03 -1.41817937e-03 -2.22426560e-03 -4.11277544e-03
      -4.67899628e-03 4.62062366e-04 -3.92708171e-04 3.39615131e+36
      3.39615131e+36 3.39615131e+36 3.39615131e+36 -8.30169942e-04
      -5.24938619e-03 -3.54645681e-03 1.81957730e-03 3.39615131e+36
      3.39615131e+36 3.39615131e+36 3.39615131e+36 2.45500181e-04
      -6.94973394e-04 -4.50550951e-03 -2.12113094e-03 1.28071383e-03
      -5.36611490e-03 -3.82335624e-03 3.27877863e-03 3.59486276e-03
      2.68339203e-03 -2.14121747e-03 -3.13997082e-03 -3.89826228e-03
      -1.10321085e-03 -4.64946032e-03 -2.95702321e-03 3.32467258e-03
      -1.29110223e-04 8.31377460e-04 -7.35891110e-04 -4.17454075e-03
      -3.01568769e-03 -2.52612936e-03 -3.27690924e-03 -2.95657339e-03
      3.75348399e-03 4.05833777e-03 3.88633367e-03 -3.84906610e-03
      -3.51801259e-03 -4.33878927e-03 -2.96466053e-04 -3.10429977e-03
      -2.40710354e-03 1.19581725e-03 1.67078327e-03 2.15056119e-03
      1.54108170e-03 -5.57462405e-03 -5.83302043e-03 -5.93544357e-03
      -3.97942821e-03 -1.99728576e-03 4.34859516e-03 4.86264005e-03
      1.74730271e-03 8.44574752e-05 -1.30139291e-03 3.14625417e-04
      -6.69104455e-04 -4.33583651e-03 -6.50162715e-03 -3.16731911e-03
      -2.69930111e-03 -2.50308402e-03 5.08027209e-04 -1.32566562e-03
      -1.87805551e-03 2.11358583e-03 -3.39339091e-03 -3.50844301e-03
      1.93369365e-03 5.89487492e-04 -1.27263356e-03 -1.91086379e-03
      -5.36369998e-03 -1.44471193e-03 2.91206478e-03 -3.08189215e-03
      -2.54990044e-03 1.92622247e-03 3.44621367e-04 2.18489397e-04
      -4.07186989e-03 -2.62788590e-03 -1.92235573e-03 -1.32183498e-03
      -6.80586323e-03 -6.81964355e-03 -1.28392829e-03 -1.10608165e-03
      2.18222849e-03 -4.63452197e-05 -1.57731571e-04 -1.71119580e-03
      -1.86339219e-03 -7.56376144e-03 -6.92010717e-03 -3.83130228e-03
      -1.13011898e-04 1.52916403e-03 7.83056894e-04 -3.41246574e-04
      2.31568515e-03 -3.74554866e-03 -8.66162311e-03 -8.87929369e-03
      -6.04884641e-04 1.82277057e-03 2.83458503e-03 9.42273589e-04
      3.57117341e-03 -2.16039087e-04 -1.22085260e-03 -6.87200716e-03
      -5.97178424e-03 -4.59110690e-03 -1.34034036e-03 -1.38662767e-03
      -2.27799453e-03 -9.43693507e-04 -1.11669418e-03 -2.85384525e-03
      -6.44450495e-03 -7.65209086e-03 -2.61540595e-03 2.57190410e-03
      1.29535748e-03 1.36915746e-03 -1.37129356e-03 -1.53664115e-03
      -1.41500158e-03 -6.62440993e-03 -7.02393660e-03 -6.49242866e-05
      1.20414619e-03 -6.79210178e-04 -5.04073338e-04 6.58175733e-04
      1.60707661e-03 -1.61251344e-03 -8.88136961e-03 -8.76843929e-03
      -1.25658489e-03 5.55436651e-04 2.46746815e-03 5.64222034e+11
      3.32145905e-03 -1.42710865e-03 -2.50361557e-03 6.82177567e+26
      -8.57002102e-03 6.82177567e+26 -1.18305965e-03 1.75054953e-03
      1.81169575e-03 -1.30138178e-05 2.37551657e-03 137762800.
      9.24832461e+09 3.56236288e+10 1.44521200e+11 5.97411889e+11
      2.43596157e+15 34609800. 8.20340137e+03 5.83538901e+11
      3.66490460e+10 136430976. 4.15637737e+19 1.93664533e+29 9579623.
      2.11096875e+06 9.55841511e+12 37644772. 1.09224231e-03
      9.55840568e+12 35623612. 3.75279311e+13 1.04857026e+19
      2.59411676e+15 2.32406594e+12 1.54347619e+14 1.50053650e+11
      3.75320666e+13 1.00138848e+16 2.46708778e+12 2.21569792e+09
      3.84102826e+13 139799568. 3.75286189e+13 2.26892314e+09
      2.15278750e+06 551134848. -4.05145623e-03 1.25343359e+05 8568554.
      4.44679392e+22 1.53508512e+11 5.05159912e+02 3.69939415e+10
      2.22609792e+09 2.45803877e+15 6.25889813e+14 6.11816145e+14
      4.15702872e+19 9.55877163e+12 9.92434228e+15 9.87948564e+15
      6.20238442e+14 2.41189703e+12 3.61370132e+10 6.49591607e+17
      1.48673888e+11 9.87807259e+15 1.00142392e+16 9.83391711e+15
      1.74817200e+23 2.49217088e+15 1.01051915e+16 2.67258182e+21
      2.85799470e+24 9369085. 5.30343062e+05 9.11913677e+09
      8.99029094e+09 5.89133382e+11 5.89165756e+11 141144416. 561872256.
      1.35849766e+05 8695858. 548440128. 6.00149721e+11 1.10936678e+25
      7.25517971e+26 6.28683354e+14 6.06652375e+05 4.97408203e+02
      2.64452558e+18 1.45083797e+05 4.10067611e+19 2.45839230e+15
      9.51461190e+12 8.20661133e+03 8568716. 9.47168708e+15
      3.63141939e+10 3.78825301e+13 1.45216373e+11 9.92345966e+15
      3.61323315e+10 3.40619510e+10 1.24402734e+31 5.27620812e+05
      -3.22535774e-03 -2.09000558e-04 -2.74053565e-03 -3.60778649e-03
      -6.45355834e-03 -7.46284984e-03 -6.05243072e-03 -1.01266068e-03
      1.01244124e-03 1.53992977e-03 1.77993890e-04 -6.18082983e-03
      -3.07895523e-03 -2.24237517e-03 1.53061701e-03 -1.80578383e-03
      -1.72540487e-03 -3.36985593e-03 -3.89381032e-03 -5.24403295e-04
      -1.83276879e-03 -1.34245353e-03 -3.36917932e-03 -2.28953664e-03
      -2.82339426e-03 -4.10610158e-03 -2.32267985e-03 -2.35979259e-03
      -2.00599665e-03 2.97923982e-02 -4.00499301e-03 -6.84178900e-04
      -1.98481302e-03 -8.01042188e-03 -6.42429013e-03 -2.03536195e-03
      -3.58880032e-03 -2.09511491e-03 -4.20264993e-03 -2.74728169e-03
      4.45710408e-04 6.82152284e-04 -1.71568617e-03 -5.71332546e-03
      -4.95520653e-03 -5.19326562e-03 1.21493172e-03 3.31130670e-03
      1.90326315e-03 -3.28622735e-03 -4.12073918e-03 -8.01935047e-03
      -9.56472941e-03 -9.29958560e-03 -1.64506596e-03 -4.37008357e-03
      5.25052135e-04 -4.13271628e-04 -4.38178983e-03 -3.98633257e-03
      -5.14683034e-03 -2.40671984e-03 -1.84805307e-03 -6.04393776e-04
      -1.37930154e-03 1.24479341e-03 -1.83636695e-03 3.77097429e-04
      4.81648207e-01 -1.99707225e-03 -3.97700397e-03 -6.12337096e-03
      -4.33929916e-03 -6.88304892e-03 -4.67772625e-04 -1.64316298e-04
      -7.94657215e-04 1.01956702e-03 -1.68663973e-03 -1.82437408e-03
      -2.02624383e-03 -6.34495355e-03 -7.71704409e-03 -1.04754092e-03
      -1.77372101e-04 3.15147033e-03 1.11639418e-03 -2.31790938e-03
      -2.41152546e-03 -4.56811627e-03 -7.83955771e-03 2.99448414e+01
      9.92169013e+15 1.02212231e+13 3.93660699e+19 6.17303100e+14
      -1.61001855e-03 5.50510330e+11 3.95052509e+16 4.04427203e+10
      4.24396401e+25 9.42357663e+12 564545472. 1.61133376e+20 140447312.
      5.91991381e+14 9.34007118e+12 546031. 2.32315546e+09
      1.56608011e+17 5.94620645e+11 153276576. 133778240. 5.86298556e+11
      1.29978985e-01 8.23349950e+06 2.57481214e+18 1.42301620e+02
      9.03030925e+12 2.12273584e+03 3.64826214e+10 3.95080684e+16
      1.58589000e+14 3.66517577e+13 6.37950184e+17 6.66941969e+17
      9.20689152e+09 1.44523870e+11 8947352. 8527923. 8.94599987e+09
      -1.87277619e-03 4.17596407e+19 -1.93941873e-03 -2.48924317e-03
      6.82159415e+26 -1.20815786e-03 6.82159415e+26 -1.64936052e-03
      1.48682031e+11 2.44699963e+15 6.74071489e+20 2.62165326e+18
      4.19449964e+19 1.00151239e+16 6.40922576e+17 1.68517872e+20
      1.09753353e+22 1.68526563e+20 6.43827486e+17 1.04399531e+19
      2.72008298e+21 3.87690466e+13 6.43827486e+17 4.19449964e+19
      2.68438716e+21 6.25956318e+14 3.98768128e+16 2.58688423e+18
      6.46721195e+17 1.60956889e+17 6.68145315e+20 6.77069268e+20
      1.62409344e+17 9.55945740e+12 1.67777101e+20 4.02413439e+16
      9.96937930e+15 2.48104208e+15 6.68145315e+20 6.80032285e+20
      1.04866119e+19 2.59845906e+18 2.69628596e+21 2.61012406e+18
      1.68523660e+20 1.68523660e+20 1.07375475e+22 4.40902358e+22
      4.40902358e+22 1.09277413e+22 6.74083030e+20 7.05431884e+23
      7.05431884e+23 1.05332730e+19 1.08799604e+22 1.05330916e+19
      6.74094570e+20 4.38998552e+22 1.69264432e+20 1.04864316e+19
      2.72003682e+21 4.39005983e+22 2.84604842e+24 2.84604842e+24
      7.08477903e+23 7.08477903e+23 8.45714762e+35 -5.93470316e-03
      -4.58508451e-03 -3.52038350e-03 -4.12876747e-04 -5.17528784e-03
      1.77122448e+23 2.72012942e+21 1.70008089e+20 1.61683133e+17
      1.08801461e+22 1.04867934e+19 2.61007870e+18 2.70813774e+21
      4.04229008e+16 6.43804946e+17 9.92399009e+15 2.58683915e+18
      1.08325521e+22 6.49648713e+17 2.58683942e+18 1.67782888e+20
      1.04866130e+19 2.70813802e+21 1.60959706e+17 1.12863383e+25
      1.77116503e+23 1.00605142e+16 3.82364413e+13 9.51512990e+12
      9.24950835e+09 6.11738836e+14 4.15738892e+19 1.04866119e+19
      4.17605291e+19 6.23108419e+14 1.60227827e+17 1.68517872e+20
      4.40909789e+22 1.69267335e+20 6.46721126e+17 6.46721126e+17
      6.80009204e+20 2.40098895e+12 2.46973853e+15 6.43816147e+17
      6.71096791e+20 9.64828122e+12 2.46973853e+15 6.43816147e+17
      1.60956889e+17 4.00583697e+16 6.99351592e+23 1.77122448e+23
      1.63132754e+17 1.47299549e+11 1.68517872e+20 6.23119492e+14
      1.45911661e+11 5.89165691e+11 2.68438745e+21 1.09279259e+22
      2.61012378e+18 2.59845906e+18 2.82167969e+24 6.83007053e+20
      1.68523660e+20 1.68523660e+20 1.07373629e+22 4.40909744e+22
      7.08489792e+23 4.39006028e+22 6.74083030e+20 7.08465941e+23
      1.13840023e+25 4.23182850e+19 1.74837898e+23 4.23175593e+19
      1.08803319e+22 4.39005983e+22 1.69264432e+20 1.04864316e+19
      6.77046117e+20 1.09277402e+22 1.14327397e+25 1.14327397e+25
      7.08477903e+23 7.08477903e+23 -4.05690866e-03 -3.41709284e-03
      -3.93295847e-03 -2.72811111e-03 -9.52685601e-04 -8.38157954e-04
      -4.15005302e-03 -4.37594438e-03 -4.37594438e-03 -4.37594438e-03
      6.82129236e+26 -2.52983277e-03 6.82129236e+26 3.01156950e-04
      -4.94946353e-03 -6.51647523e-03 -2.45772139e-03 -4.40160139e-03
      -3.20836343e-03 -3.97414621e-03 -3.77196050e-03 1.22422284e+31
      4.61216194e+25 4.09675756e+16 6.37292683e+14 2.45834721e+15
      -9.35494434e-04 3.09933555e+04 -5.71567053e-03 -6.90725911e-03
      -6.56171748e-03 -5.71823027e-03 7.07675499e-05 1.71015441e+23
      3.14948841e+30 7.71502004e+29 5.18130098e+34 -5.26136393e-03
      -5.21868328e-03 -3.82888620e-03 -2.49619829e-03 -4.31290036e-03
      6.62288806e+20 1.04855311e+19 -5.94419427e-03 -3.89676774e-03
      6.82122448e+26 5.35876665e-04 6.82122448e+26 -4.61865403e-03
      -4.87804040e-03 -1.45563995e-03 -3.39163514e-03 -3.28752305e-03
      1.93244214e-05 3.94884410e-04 -2.38615833e-03 -5.08395163e-03
      -5.96804498e-03 -4.73493896e-03 -1.03024160e-03 1.25890976e-04
      5.12368232e-03 5.30667556e-03 4.47132206e-03 1.47266197e-03
      -4.79751034e-03 -5.98540297e-03 -6.23040600e-03 2.22646282e-04
      3.18602280e-04 5.24952170e-03 5.85973635e-03 2.42723050e-04
      5.14112529e-04 -2.46968400e-03 -4.95337509e-03 -5.43250283e-03
      1.57090917e-03 4.26514633e-03 3.20785563e-03 2.94695422e-03
      4.17706370e-03 2.80775432e-03 -3.38724442e-03 -2.36997381e-03
      -3.90447048e-03 -1.56347436e-04 4.14290186e-03 2.38522235e-03
      3.48129962e-03 3.54984077e-03 3.69690312e-03 -1.61086500e-03
      -6.93151669e-04 -3.25279497e-03 -1.23212626e-03 -1.50416093e-03
      7.65483652e-04 -1.77224656e-03 2.23402213e-03 4.98470478e-03
      1.31491362e-03 8.22244911e-04 2.30650860e-03 2.67710013e-04
      -1.12417282e-03 -3.94935603e-04 -9.69432527e-04 1.30681103e-04
      -1.33257161e-03 -3.66625783e-04 6.48058922e-05 -3.21490644e-03
      -3.69569869e-03 1.92504539e-03 2.32475437e-03 2.98515265e-03
      1.02702109e-03 1.17832760e-03 -1.19651051e-03 -2.93796184e-03
      -1.08537974e-03 7.59657763e-04 7.35309301e-03 4.92646452e-03
      3.93262878e-03 -2.80645723e-03 -7.54917134e-03 -4.57629329e-03
      9.82075944e-05 3.25173861e-03 5.10024652e-03 -2.06814846e-03
      -6.17462967e-04 1.01681927e-03 4.82785865e-04 -1.76039455e-03
      -2.90447217e-03 -9.51403694e-04 1.40430930e-03 2.77517200e-03
      2.42054462e-03 -6.69071160e-04 3.22760455e-03 2.38574590e-04
      -2.34781648e-03 -4.12787218e-03 1.69202988e-03 3.50821111e-03
      5.83492545e-03 -1.75730453e-03 -6.31722016e-03 -3.90690845e-03
      -4.55996604e-04 -2.15626648e-03 -1.31284248e-03 2.65436154e-03
      1.67595153e-03 1.59739947e-03 5.40668657e-03 2.74139503e-03
      -2.92149180e-05 -3.91909527e-03 -1.58503337e-03 1.73042621e-03
      -2.32852227e-03 5.63579204e-04 4.00464144e-03 -5.63927810e-04
      2.24295887e-03 -5.81412693e-04 6.93078793e-04 -2.04498228e-03
      1.42468151e-03 1.93507076e-04 -5.18329733e-04 1.60455378e-03
      2.50371359e-03 3.76008684e-04 -2.27513211e-03 -1.60153222e-03
      -6.77250791e-04 -3.92058631e-03 -2.35110498e-03 3.65254295e-04
      -3.45210690e-04 2.08154810e-03 6.07643090e-03 4.86689247e-03
      4.40885453e-03 -3.01680434e-03 -2.48181308e-03 -4.35546739e-03
      1.70806458e-03 3.03453207e-03 1.09204149e-03 4.88518830e-03
      3.03130411e-03 -1.53461692e-03 -9.23016982e-04 -5.85955614e-03
      -6.33236894e-04 -1.04591798e-03 -3.96861788e-03 -1.49054197e-03
      7.17396615e-04 2.89519154e-03 5.14924573e-03 1.42373925e-03
      -3.24300467e-03 -5.92413545e-03 -1.43882958e-03 3.15863203e-04
      -1.67285232e-03 5.82197076e-03 8.46019574e-03 1.19708909e-03
      -4.36133007e-03 -4.19682404e-03 -1.71392562e-03 -3.20177246e-03
      -2.82718008e-03 2.29317509e-03 5.27793029e-03 6.14920631e-03
      5.70135191e-03 -3.04077566e-03 -7.29565602e-03 -2.79084174e-03
      4.05973336e-03 7.48742232e-03 4.95100766e-03 1.62470061e-03
      -4.71855700e-03 -2.85886717e-03 -3.55542311e-03 -3.76197230e-03
      2.40998063e-03 3.84211959e-03 4.96241078e-03 4.13971813e-03
      1.39870052e-03 2.33626598e-03 9.01727588e-04 -6.39092468e-04
      1.25112210e-03 -1.62143586e-03 1.44447244e-04 -2.80295080e-03
      -7.79452894e-05 -6.77400501e-04 -9.04792862e-04 -8.20270623e-04
      -3.40409204e-03 9.53024646e-05 -1.90521032e-03 7.53502536e-05
      1.75452267e-03 4.87391185e-03 3.99781717e-03 -1.33924186e-04
      -7.59724528e-04 -4.10947803e-04 -8.82922730e-04 -1.90356199e-03
      -3.12949577e-03 3.45305447e-03 4.92992625e-03 4.72150231e-03
      1.86305167e-03 1.76429097e-03 -3.13844183e-03 -4.38174605e-03
      -3.51159018e-03 1.32107292e-03 4.81517473e-03 2.61280360e-03
      3.94124817e-03 2.67503038e-03 2.97440798e-03 -1.06132624e-03
      -3.95287853e-03 2.23859469e-03 1.86991633e-03 2.46297102e-03
      2.73595215e-03 2.42685457e-03 -2.68947869e-03 -4.46951203e-03
      -2.01422139e-03 -6.27264380e-05 2.99226539e-03 5.97174745e-04
      -4.06744191e-04 -2.38280627e-03 -4.04107559e-05 1.28885626e-03
      -1.14540904e-04 -2.79848021e-03 -2.52229278e-04 -2.65139481e-03
      -3.23998439e-03 -3.34881246e-04 3.82821634e-03 1.71089172e-03
      2.56424211e-03 6.77892473e-04 1.71180669e-04 -1.23848347e-03
      -2.64815288e-03 1.08516356e-03 3.26558045e-04 4.41421941e-03
      5.18223969e-03 3.08113801e-03 -3.64530063e-03 -1.15352927e-03
      -2.24909163e-03 1.41664920e-03 2.17056717e-03 1.29871117e-03
      -3.74547701e-04 -6.45617547e-04 -2.42767087e-03 -2.41488509e-04
      2.38018157e-03 -1.38942513e-03 2.85267923e-03 4.55598161e-03
      1.00100983e-03 -3.28304479e-04 -3.72996414e-03 -8.31344340e-04
      -2.89681175e-05 -8.36547173e-04 2.13644258e-03 3.71766830e-04
      3.09299328e-03 1.29082950e-03 1.03958393e-03 2.57066847e-03
      2.07623746e-03 -1.92776532e-03 -8.42314039e-04 -6.86698244e-04
      1.68372411e-03 1.82618503e-04 -1.18046673e-03 7.14630994e-04
      -4.40582342e-04 1.02845905e-03 -1.51029881e-03 -3.44011176e-04
      -1.01404788e-04 7.71640975e-04 -3.40072578e-03 -1.95652433e-03
      -3.16649966e-04 8.94656754e-04 -2.48943572e-04 -4.28541593e-04
      -1.93585816e-03 2.55517592e-03 3.92159773e-03 2.83741485e-03
      -7.63181772e-04 -2.55802693e-03 -1.18688866e-03 1.96096860e-03
      5.84779494e-03 9.27799963e-04 1.45059451e-03 2.47476716e-03
      -2.50593410e-04 -3.77218495e-03 -4.77806479e-03 -3.97412945e-03
      -3.00651812e-03 3.59728030e-04 1.36062270e-03 2.32840655e-03
      1.01565244e-03 -4.64321667e-04 -2.49501644e-03 -3.04891239e-03
      -2.75410735e-03 -6.59437501e-05 2.07026722e-03 1.80812925e-03
      2.51401652e-04 1.75846362e-04 -5.09052596e-04 -2.14574486e-03
      2.56623351e-03 -2.10249936e-03 1.72646169e-03 2.39892310e-04
      2.39892310e-04 2.09431280e-03 2.00076867e-03 2.50584353e-03
      -2.48104916e-03 1.28325264e-04 -9.89052700e-04 -3.28332442e-03
      -3.55020771e-03 -3.14202299e-03 3.69806751e-03 3.51801584e-03
      3.61414440e-03 3.95320542e-03 -2.12031929e-03 -2.62753014e-03
      -3.12781730e-03 -1.53262436e-03 -2.60311482e-03 3.57754820e-04
      -1.88577187e-03 5.57008374e-04 -3.26644193e-04 -2.19664839e-03
      9.87611827e-04 8.95939476e-04 2.68063881e-03 -1.82042236e-03
      1.30352553e-03 -3.77456192e-03 -5.99681912e-03 -4.79684537e-03
      1.43409823e-03 4.24458366e-03 3.57575575e-03 -7.31822569e-04
      -2.74587772e-03 8.55946622e-04 -2.42298702e-03 -3.10187857e-03
      -3.45758116e-03 1.05445064e-03 -3.46257188e-03 -6.55116746e-03
      3.51335877e-03 3.15906550e-03 2.04575063e-05 -3.71330022e-03
      -1.12697715e-03 5.05285687e-04 -2.13010446e-03 2.85341707e-03
      4.02088137e-03 -6.55612675e-04 -1.72062311e-03 -3.68525740e-03
      -5.61149139e-03 -5.18637523e-03 -3.31698568e-03 -1.50010095e-03
      9.73031798e-04 1.71416858e-03 6.99205382e-04 -5.91031334e-04
      -2.05292320e-03 -3.71640106e-03 1.96518237e-03 3.20146885e-03
      1.49235758e-03 3.14897508e-03 2.45635444e-03 2.80734780e-03
      3.10444506e-03 -4.83062025e-03 4.66273719e-04 3.18381563e-03
      2.11636280e-03 8.80094361e-04 -8.11332837e-03 2.77443998e-03
      -3.58454883e-04 3.51077993e-03 6.85937877e-04 3.29568726e-03
      -1.49484797e-04 -1.12201239e-03 -9.46789980e-04 -3.92715028e-03
      1.71606150e-03 3.77556705e-03 4.30071633e-03 2.57286872e-03
      -1.53309735e-03 -2.61712424e-03 -2.60509574e-03 -8.34758580e-03
      1.52901863e-04 6.31100452e-03 6.33539772e-03 5.02456725e-03
      4.11361747e-04 -6.86194282e-04 1.51680864e-03 -5.51973004e-04
      -1.37007225e-03 -6.82470808e-03 8.36690364e-04 9.25925677e-04
      4.13865875e-03 4.74006590e-03 1.60261511e-03 -4.64365265e-04
      -3.14610568e-03 -2.60791089e-03 -6.47123717e-03 -1.62188441e-03
      3.14849801e-03 7.18755461e-03 4.36227489e-03 2.11505382e-03
      -5.83617541e-04 -3.86129628e-04 -1.70153496e-03 -4.20692656e-03
      3.59883509e-03 3.42751481e-03 1.47695898e-03 2.17373366e-04
      3.49781662e-03 2.58382846e-04 -2.17970926e-03 -3.06839426e-03
      -6.66668033e-03 -6.03441335e-03 3.82404495e-03 1.76499272e-03
      1.20126305e-03 1.19445438e-03 3.65719013e-03 3.41596757e-03
      2.36239401e-03 -2.83240410e-03 -5.93654718e-03 -2.08193460e-03
      -3.00974096e-03 -2.75529083e-03 2.51490186e-04 4.77155158e-03
      4.09076642e-03 2.28856644e-03 1.43486119e-04 -3.64866178e-03
      -2.91571650e-03 -1.35684595e-03 -1.43925555e-03 3.24942823e-03
      2.28662021e-03 4.53429250e-03 5.11355931e-03 2.55833822e-03
      -3.67843919e-03 -2.64846347e-03 -2.75133550e-03 3.45530873e-03
      -1.14764285e-03 -2.58408464e-03 -1.65756221e-03 1.10670121e-03
      2.91393109e-04 1.48493680e-03 1.23877870e-03 3.23124812e-04
      1.00873620e-03 -1.98184210e-03 2.70004559e-04 1.45591935e-03
      4.33066161e-03 2.60552694e-03 3.44361964e-04 -9.46258006e-05
      -2.51599471e-03 -3.52011318e-03 -2.88264034e-03 1.22976606e-04
      3.33357230e-03 4.37571295e-03 6.10464532e-03 4.71291738e-03
      6.38454687e-04 -4.61247284e-03 -8.24134517e-03 -6.69777999e-03
      1.41908147e-03 6.83288556e-03 3.72658460e-03 6.33771252e-03
      3.81586375e-03 -8.50987213e-04 -2.98792543e-03 -2.42671301e-03
      -3.75091168e-03 2.37154588e-03 1.70711917e-03 4.31361725e-04
      3.09959939e-03 4.49748198e-03 3.09552718e-03 3.08501651e-03
      -6.56787213e-03 -5.00407023e-03 7.50400184e-04 2.06956221e-03
      3.39372340e-03 6.67628413e-03 5.20494627e-03 3.82861658e-03
      -6.95565715e-03 -8.74143932e-03 -1.16593891e-03 1.43617345e-03
      7.53087783e-03 8.00656993e-03 5.12798200e-04 -1.71936094e-03
      -2.12708721e-03 -6.75762165e-03 -5.26227616e-03 -3.58912582e-03
      2.37274403e-03 1.50986540e-03 -3.36052570e-03 5.72221878e-04
      1.93172006e-03 1.87284767e-03 3.08028935e-03 2.89262342e-03
      -8.89957824e-04 -4.01018234e-03 3.31072952e-04 9.65405954e-04
      2.15603504e-03 -1.18435349e-03 -5.59344131e-04 1.97537523e-03
      7.12425564e-04 -2.87523493e-03 2.80069094e-03 1.19348918e-03
      3.32344789e-03 5.26188547e-03 2.32921098e-03 3.45330976e-04
      -4.09036875e-05 -4.42676712e-03 -3.96089675e-03 3.50443274e-03
      5.40190097e-03 2.70718616e-03 8.42079346e-04 6.12893235e-03
      6.50426047e-03 5.03193215e-03 -5.33071486e-03 -2.78944010e-03
      -4.69718641e-03 -2.04287609e-03 1.74836675e-03 6.49639545e-03
      4.20359615e-03 7.33198831e-04 3.78303812e-04 -2.90954160e-03
      -6.66632783e-04 1.79334043e-03 4.27146163e-03 5.52159874e-03
      3.04503157e-03 1.07865501e-03 -5.36537147e-04 -8.99318082e-04
      -4.21860721e-03 -1.13932753e-03 1.96094951e-03 4.25366359e-03
      2.50908709e-03 2.25834851e-03 -5.43789574e-05 -1.64476485e-04
      -1.16443599e-03 -2.59177090e-04 -1.26269599e-03 -6.09220413e-04
      1.85251678e-03 3.94391501e-03 7.31951790e-03 3.42232734e-03
      -2.64161732e-03 -7.42924679e-03 -2.02011457e-03 4.66191777e-05
      2.46964139e-03 3.49703105e-03 2.86317081e-03 4.34841774e-03
      2.48980615e-03 -1.40536809e-03 8.63726134e-04 -4.62538470e-03
      1.01987133e-03 5.66290738e-03 -1.03894691e-03 -5.02132811e-03
      -3.74555029e-03 1.20537262e-03 4.00809944e-03 3.02915508e-03
      3.41199036e-03 2.84054899e-03 -1.96839683e-03 -1.37148495e-03
      2.51531345e-03 1.69207214e-03 2.00492400e-03 -3.00295441e-03
      -3.40808835e-03 2.39262427e-03 2.12036795e-03 7.94582593e-04
      3.94211337e-03 1.60601747e-03 -9.58950841e-04 -6.20388077e-04
      8.04653042e-04 8.55961465e-04 -1.05363096e-03 -7.11588422e-04
      1.06930768e-03 1.12475408e-03 5.27325261e-04 1.17691187e-03
      2.05090648e-04 -2.35351408e-03 -4.25788993e-03 1.69028761e-03
      -6.95619383e-04 1.38432675e-04 2.60073319e-03 2.60378560e-03
      2.98591447e-03 -1.57450675e-03 -1.61437155e-03 -1.61437155e-03
      1.33489456e-03 3.89710674e-03 1.70260028e-03 -3.64408502e-03
      -2.08124169e-03 -3.04159592e-03 8.84094858e-04 -1.74485438e-04
      -1.31268505e-04 4.18438023e-04 -1.35998649e-03 -1.14679022e-03
      1.58893163e-04 1.30300049e-03 4.27301507e-03 2.22566049e-03
      -1.00983528e-03 -4.01005894e-03 -3.62579687e-03 -2.54293234e-04
      2.83813843e-05 -1.62365078e-03 -3.41721275e-03 -1.74790679e-03
      2.27687089e-03 2.88777519e-03 4.27406048e-03 -6.27781614e-04
      -2.57212576e-03 -2.83748587e-03 -4.34838090e-04 -1.01669843e-03
      1.87421707e-03 3.31315119e-03 1.13945629e-03 -7.97244022e-04
      6.69213245e-04 2.28108396e-03 3.81838600e-03 4.57921345e-03
      1.47678761e-03 -5.52748377e-03 -3.45925963e-03 -2.86066020e-03
      -1.84043124e-03 -3.10411816e-03 1.98029424e-03 2.28375802e-03
      2.68769916e-03 -1.45539094e-03 -3.62680736e-03 -7.58912996e-04
      -3.61396378e-04 2.00957351e-04 2.33889604e-03 7.27101753e-04
      4.00874345e-03 1.86860573e-03 -3.07452539e-03 -1.51117344e-03
      -6.88762346e-04 -3.71714891e-03 -3.51251336e-03 -5.66684734e-03
      -2.83536687e-03 -1.97068835e-03 -9.85035906e-04 -5.45528543e-04
      1.54281978e-03 -2.25650147e-03 -2.12833355e-03 -4.46502323e-04
      -1.45385833e-03 2.98049155e-04 2.14851717e-03 2.32280535e-03
      -3.06296250e-04 5.97485923e-04 -4.19893162e-03 -1.31833920e-04
      1.68409396e-03 -3.88783519e-04 -4.97102132e-03 -6.13945024e-03
      -2.22377013e-03 -6.85889798e-04 4.65978961e-03 3.80416866e-03
      1.36491435e-03 1.24983315e-03 -3.33129824e-03 -4.07077419e-03
      5.13856474e-04 -5.05838962e-03 -8.22828908e-04 8.41514440e-04
      7.29000056e-03 8.79880754e-05 -2.86255009e-03 -3.65866744e-03
      -2.15513282e-03 3.13926628e-03 4.18865308e-03 2.29768571e-03
      -4.09680279e-03 8.99314939e-04 1.37750932e-03 1.82326464e-03
      -3.28991213e-03 -3.45916720e-03 2.15146597e-03 1.67099049e-03
      4.92351968e-03 -2.37076380e-03 1.59193401e-03 1.30468223e-03
      3.34985857e-03 -4.28198231e-03 -8.16789863e-04 6.26414549e-04
      -2.08605570e-03 -1.87675701e-03 -7.22465292e-03 3.54485051e-03
      3.21035762e-03 5.88505110e-03 1.64267491e-03 -7.10960128e-04
      -2.25003716e-03 -3.54095246e-03 -2.15744221e-04 -1.48310370e-04
      4.05938877e-03 5.70231164e-03 3.81354592e-03 -1.32342277e-03
      -4.71123680e-03 -2.32143817e-03 -1.89262955e-03 6.69390196e-04
      2.90145539e-03 4.28526755e-03 5.04603051e-03 5.55944070e-03
      -3.02474806e-03 -1.48665905e-03 2.56432942e-03 2.96216551e-03
      -1.27748610e-03 -2.29518465e-03 2.31092345e-04 1.38289970e-03
      2.70810816e-03 -2.26280696e-04 -2.46142875e-03 -1.29268179e-03
      6.79611578e-04 1.13747420e-03 -6.43909350e-03 3.78160877e-03
      3.76882590e-03 4.81574656e-03 -2.58153392e-04 7.38617789e-04
      7.72503030e-04 7.72573039e-05 -3.55097745e-03 -1.48112478e-03
      6.46752422e-04 2.28155707e-03 3.41569236e-03 1.96412497e-04
      2.49113259e-03 4.90847975e-04 3.98392614e-04 -9.47540393e-04
      1.16409478e-03 -3.26133356e-03 2.37782020e-03 3.20544699e-04
      3.32232611e-03 -2.80561112e-03 1.98293547e-03 2.74881558e-03
      2.52180826e-03 2.85312603e-03 -2.20488990e-03 -2.32984521e-03
      -1.96204078e-03 -2.96243839e-03 1.38126651e-03 1.45128404e-03
      1.07929111e-03 1.84352673e-03 4.17612353e-03 2.49933894e-03
      -2.87923519e-03 -3.92624829e-03 -3.49030015e-03 1.67459669e-03
      3.91176157e-03 2.79362290e-03 8.87657399e-04 -5.37622906e-03
      -7.20903464e-03 -3.25153046e-03 -1.98938930e-03 3.30979284e-03
      2.40271352e-03 -1.33368521e-04 2.07470657e-04 -2.30950373e-03
      -3.86371370e-03 -2.18511699e-03 2.49114772e-03 -1.22687907e-03
      8.21658352e-04 -1.64195930e-03 -2.54167622e-04 1.68148871e-03
      2.42284080e-03 4.60294494e-03 5.35235740e-03 8.82787048e-04
      -3.84574500e-03 -2.69009802e-03 -7.01344945e-03 -3.06093250e-03
      6.37513760e-04 2.90072826e-03 6.12615095e-03 7.01568462e-03
      6.83512399e-03 8.69152369e-04 -5.78069873e-03 -9.32079856e-04
      -8.96233309e-04 -2.04671989e-03 2.24213721e-03 3.18568968e-03
      8.04849551e-04 9.46827524e-04 2.08873092e-03 -4.03383188e-03
      -4.60521830e-03 -2.36975425e-03 -3.57654481e-03 1.04985025e-03
      4.37869551e-03 8.67633615e-03 3.50559712e-03 -7.05039175e-03
      -4.92535438e-03 -2.55442411e-03 2.12509581e-03 5.62600698e-03
      4.77680052e-03 3.12259793e-03 4.32199362e-04 6.79155419e-05
      1.00507948e-03 -3.69296176e-03 -9.51541355e-04 -2.78553362e-05
      3.44028207e-03 1.48111128e-03 1.61408490e-04 -1.11663889e-03
      -1.49098109e-03 2.53499905e-03 5.20615897e-04 1.80118473e-03
      1.62965606e-03 5.10532234e-04 1.77988564e-04 1.35692069e-03
      -8.25329917e-04 6.82589132e-04 1.86042441e-03 -1.62665779e-03
      -1.73943432e-03 -3.76113108e-03 -1.71710958e-03 1.86813553e-03
      3.56952939e-03 -1.01681202e-04 -5.59481676e-04 2.94285710e-04
      -2.67362222e-03 -7.70119904e-03 2.23200419e-03 1.62165170e-03
      1.80899617e-04 6.35740813e-03 6.94245985e-03 8.39292444e-03
      3.86650395e-03 -4.52957768e-03 -6.04408514e-03 -2.79459811e-04
      -2.28207835e-04 8.66601418e-04 5.48901455e-03 4.38051252e-03
      3.12545756e-03 4.22627199e-03 -5.49141364e-03 -2.59065768e-03
      1.79602625e-03 2.09313305e-03 2.12998642e-03 1.93647505e-03
      1.49825332e-03 2.39184010e-03 2.88717303e-04 -5.35724452e-04
      -3.15999822e-03 5.47543186e-06 2.05025473e-03 1.00369635e-03
      3.87109607e-03 7.61774194e-04 3.96203250e-04 -6.89167355e-04
      1.17096980e-03 -6.08297414e-04 -2.34175241e-03 1.75881793e-03
      -2.57818523e-04 7.88338424e-04 4.15117247e-03 1.84155977e-03
      1.37924263e-03 -2.04605586e-03 -1.99766550e-03 -1.46884588e-04
      -8.98424536e-04 -3.69113311e-03 2.71242973e-03 5.84196346e-03
      6.77872822e-03 2.74619204e-03 2.96765193e-03 7.06048077e-03
      3.41417361e-03 -5.44707803e-03 -1.91944151e-03 -4.37661773e-03
      1.24363380e-03 1.86410418e-03 2.24319147e-03 5.25309471e-03
      2.50879326e-03 -1.35943387e-03 -2.10201601e-03 -2.55430792e-03
      -4.10096161e-03 -5.19790046e-04 1.73905038e-03 1.15844025e-03
      2.42435653e-03 -9.37155506e-04 3.82318650e-03 4.10053553e-03
      -7.68925529e-04 1.05005444e-03 -4.56280424e-04 6.57404540e-04
      -2.05061678e-03 1.35614979e-03 1.14741921e-03 3.81116261e-04
      -1.98250031e-03 7.46383681e-04 1.02636102e-03 1.22744101e-03
      8.48264259e-04 -3.93964164e-03 1.02229335e-03 1.20137457e-03
      3.75924236e-03 -2.43897922e-03 -3.58641334e-03 -2.29183119e-03
      3.46498308e-03 3.80296144e-03 1.22105295e-03 3.49428109e-03
      4.81080357e-03 2.64851097e-03 -1.39033969e-03 -1.10136508e-03
      -3.72393033e-03 3.05831945e-03 1.97999412e-03 -6.86808664e-04
      5.86825598e-04 -2.69946555e-04 -4.27933736e-03 -2.52575451e-03
      -1.87104614e-03 3.87408980e-03 4.27073613e-03 4.43996908e-03
      -5.13538858e-03 4.13739122e-04 -1.23345759e-03 -2.14445801e-03
      -5.81988459e-03 1.03052880e-03 8.76901322e-04 5.06204320e-03
      3.21772136e-03 -1.92732812e-04 -2.47207936e-03 -3.76571855e-03
      -3.54249147e-03 -4.35137982e-03 1.70882989e-03 5.18644927e-04
      -1.28422445e-03 1.38968905e-03 7.89044774e-04 1.88582097e-04
      -1.07078406e-04 1.08329899e-04 5.71788708e-03 1.63438823e-03
      -3.99398814e-05 3.98704397e-05 -2.13421904e-03 -2.39796867e-03
      -1.67564931e-03 -1.66580873e-03 2.22569564e-03 -1.46850781e-03
      -1.39648351e-03 1.19344948e-03 4.13485337e-03 3.42911342e-03
      -1.93536282e-03 1.39376905e-03 1.10884756e-03 -4.10089688e-03
      -3.73383681e-03 -3.03412322e-03 -3.03338096e-03 -2.68014427e-03
      1.55640033e-03 1.55640033e-03 1.59438176e-04 2.83410214e-03
      -2.70155631e-03 -3.13569536e-03 -4.35763830e-03 -3.76796932e-03
      -2.56417296e-03 -1.28082786e-04 3.30216601e-03 4.71605128e-03
      5.30178007e-03 5.76373364e-04 -3.27086006e-03 -5.91101940e-04
      -3.06761148e-03 -3.02144297e-04 1.17684912e-03 7.06359453e-04
      7.29882391e-03 1.81212649e-03 1.64836517e-03 -2.51749554e-03
      4.41543479e-03 -4.72743623e-03 3.69409623e-04 -4.48086765e-04
      1.00775673e-04 -5.20063972e-04 -1.01767387e-03 2.47689290e-03
      -3.90689820e-07 -1.20240635e-04 -8.95002508e-04 2.00286042e-03
      -1.05740374e-03 -6.23007538e-04 2.63685884e-04 -4.23029735e-04
      -2.42711627e-03 -1.85377698e-03 6.45954954e-03 -4.50041192e-03
      4.12554666e-03 7.12281093e-04 3.19546001e-04 -1.96604314e-03
      -2.56591616e-03 -1.51704508e-03 2.56022997e-03 1.77026715e-03
      -1.69605447e-03 1.24606490e-03 3.99674708e-03 4.07283287e-03
      -9.61994694e-04 8.77411221e-04 2.11552461e-03 1.99881848e-03
      -3.35450663e-04 -4.73866751e-03 1.77725020e-03 -1.16135390e-03
      3.41900368e-03 4.29819012e-03 3.22442944e-03 4.86914394e-03
      3.09942523e-03 -4.08895547e-03 -5.23077976e-03 2.70973658e-03
      5.67320641e-03 4.88334801e-03 2.18824181e-03 -8.10441468e-03
      5.68685646e-04 1.43201137e-03 5.45464782e-03 6.41661230e-03
      7.32571026e-03 6.18100446e-03 5.03325230e-03 -3.64966225e-03
      2.24485106e-04 6.73334871e-04 -1.64030190e-03 6.23133034e-04
      1.82182959e-03 2.54794327e-03 3.19916313e-03 3.26529425e-03
      3.35747330e-03 -2.29152269e-03 -1.31070017e-04 -3.75655945e-03
      2.25690636e-03 -1.88960251e-03 -1.74062108e-04 -7.33537076e-04
      2.63300352e-03 3.03204055e-03 -1.76510075e-03 -8.98177619e-04
      -1.90240610e-03 -5.40178851e-04 -8.78955398e-05 -3.43567430e-04
      3.78690823e-03 2.63678329e-03 3.45206191e-03 2.18066596e-03
      1.25581352e-03 1.06652535e-03 -5.09382771e-05 -9.29908478e-04
      9.57702170e-04 1.13310805e-03 1.74685847e-03 6.24719774e-04
      -3.62906884e-03 -1.94645463e-03 -2.52663018e-03 -1.65281890e-04
      -2.65140180e-03 -6.63657207e-04 4.88899648e-03 9.35002114e-04
      -2.55036564e-03 -3.58074042e-03 6.91092631e-04 2.35554297e-03
      4.11677919e-03 -5.79187600e-03 1.09201559e-04 2.11021281e-03
      -2.83721904e-03 -7.92241073e-04 -3.78641795e-04 1.21325720e-03
      3.57290683e-03 8.64395173e-04 4.84733580e-04 -1.30769063e-03
      -2.75676837e-03 -3.36244993e-04 1.62809703e-03 6.80251792e-03
      3.37838707e-03 1.13461714e-03 -2.08674604e-03 -1.91917247e-03
      -3.92256863e-03 1.13701040e-03 -1.10850972e-03 5.09657664e-03
      3.86256073e-03 6.29166490e-04 -1.90581952e-03 2.74445949e-04
      -1.45345135e-03 5.04485390e-04 -1.89546787e-04 1.90962653e-03
      3.83417006e-04 -1.95213023e-03 -4.99520218e-03 -1.85667584e-03
      1.92070438e-03 3.07808421e-03 6.53517293e-03 4.67924075e-03
      4.78039088e-04 -2.00619362e-03 -4.25119046e-03 -4.94307932e-03
      -6.18798716e-04 8.55720195e-04 4.13671089e-03 4.61467030e-03
      3.66893131e-03 -2.60952138e-03 -1.20984286e-03 -3.95961106e-03
      -1.65207591e-03 7.72710890e-04 6.05146773e-03 7.07819778e-03
      5.23041608e-03 -1.61058980e-03 -5.86492801e-03 -3.78753128e-03
      -1.08030927e-03 1.70426071e-03 3.62441153e-03 5.73208556e-03
      5.65107912e-03 2.08019651e-03 7.43328012e-04 -4.50117840e-03
      -2.54976447e-03 -2.25840718e-03 2.13939557e-03 4.60512564e-03
      -6.11838128e-04 -4.72413609e-04 -2.00720807e-03 9.30617447e-04
      1.05104793e-03 2.23403517e-03 1.18761125e-03 -1.69776496e-03
      -2.30459403e-03 2.52671284e-03 1.05424155e-03 -2.71628564e-03
      8.03727715e-04 7.77825422e-04 -1.41967635e-03 7.85569719e-04
      -2.04944608e-05 -8.92064301e-04 2.60102446e-03 2.70529697e-03
      1.54212269e-03 -4.87890653e-03 -3.87111097e-03 -3.22587765e-03
      -7.83985294e-03 -2.51503591e-03 5.26037114e-03 2.21391674e-03
      4.14633006e-03 4.99694329e-03 2.84050289e-03 4.36108996e-04
      -5.09032793e-03 -6.66380720e-03 -7.85821117e-03 1.13756658e-04
      4.09298437e-03 4.01292136e-03 7.17433728e-03 3.47435777e-03
      -7.16899056e-04 -5.08175232e-03 -1.92306435e-03 1.46951363e-03
      2.03269953e-03 -1.83357415e-03 -1.62013562e-03 -1.38644420e-04
      3.35615408e-03 4.56890184e-03 -3.26085603e-04 -1.88550365e-03
      -2.02259514e-03 -4.16192506e-03 -3.79755907e-03 -7.34343543e-04
      4.55998629e-03 1.27290515e-03 3.82944173e-03 -1.25391688e-03
      -3.47214425e-03 -3.70584079e-03 -4.48374450e-03 1.52066525e-03
      2.39918823e-03 4.77342540e-03 2.88360473e-03 1.80437195e-03
      -4.34481044e-04 -2.31816061e-03 -2.02294718e-03 -1.81598167e-04
      -3.24745150e-03 2.74713454e-03 2.37496453e-03 1.36685278e-03
      9.84416343e-04 1.24645466e-03 6.05615322e-03 -4.08840179e-03
      -7.36592198e-03 -8.81477445e-03 -3.76164913e-03 7.54894631e-04
      4.45302017e-03 7.82356132e-03 8.18384532e-03 7.02315848e-03
      6.44417130e-04 -8.80775042e-03 -8.42425972e-03 -4.15390451e-03
      -6.15684642e-03 -2.16404907e-04 8.13031476e-03 7.02701882e-03
      1.94409653e-03 2.29618698e-03 -3.58081423e-03 -1.82042411e-03
      -5.17474860e-03 -4.91964689e-04 1.87937240e-03 4.37894557e-03
      3.59939085e-03 2.11637141e-03 -3.27362050e-03 -3.05801909e-03
      -2.83431076e-03 -1.88136171e-03 1.27436931e-03 -6.82069047e-04
      3.55238619e-04 2.84287194e-03 -1.28286611e-03 2.84925266e-03
      -4.37259383e-04 -1.09046046e-03 -9.84122744e-04 2.58477731e-03
      -3.37952515e-04 5.66409959e-04 -1.63133594e-03 6.34704542e-04
      -1.23091904e-03 -5.98403509e-04 1.67872861e-03 5.90873417e-03
      6.13849098e-03 3.32829612e-03 -2.69272993e-03 -1.83800492e-03
      -5.46800578e-03 -2.42839544e-03 -1.70225010e-03 8.25143885e-03
      8.33206903e-03 8.19286425e-03 8.68823030e-04 -1.14434557e-02
      -1.32134825e-03 5.59415668e-04 1.23235374e-03 4.26139589e-03
      4.64638742e-03 4.67804354e-03 -1.45789818e-03 -3.86794447e-03
      -6.38926309e-03 -2.95004761e-03 1.78280065e-03 1.79753196e-03
      -2.05889484e-03 1.75538647e-03 3.96607677e-03 -2.63207196e-03
      -4.15915099e-04 -4.86930087e-03 1.08188973e-03 -3.04405461e-03
      -2.42536375e-03 -8.64576199e-04 -1.96164893e-03 1.29381858e-03
      3.46026453e-03 1.62859703e-03 1.14945881e-03 -2.91710324e-03
      -1.45058695e-03 -2.16404814e-03 -1.74956059e-03 -1.06138585e-04
      -2.31323857e-03 3.41100688e-03 2.46664463e-03 1.02828268e-03
      -2.64209672e-03 -3.19875404e-03 9.81579418e-04 9.18380043e-04
      4.85999277e-04 2.47529428e-03 -1.41565490e-03 1.69986488e-05
      4.42927936e-04 -3.37327132e-04 -5.98341809e-04 -5.58665371e-04
      5.71116339e-04 -2.27120286e-03 -1.67306769e-03 1.22184900e-03
      7.13909860e-04 -4.30841756e-04 -4.91668288e-05 1.73741160e-03
      -7.06057018e-03 -2.31734081e-03 9.94824455e-04 -4.95888386e-03
      -2.89254100e-03 -1.37619453e-03 2.92418874e-03 4.24120296e-03
      -3.81990545e-03 -8.42258974e-04 1.30964036e-03 1.91360852e-03
      4.81012557e-03 -3.30635317e-04 -1.23568310e-03 -3.34205711e-03
      -5.07783657e-03 -5.77779021e-03 -1.26034603e-03 -6.67950930e-03
      -1.12198491e-03 4.25323658e-03 5.25384815e-03 -1.97849842e-03
      5.37072956e-05 -4.34078416e-03 -6.08836301e-03 -1.61533791e-03
      2.40382549e-04 -2.56255316e-03 2.58538360e-03 5.73071185e-03
      6.80578407e-03 3.25657567e-03 -3.89292836e-03 -3.19979503e-03
      1.19523983e-03 -3.45119945e-04 2.01564399e-03 3.54874739e-03
      4.18399321e-03 2.54877214e-03 2.20086426e-03 1.43628567e-04
      -1.45380315e-03 3.33569502e-03 8.89637333e-04 8.52819358e-04
      -7.22004613e-03 5.27156983e-03 2.45709694e-03 5.14498772e-03
      -9.78059485e-04 3.46135441e-03 2.99875438e-03 -2.68919481e-04
      -3.41461739e-03 -4.24231403e-03 4.57417977e-04 3.11431964e-03
      1.85110408e-03 2.71918694e-03 6.95565948e-04 2.72707012e-03
      -2.28382717e-03 2.29193340e-03 3.19293141e-03 8.95694247e-04
      -1.16259279e-03 1.32026820e-04 -1.73987239e-03 1.59241538e-03
      1.10678445e-03 6.69429312e-04 9.27877380e-04 -6.19025528e-03
      4.04409552e-03 -1.16246601e-03 5.33092476e-04 2.91852234e-03
      9.65707470e-04 4.23276518e-03 1.72797299e-03 -2.51610088e-03
      -7.72215659e-03 7.01206562e-04 -6.35896344e-04 5.82648674e-03
      -8.22794464e-05 2.89074727e-03 2.93725217e-03 1.74187263e-03
      -3.45686305e-04 -2.08389200e-03 -2.66359351e-03 -2.57264148e-03
      8.79245112e-04 -5.98180282e-04 -4.74022323e-04 3.38905025e-03
      3.67364031e-03 3.15759680e-03 3.14952736e-03 2.11275602e-03
      1.60989619e-03 -1.43823703e-03 -2.37241038e-03 7.31574313e-04
      2.46154051e-03 1.16595882e-03 -6.63302327e-03 -2.71036988e-03
      -8.60412430e-04 2.24649208e-03 7.47933926e-04 1.46430437e-04
      -1.65621552e-03 -2.04120250e-03 -1.47691846e-03 -1.89479586e-04
      1.20415469e-03 2.42232392e-03 3.77517950e-04 -2.62103113e-03
      -2.57654930e-04 -1.74606510e-03 3.44396080e-03 -8.60091473e-04
      3.43261543e-03 6.55827054e-04 -1.36968319e-03 -2.56218063e-03
      -1.03495270e-03 2.46849057e-04 1.39946106e-03 1.44216313e-03
      -2.71205608e-05 -1.17887284e-04 -1.34610687e-03 -2.81236134e-03
      -1.04151969e-03 -2.52397265e-03 9.69991088e-04 6.89334190e-03
      -3.27246787e-04 -9.40098253e-04 -2.31557759e-03 -1.31912180e-03
      -5.72309829e-03 -2.45562918e-03 -1.20557845e-04 5.52005274e-03
      1.47009082e-03 4.08185041e-03 -1.04763149e-03 4.29173931e-03
      -4.51561791e-05 5.64203877e-03 4.64946916e-03 -2.89973617e-03
      -5.73943602e-03 -4.86439094e-03 -1.13938178e-03 5.73675241e-03
      1.19128171e-03 4.60240943e-03 5.33844531e-03 4.26622340e-03
      1.01883069e-03 9.81432619e-04 -5.33176586e-03 -7.30811153e-03
      -1.92544283e-03 5.65273780e-03 3.51816206e-03 5.45899989e-03
      -1.80130568e-03 1.45889411e-03 -5.07267751e-03 -4.87089250e-03
      9.77132469e-04 6.26997184e-03 6.51107961e-03 7.11862324e-03
      6.38847845e-03 3.25019215e-03 -5.33420686e-03 -5.95422368e-03
      1.82446209e-03 9.78016760e-04 1.31251116e-03 -1.30131689e-03
      2.20129499e-03 1.68183830e-03 -8.14064464e-04 8.78563515e-05
      -3.12396395e-03 -2.44094711e-03 -2.81351211e-04 5.02676470e-03
      5.02057665e-04 5.02057665e-04 -1.35541672e-03 -1.05986639e-03
      -1.56713556e-03 -3.16595612e-03 3.13863112e-03 2.89033353e-03
      3.47228954e-03 6.52698427e-03 1.30689726e-03 3.14536701e-05
      -5.58446674e-03 -4.57200082e-03 -4.30884631e-03 -3.30962520e-03
      1.63573632e-03 1.70023949e-03 -9.63191676e-04 2.92876316e-03
      4.21690289e-03 4.85884072e-03 2.33163638e-03 -3.89607437e-03
      -1.89225015e-03 1.07969705e-03 1.03296398e-03 4.94938018e-03
      3.21189663e-03 1.51220465e-03 -1.94765325e-03 -3.12489411e-03
      -1.95120811e-03 -7.84793519e-04 -2.13944353e-03 5.53180871e-04
      -3.40011728e-04 1.20052102e-03 1.91281189e-03 5.29681006e-03
      2.47860397e-03 -6.50841568e-04 -1.89698569e-03 1.33049453e-03
      6.39807899e-04 -2.65593641e-03 -9.73937334e-04 -1.54227600e-03
      -4.10905021e-04 -5.12932835e-04 1.53492991e-04 -1.98638113e-03
      -1.54230860e-03 -1.99152343e-03 -1.05388847e-03 5.80040680e-04
      5.47174830e-04 2.46812426e-03 2.05824128e-03 -5.12745511e-03
      6.90463057e-04 1.67654362e-03 1.26286317e-03 -3.06230481e-03
      -2.39805784e-03 -2.19549052e-03 2.34831031e-03 3.68708814e-03
      2.58866628e-03 6.35103497e-04 -2.29525100e-03 -5.29688410e-03
      -5.16520673e-03 -5.61564229e-03 -8.73546873e-04 5.31066442e-03
      6.02666056e-03 3.88677535e-03 2.07585836e-04 -1.45965302e-03
      -3.34619614e-03 -2.59945728e-03 -1.88133121e-03 -7.67424412e-04
      6.64190506e-04 2.68269889e-03 1.19788060e-03 2.68521323e-03
      -1.50909112e-03 -3.89964413e-03 -6.62413519e-03 1.02543400e-03
      4.10310645e-03 3.33380704e-05 -5.57668856e-04 2.73596542e-03
      -2.01553828e-03 -2.28495453e-03 -3.08912131e-03 -4.06228425e-03
      -1.69692223e-03 -2.27668742e-03 1.26213382e-03 3.44657199e-03
      3.16333375e-03 3.37232021e-03 -1.41549646e-03 -2.45950813e-03
      -5.17244823e-03 -4.30016592e-03 -2.89518549e-03 1.32261892e-04
      4.60179476e-03 4.01271693e-03 1.26399915e-03 3.48378252e-03
      2.07393453e-03 2.46745860e-03 -3.01781087e-03 -4.06328216e-03
      -1.34283258e-03 -7.33719789e-04 3.99575074e-04 -2.51705549e-03
      3.95791838e-04 2.76620453e-03 2.92564509e-03 3.23034916e-03
      1.13674288e-03 -1.00020960e-03 -2.93359114e-03 -2.01692944e-03
      2.34077033e-03 3.27342586e-03 1.60154118e-03 3.73853790e-03
      2.68235174e-03 1.07995316e-03 -2.92951846e-03 -4.91630984e-03
      -2.88220029e-03 2.80217687e-03 4.93922411e-03 4.79581952e-03
      7.94463325e-03 4.01883340e-03 -1.45359512e-03 -4.10545431e-03
      -2.76249042e-03 -7.38839479e-03 -3.41016508e-04 4.70919022e-03
      2.64919014e-03 1.79328723e-03 2.09049205e-03 2.57983385e-03
      2.78231804e-04 -4.70642175e-04 1.43074809e-04 -3.63642885e-03
      -4.05884208e-03 -5.26966061e-03 -8.50070035e-04 -3.50341783e-04
      2.26325216e-03 1.75092206e-03 2.29586032e-03 -5.09288302e-03
      -1.21949136e-03 -6.81270962e-04 -2.51942285e-04 -2.26948527e-03
      2.53196596e-03 1.13951904e-03 2.73700175e-03 -2.88742776e-05
      2.80672015e-04 -1.79694587e-04 -2.33389204e-03 -2.97552184e-03
      1.72625226e-03 -1.16199628e-03 1.59558805e-03 8.91246193e-04
      7.84638542e-05 1.71289590e-04 3.90874036e-03 4.47675725e-03
      3.82997654e-03 3.44986771e-03 -6.00874564e-03 -1.27132866e-03
      8.56972474e-04 1.50840485e-03 3.50768282e-03 1.44943630e-03
      -1.89147086e-03 -1.40032033e-03 6.53187628e-04 -2.54270877e-03
      7.07949558e-03 6.08193281e-04 -3.76663374e-05 -8.79969797e-04
      -5.31067653e-03 9.77294985e-04 9.01679755e-07 -1.77952333e-03
      6.23006653e-03 6.75681094e-03 3.93439597e-03 2.18417333e-03
      -6.49434514e-03 -5.88313630e-03 1.15230074e-03 2.73857266e-04
      -6.33460528e-04 -9.67898231e-04 4.01527807e-03 6.20877044e-03
      6.20877044e-03 -5.22701303e-03 3.50522838e-04 -1.52353593e-03
      -1.35873910e-03 1.60755124e-03 -8.97670537e-03 6.29451778e-03
      6.81185117e-03 5.74268447e-03 2.22810521e-03 -5.44092571e-03
      -2.88192811e-03 -1.57421781e-03 -2.49929307e-03 -1.60526705e-03
      4.98231780e-03 3.43118212e-03 3.78424255e-03 -3.96036450e-03
      2.01619230e-03 2.95479433e-03 3.95824714e-03 -3.36613064e-03
      -6.39437884e-03 1.92767289e-03 4.59261471e-04 1.85016752e-03
      2.23429012e-03 -2.46117078e-03 4.50212887e-04 -1.83630138e-04
      3.56213655e-03 4.00421349e-03 3.82735697e-03 3.93881550e-04
      5.52084856e-03 -1.44506991e-03 -5.16781211e-03 -3.04164109e-03
      -3.79126007e-03 3.17365699e-03 3.77919670e-04 1.84145244e-03
      1.61155083e-04 1.88094389e-03 1.38166768e-04 -3.00785003e-04
      3.73218185e-03 2.58144992e-03 1.64405486e-04 3.02806788e-04
      2.45014625e-03 2.49111350e-03 3.25189834e-03 -3.16552888e-03
      -9.22442647e-04 1.24882456e-04 -8.75660451e-04 -1.85064762e-03
      -1.63661968e-03 2.51212128e-04 3.76422936e-03 2.38243304e-03
      -1.50302856e-03 -2.66273506e-03 2.12742295e-03 1.81443247e-04
      1.59450021e-04 5.63944574e-04 2.02956772e-03 7.15661503e-04
      -5.56401035e-04 2.63061142e-04 4.23729792e-03 5.33773797e-03
      5.68217423e-04 5.17913373e-04 -4.64947516e-04 -3.40260169e-03
      -3.16149229e-03 1.20942504e-03 -2.84001394e-03 3.43183312e-03
      1.39625999e-03 -7.46297810e-05 -1.93405186e-03 -2.91069178e-03
      -4.08908911e-03 4.96091496e-04 3.21567897e-03 -1.20874099e-03
      1.47686165e-03 6.74169685e-04 -3.19320126e-04 -2.21372535e-03
      9.89173714e-05 -6.87924403e-05 2.20485218e-03 1.75942481e-03
      -2.63107964e-03 -3.42446170e-03 2.14743894e-03 3.05960025e-03
      5.40993223e-03 3.73238605e-03 1.36809202e-03 -5.94398985e-03
      -4.09187376e-03 -1.05232967e-03 -8.06601427e-04 -1.74491652e-04
      9.52080765e-04 2.67982436e-03 3.68496845e-03 2.53758905e-03
      7.45347759e-04 -4.91728121e-03 -1.12926529e-03 -7.77143214e-05
      5.18725486e-04 1.60460465e-03 2.70467298e-03 5.88661002e-04
      -3.86667554e-03 4.67218226e-04 6.28813868e-04 -2.39578937e-03
      -2.12517389e-05 1.53565151e-03 -4.70632483e-04 4.16505849e-04
      1.07637362e-03 2.30280915e-03 3.59396520e-03 2.85316538e-03
      -6.23874308e-04 -5.54624666e-03 -2.83283764e-03 -1.51906838e-03
      7.49033038e-03 6.86707441e-03 5.80366794e-03 6.15970977e-03
      -2.52652564e-03 -4.88699833e-03 -3.02222278e-03 2.87276017e-03
      6.78488053e-03 4.86618280e-03 6.26966357e-06 1.38521346e-03
      -7.36176677e-04 -2.70892004e-03 -4.30600718e-03 -2.42953980e-03
      -1.31852037e-04 1.60424714e-03 1.78555807e-03 2.50409497e-03
      1.97900482e-03 3.36668058e-03 -2.94991885e-03 -1.24285254e-03
      3.25469649e-03 5.21128112e-03 4.14568046e-03 3.18799657e-03
      1.92333257e-03 -3.82631598e-03 -3.41040781e-03 8.32748410e-05
      1.94122281e-03 1.70729007e-03 -4.62684024e-04 3.77727440e-04
      1.26114220e-03 2.36972538e-03 -1.48668746e-03 -8.95410194e-04
      -4.05603973e-03 -5.07995253e-03 -3.36893322e-03 2.85928394e-03
      4.70700115e-03 4.12796531e-03 4.86550620e-03 -1.34770424e-04
      -2.51361565e-03 -5.11912443e-03 -4.89294296e-03 -6.41959952e-03
      2.54798157e-04 3.03366664e-03 9.64211579e-03 7.61512714e-03
      1.00015872e-03 2.71671335e-04 -4.82016336e-03 -6.28707046e-03
      -3.31759057e-03 1.52660324e-03 5.53727197e-03 2.43477966e-03
      1.00776821e-03 5.73757757e-03 6.21016277e-03 1.15693000e-03
      -2.19408493e-03 2.82035372e-03 -6.92314934e-03 -3.61865293e-03
      -3.62055027e-03 -2.58030719e-03 2.27826647e-03 2.98616895e-03
      5.61029790e-03 3.17873154e-03 5.65462373e-03 -2.32475041e-03
      -5.49176708e-03 -1.82011351e-03 -2.75030802e-03 -4.26063454e-03
      -1.39152468e-03 1.23375771e-03 -5.27033641e-04 3.59738973e-04
      1.25562365e-03 3.08516715e-03 -2.81971530e-03 -1.44499482e-03
      4.55869921e-03 1.71023328e-03 2.48694932e-03 3.85591225e-03
      3.95164266e-03 -2.27760291e-03 1.19532703e-03 -7.29340318e-05
      -2.62329704e-03 1.55965085e-04 -6.10437302e-04 -5.27382188e-04
      3.55075742e-03 2.23428034e-03 -3.88937863e-03 -3.95072810e-03
      -5.71307633e-03 -3.12817097e-03 -6.62584906e-04 1.58189202e-03
      3.96361854e-03 5.52047649e-03 -3.28559021e-04 -2.55214493e-03
      -1.61483372e-03 -5.48876496e-03 -1.40979001e-03 -1.53092711e-04
      8.95025581e-03 8.74731224e-03 1.32953923e-03 5.43562835e-03
      4.61942691e-04 -6.09848974e-03 -5.49502205e-03 -1.41066860e-03
      -9.57776036e-04 2.04826519e-03 1.79714849e-03 4.63023270e-03
      3.81753966e-03 5.09694079e-03 -1.22352364e-03 -3.76517512e-03
      -4.54374496e-03 -2.96668126e-03 -3.06267734e-03 3.03065637e-04
      5.87577058e-04 1.90419168e-03 9.38473328e-04 2.91100563e-03
      1.90823572e-03 -1.81119272e-03 3.26930312e-03 1.35465409e-03
      -3.02279019e-03 -2.36799452e-03 1.80915068e-03 9.21886996e-04
      1.24906655e-03 1.32926286e-03 1.12599554e-03 -1.96026592e-03
